
//<![CDATA[

// a few things don't have var in front of them - they update already existing variables the game needs
lanesSide = 3;
patchesAhead = 55;
patchesBehind = 15;
trainIterations = 150000;

var num_inputs = (lanesSide * 2 + 1) * (patchesAhead + patchesBehind);
var num_actions = 5;
var temporal_window = 0;
var network_size = num_inputs * temporal_window + num_actions * temporal_window + num_inputs;

var layer_defs = [];
layer_defs.push({
    type: 'input',
    out_sx: 1,
    out_sy: 1,
    out_depth: network_size
});
layer_defs.push({
    type: 'fc',
    num_neurons: 36,
    activation: 'tanh'
});
layer_defs.push({
    type: 'fc',
    num_neurons: 36,
    activation: 'tanh'
});
layer_defs.push({
    type: 'fc',
    num_neurons: 24,
    activation: 'tanh'
});
layer_defs.push({
    type: 'fc',
    num_neurons: 24,
    activation: 'tanh'
});
layer_defs.push({
    type: 'fc',
    num_neurons: 24,
    activation: 'tanh'
});
layer_defs.push({
    type: 'fc',
    num_neurons: 24,
    activation: 'tanh'
});
layer_defs.push({
    type: 'regression',
    num_neurons: num_actions
});

var tdtrainer_options = {
    learning_rate: 0.000001,
    momentum: 0.0,
    batch_size: 265,
    l2_decay: 0.01
};

var opt = {};
opt.temporal_window = temporal_window;
opt.experience_size = 200000;
opt.start_learn_threshold = 50000;
opt.gamma = 0.98;
opt.learning_steps_total = 500000;
opt.learning_steps_burnin = 1000;
opt.epsilon_min = 0.08;
opt.epsilon_test_time = 0.0;
opt.layer_defs = layer_defs;
opt.tdtrainer_options = tdtrainer_options;

brain = new deepqlearn.Brain(num_inputs, num_actions, opt);

learn = function (state, lastReward) {
    brain.backward(lastReward);
    var action = brain.forward(state);

    draw_net();
    draw_stats();

    return action;
}

//]]>
    
/*###########*/
if (brain) {
brain.value_net.fromJSON({"layers":[{"out_depth":420,"out_sx":1,"out_sy":1,"layer_type":"input"},{"out_depth":36,"out_sx":1,"out_sy":1,"layer_type":"fc","num_inputs":420,"l1_decay_mul":0,"l2_decay_mul":1,"filters":[{"sx":1,"sy":1,"depth":420,"w":{"0":0.08003328485435661,"1":0.050943965560533606,"2":0.05554767780728667,"3":-0.2826631790294332,"4":0.09990117184450405,"5":0.1857910386859299,"6":0.1664381481409556,"7":-0.06320010423207464,"8":-0.034934362988016845,"9":-0.07146300778192848,"10":-0.13739163088293305,"11":0.03458620170398496,"12":-0.035900947099637,"13":0.13216108854784686,"14":-0.07244519351064233,"15":0.0059106238246992605,"16":0.009152685722579655,"17":0.018954803207672545,"18":0.04065731006589149,"19":-0.012650714473495075,"20":0.020651943155746873,"21":-0.02837704553533825,"22":0.07002765741838948,"23":-0.16354262838553146,"24":-0.029194570599932853,"25":-0.10904165797423646,"26":-0.009985241292572902,"27":-0.10992066647092187,"28":0.05232229903936505,"29":0.020887397826402167,"30":0.01565462450859157,"31":-0.10072120908590225,"32":0.0011604095483878942,"33":0.06615718886805061,"34":0.06270272916890958,"35":-0.06783969468683078,"36":-0.04455624101199925,"37":-0.0196146906111972,"38":0.06939295320784235,"39":0.024831023640019257,"40":-0.0351906863022506,"41":0.06628965842228703,"42":0.052658443764984936,"43":-0.010207244560777927,"44":0.09286705103474419,"45":-0.026495562333912044,"46":0.019220269734166243,"47":-0.030179940044019502,"48":-0.07498281530481556,"49":-0.027392711367672073,"50":-0.13446273477449217,"51":-0.015744791105786422,"52":0.006883636729046064,"53":0.00804518999240581,"54":0.029741454859074402,"55":-0.14153125175684061,"56":-0.010547771191717823,"57":0.023402378087353428,"58":-0.01070617003051704,"59":0.024664094197752926,"60":-0.059674536987062925,"61":0.02411894772339686,"62":-0.01499102895446703,"63":-0.035270543999192466,"64":-0.09360535899048628,"65":0.01634581096431373,"66":-0.10757829864580071,"67":-0.05764066665050638,"68":0.06050466191888022,"69":0.07863120521964041,"70":-0.007107502097417614,"71":-0.04254677057179938,"72":-0.04216702798305866,"73":-0.05289012717373366,"74":-0.06357121325265695,"75":0.07115554332380368,"76":-0.061794598830634054,"77":-0.039908462814069075,"78":0.032225357934660595,"79":-0.030592256863648946,"80":-0.0876128082825355,"81":0.0393893303935926,"82":0.007226308511803573,"83":-0.034657295382988326,"84":0.03264534342234465,"85":-0.014139606440762065,"86":-0.04192363509663685,"87":-0.11558612257136543,"88":0.007819480472727423,"89":0.06469700946897632,"90":0.025628083472843448,"91":-0.08196723684815597,"92":-0.049002607623898804,"93":-0.0010868136371238167,"94":-0.07145157198551048,"95":-0.08754450046426579,"96":-0.046827441189962335,"97":-0.04181892143916367,"98":-0.03821965327800291,"99":-0.05747594606988276,"100":-0.10567754572741296,"101":-0.013529300871042635,"102":-0.023666194550987094,"103":-0.024122737238631144,"104":-0.016989928708096062,"105":0.016321548727446743,"106":-0.018389696312282284,"107":-0.018709041501888807,"108":-0.09189594106926163,"109":-0.010489534054714401,"110":0.02780343619632264,"111":-0.004665220909839995,"112":0.07081043232656915,"113":0.020108283289984936,"114":-0.0458472546513805,"115":-0.06770282843222254,"116":-0.09280470982756815,"117":-0.02940630870364234,"118":0.005251723653090929,"119":0.017644069236546597,"120":-0.10479749095399875,"121":-0.035790825729236246,"122":-0.019127289944604043,"123":-0.10685472569308162,"124":-0.04503140645611828,"125":-0.058043527586112864,"126":0.037161932335099936,"127":-0.045939043206124054,"128":-0.09000492184582251,"129":-0.10833525223376066,"130":-0.03703160058521968,"131":-0.03782040115560889,"132":-0.05625294931943771,"133":-0.04549291428313883,"134":-0.0006564382590856834,"135":-0.010300992942587522,"136":-0.05505848546391371,"137":-0.11910458034990043,"138":0.013600058868515452,"139":0.02614646909305945,"140":-0.038038787087020624,"141":0.0024148033962485115,"142":0.03770450112274855,"143":-0.04736019424445878,"144":-0.053646267312470346,"145":-0.04513685519746837,"146":0.011074230633738075,"147":-0.0782545318133224,"148":0.03673615251858468,"149":-0.08578616531205151,"150":-0.03851489937398164,"151":-0.02429689184329447,"152":-0.0190911834783098,"153":-0.0063024072784828855,"154":0.028196805266496126,"155":-0.03217754582279151,"156":-0.019084484005107604,"157":-0.10127160964144118,"158":-0.11483267798183963,"159":-0.0776126683553018,"160":0.0009616767697881758,"161":0.06753345040532407,"162":0.03443794081406449,"163":-0.01850388534940014,"164":-0.09943075641943339,"165":-0.14219448997869913,"166":-0.004113664817474405,"167":0.0800564192371714,"168":-0.016170901567358967,"169":0.07117006260842278,"170":-0.06358225913816502,"171":-0.10493149327261432,"172":-0.016269674974134958,"173":-0.03948686832328376,"174":-0.11772281482507377,"175":0.004662997343392802,"176":0.08642476439446838,"177":-0.1000759492895828,"178":-0.17886785658525253,"179":-0.1499228103590618,"180":-0.061813550774015125,"181":0.04081047073844156,"182":-0.04982800969977101,"183":0.04210522040000959,"184":-0.09743262214367121,"185":-0.179116845555387,"186":-0.0397214784346944,"187":-0.019797699734600178,"188":-0.032764000014668095,"189":0.0426113970406823,"190":-0.003532914525787419,"191":0.01856837666505502,"192":-0.050075796482715526,"193":-0.07414199609017935,"194":-0.030770907666957094,"195":-0.013903378248577326,"196":0.0004027761149291125,"197":0.0038175274676745365,"198":-0.04981655972058802,"199":-0.2675489366581486,"200":-0.010745819300172633,"201":-0.10181997320223572,"202":0.022778900954492278,"203":0.022981189203859376,"204":-0.002890849916017742,"205":-0.03677542949147367,"206":-0.2291580053628992,"207":-0.05936131093608191,"208":0.0024396841736032985,"209":-0.07300174001954368,"210":-0.03370557442715116,"211":0.02648724950016637,"212":-0.08829031061705638,"213":-0.11337864595280957,"214":-0.1310385745650283,"215":-0.012664325333118205,"216":-0.0007103268733669944,"217":0.04197981854463295,"218":0.07316761594823981,"219":-0.06340664870357024,"220":-0.13916475438103718,"221":-0.07826708898924545,"222":-0.008355382611462006,"223":0.03908729068054324,"224":0.011348140457962513,"225":-0.03266766474882098,"226":0.04583738539193606,"227":-0.21658670504601996,"228":-0.08981604790243572,"229":0.0490151808428535,"230":-0.030404605704147273,"231":-0.022003531320546426,"232":-0.04610997619084588,"233":-0.05009432908328002,"234":-0.1250530221130032,"235":-0.16531917445328048,"236":-0.07875544655361373,"237":-0.03209184873968221,"238":-0.05684815446968713,"239":-0.021525257367150337,"240":-0.04023910576126042,"241":-0.18319718988371655,"242":0.016270921606492267,"243":-0.06684170427527521,"244":-0.048660149576316036,"245":0.04388563689582831,"246":0.0784099253251024,"247":0.005212704888824864,"248":-0.35617430891469104,"249":-0.006119746102157346,"250":-0.08406903196557422,"251":-0.16103241149293077,"252":0.04932459678363829,"253":0.012221682569268985,"254":-0.0235980634184464,"255":-0.12048035565331881,"256":-0.08780503182416953,"257":-0.03971865710260309,"258":-0.0714751884193471,"259":0.04361724190054776,"260":0.010088741274683262,"261":0.021929572232492367,"262":-0.1605381055733702,"263":0.04039249426652645,"264":-0.06731782019728197,"265":-0.019394760340679676,"266":0.02352384499705328,"267":-0.07533576119429998,"268":0.041044986895847735,"269":-0.09124428584797518,"270":0.004210949032966043,"271":-0.054521199756777786,"272":-0.05598000434991293,"273":0.020188029367816177,"274":0.03206623100550166,"275":-0.09104089971624342,"276":-0.16970951947642762,"277":0.012790087014241155,"278":0.0685409668445779,"279":-0.04135460212226509,"280":0.007478543799677891,"281":-0.016952411430469754,"282":-0.04706574395511243,"283":0.01707275576840755,"284":-0.1003336806802126,"285":0.0129026695350711,"286":-0.02223525647700956,"287":-0.03731275758782844,"288":0.09248901836438708,"289":0.01911001098636746,"290":-0.03291258812993051,"291":-0.01287496667544708,"292":-0.08672751722859261,"293":0.005105022659140129,"294":0.0201779529911842,"295":0.060988166760768577,"296":0.06806733332758068,"297":0.24400048397084464,"298":0.10647219548125177,"299":-0.045957996107682274,"300":-0.019236336063941,"301":-0.009069366692043132,"302":-0.03117663987433866,"303":0.07518390758902685,"304":0.026045166507159705,"305":0.11209616601070474,"306":-0.10421905165092757,"307":0.08290515099240169,"308":-0.004313621152163386,"309":-0.029212723924530584,"310":-0.009254587062877032,"311":0.12666821975536108,"312":0.1049403395688652,"313":0.03724012238205064,"314":-0.028934830131482518,"315":0.0028973482654649344,"316":-0.06775524620024795,"317":-0.0915553690514776,"318":0.10694126414328908,"319":0.037239971877333945,"320":0.03291028261533913,"321":-0.035867909397525606,"322":-0.03806848150043257,"323":-0.06485392913465218,"324":-0.012335988282537071,"325":-0.16361091044314552,"326":-0.015676026658890552,"327":-0.042859709203826944,"328":0.08371995935550926,"329":0.06129192338376552,"330":0.021577341730346884,"331":0.1188454665609221,"332":0.13614248206931698,"333":0.21265083882399824,"334":0.03797028779960119,"335":-0.036032358198742925,"336":0.03683267507904359,"337":-0.019072139438474526,"338":0.10915650873005239,"339":0.35738493809479877,"340":0.12259529390907517,"341":-0.026937636135133225,"342":0.06138184361140324,"343":0.019908327318869032,"344":-0.0425826897150226,"345":0.0936762918338094,"346":0.275211027700701,"347":0.2129574041854322,"348":0.06744764807671967,"349":0.030537594918454137,"350":-0.00244362726318116,"351":0.09628872585958193,"352":0.12664583585462788,"353":0.04916502206238314,"354":0.24443066477266384,"355":0.003562301500957449,"356":-0.06326378559131943,"357":-0.01281410681086131,"358":-0.025067648105598903,"359":0.15200802874792305,"360":0.20750130843039558,"361":0.4042324992927307,"362":0.0868739796810443,"363":0.1194887782707869,"364":0.057284225831347804,"365":0.07352943478665688,"366":0.2688904496840428,"367":-0.07757002006647874,"368":0.1515991230997546,"369":0.12093935216143549,"370":0.006362888837914438,"371":-0.006485398138925587,"372":0.03665378818533247,"373":0.24806355200663935,"374":-0.037455394135576116,"375":0.18380546363925354,"376":0.05670293757695321,"377":-0.013499027708364754,"378":-0.04081387391326303,"379":-0.11628370920449199,"380":0.19753191932998743,"381":0.33328276893827247,"382":-0.018440747836000283,"383":-0.04501551439551677,"384":0.0846063250801607,"385":0.04355451372982592,"386":-0.04550151132054818,"387":0.1756171367679487,"388":0.5982869008686119,"389":0.1042639120670172,"390":-0.018120675684422487,"391":0.02783199310630053,"392":0.007496196180809318,"393":0.04771579263691439,"394":0.05354929984692611,"395":0.6747784683246882,"396":0.11217101426367583,"397":0.13221755010891478,"398":0.003453240565573671,"399":0.037699914003854,"400":-0.027376842168827693,"401":0.013420190338119083,"402":0.37264962637079285,"403":0.0901599075510387,"404":-0.08215688217510544,"405":0.09823093896149883,"406":-0.0316148021855194,"407":-0.0033002027526927514,"408":-0.04897297052596907,"409":0.4112715085464132,"410":0.0002795386829051513,"411":-0.0779344434829451,"412":-0.011300463763770785,"413":-0.041743190598203875,"414":-0.06771579549291103,"415":0.0280100543464074,"416":0.26149264873247297,"417":-0.11757817965648817,"418":-0.04265920501341111,"419":0.05985752267064112}},{"sx":1,"sy":1,"depth":420,"w":{"0":0.39788447595416193,"1":0.08477046335025423,"2":0.02692042965280794,"3":0.26705104142962827,"4":-0.02254875316551817,"5":0.03575745064683753,"6":-0.08846550173148224,"7":0.17747763439269415,"8":0.14500510393561739,"9":-0.06026851403169894,"10":0.19297661775241212,"11":-0.05121377773191623,"12":0.01763785867652327,"13":-0.10088574208493052,"14":0.1172716949083458,"15":0.20019733191632907,"16":0.1156771824510583,"17":0.2085833988016651,"18":-0.005522479729231469,"19":-0.002529737570403496,"20":-0.15338156884937382,"21":-0.08707444622832307,"22":-0.12255241331181,"23":0.008677964650100362,"24":-0.013816282405249963,"25":-0.054418475649511786,"26":-0.06803097101370546,"27":0.03122727287608864,"28":0.042087029802172,"29":0.010225154229369584,"30":-0.015894855272202586,"31":-0.02163337568486873,"32":-0.022279283784793973,"33":-0.016702155608896086,"34":0.004270624288324988,"35":-0.08470924439283302,"36":0.07992919912102295,"37":-0.019338252028658697,"38":0.05940069855679769,"39":0.07598615288907752,"40":-0.01678691928589463,"41":-0.013878034417723784,"42":0.03760676574498615,"43":0.020164435884526433,"44":0.04026513283496101,"45":0.018104409325509618,"46":-0.0978664941653688,"47":-0.07835360746193919,"48":0.01078097608287641,"49":-0.0017547628260970087,"50":-0.0039675444152831385,"51":0.0010573702757078077,"52":0.0005885493404867374,"53":0.057036163752685616,"54":0.08110325259375975,"55":-0.09223847273538485,"56":0.09390531876250988,"57":0.07690678049254529,"58":-0.0037544899984528366,"59":-0.04870744957822977,"60":0.11002768004575672,"61":0.03838677050464521,"62":0.06554353938222295,"63":-0.07116029274436206,"64":-0.01662949962342727,"65":-0.033173226976850524,"66":0.028720553625812977,"67":-0.07656740510474276,"68":-0.009963315938973805,"69":0.05293762393189405,"70":0.02645279019359682,"71":-0.0079991498520759,"72":-0.02607273493199662,"73":0.026240202645335723,"74":-0.006866619625368577,"75":0.024817669415641876,"76":-0.10410210796860668,"77":0.04895445107759658,"78":0.01042139621938321,"79":0.0937516066497709,"80":0.00014651946392271007,"81":0.044927776659978484,"82":0.07407014968619556,"83":-0.009019652983349467,"84":-0.037389197559973816,"85":0.0012473861537226293,"86":-0.06810721291003126,"87":-0.05010713514354759,"88":0.04436585661680727,"89":0.016003808298994456,"90":-0.0004954389378314716,"91":-0.07811276283630754,"92":0.06697737627844244,"93":-0.011325897320836173,"94":-0.010931503811628076,"95":-0.06553972489477798,"96":0.055443398252195415,"97":0.07831736088995603,"98":0.07387051123707383,"99":0.006586845693247046,"100":-0.026737165538620895,"101":0.05809327333784798,"102":0.035484647244829526,"103":-0.08176097586310845,"104":-0.0011889057524152077,"105":0.03653647851197821,"106":-0.015506775939458251,"107":-0.04133336320058656,"108":0.02123796250509168,"109":0.12091325916048942,"110":-0.052528155638338916,"111":-0.057107450790080526,"112":0.052903958322556864,"113":-0.00699366792065303,"114":0.023739978926897706,"115":-0.05615967507983145,"116":0.01235273486202725,"117":0.018289291585867676,"118":0.040924589572272914,"119":0.002146391444377271,"120":0.07091097550755888,"121":-0.06913238925341927,"122":0.09981734257595569,"123":0.03868690987511454,"124":-0.0018621566749104346,"125":-0.05772006007479393,"126":-0.03997094861299348,"127":0.012881757368359583,"128":-0.0032188900628838907,"129":-0.010256409144855,"130":0.020987266104875724,"131":0.029933420016049445,"132":-0.029669665518325092,"133":-0.028669593621795993,"134":0.08453174315616976,"135":0.01459107599604252,"136":-0.029898577085319202,"137":0.05608885324538979,"138":0.01941917494789702,"139":0.031052846087551732,"140":0.017211472976652726,"141":0.08387425799673415,"142":0.011124242192281263,"143":0.029844220233059573,"144":0.08585633195940244,"145":-0.0055405545105020534,"146":-0.04665033098472645,"147":-0.042115457503335875,"148":-0.03693246735110572,"149":-0.028700181601936558,"150":0.033172756235407226,"151":0.04859277876128543,"152":0.08338123709588176,"153":-0.013670429822342513,"154":0.008850072564372882,"155":0.022789737718365562,"156":0.028642437281848614,"157":0.01903725923759176,"158":0.03718461708432,"159":0.058957056099463265,"160":-0.001972581588411889,"161":-0.012148482038515226,"162":0.08603358825280981,"163":-0.027615745930584967,"164":-0.06139332367162421,"165":-0.02628863477641521,"166":0.051245304359904105,"167":-0.033891407314038606,"168":-0.002511801747113918,"169":0.07697053878291166,"170":-0.03448410816054365,"171":0.04764438195968516,"172":-0.017802120224863962,"173":0.04936248233438814,"174":0.02095536785925097,"175":0.06498661650155732,"176":-0.03379704295896916,"177":0.03873523163336507,"178":-0.021880477213142437,"179":0.042789546262593944,"180":0.04575163345752736,"181":-0.01120471180472933,"182":0.04233114857326104,"183":0.05857182455651977,"184":-0.05975294300481447,"185":-0.029827912932043697,"186":-0.09626866900534843,"187":-0.04691126811265803,"188":0.10460920621929704,"189":-0.024777276016461135,"190":-0.01495360293088312,"191":0.03482072701185555,"192":-0.0043386460418446396,"193":0.008166321431856709,"194":0.004173813785398975,"195":-0.01749526831474386,"196":0.05820256452688146,"197":0.16318136094423155,"198":-0.005007432442955761,"199":0.02501013899501897,"200":0.07198854462581465,"201":0.016112863053174144,"202":0.06367668628606872,"203":0.006449753138311759,"204":0.10495862788404986,"205":-0.08793576262115653,"206":-0.0808328326274885,"207":-0.030678621643468653,"208":-0.005992107775880729,"209":-0.02772586718302738,"210":-0.043557315537206286,"211":-0.04166433749798913,"212":-0.04953892029224466,"213":-0.007550082463918317,"214":-0.043559639596072904,"215":0.008754753605551955,"216":0.10140103088019657,"217":0.025709616620582274,"218":-0.007764055640865597,"219":-0.0030338545377556025,"220":0.05838355506014712,"221":0.01551825360204567,"222":0.01798910804050906,"223":-0.009718936622124722,"224":-0.029362663410470745,"225":-0.01113911241481945,"226":-0.020868938897009023,"227":0.0116113883260895,"228":0.05230201141687734,"229":0.012375631685194458,"230":0.06846525546371353,"231":-0.0014199830449410221,"232":0.10972326473419608,"233":-0.02864491630349963,"234":-0.005068507474732126,"235":-0.04255776821328065,"236":0.06548661054737534,"237":-0.05204333713567146,"238":0.06253773549762534,"239":0.0008778827195445569,"240":-0.1267962883362933,"241":-0.016053574601734892,"242":-0.05865384694523378,"243":-0.06958535753479796,"244":0.0642417352207628,"245":-0.054840626350637516,"246":-0.026624594082059767,"247":0.0006094405461619988,"248":-0.008194633312397042,"249":0.06011835539735107,"250":-0.05683397593234951,"251":0.07772908104462116,"252":0.0334009443355065,"253":-0.06509263420501643,"254":-0.020970736692190007,"255":0.035144337991187775,"256":0.08298505859182498,"257":0.03828682145096596,"258":-0.05483502519499499,"259":-0.024928507725182705,"260":0.09989449386014512,"261":0.009291095065475116,"262":-0.023904789119367623,"263":-0.062078375086922044,"264":-0.05533960233447522,"265":0.011912086669522754,"266":0.029866930532653567,"267":-0.04571109733530399,"268":-0.19357120870520642,"269":-0.1132515900968246,"270":-0.020438935015522033,"271":-0.023595117642625143,"272":0.005206993389859957,"273":-0.02262421137241918,"274":-0.07155881912086251,"275":-0.05860717754731074,"276":0.09675712860122343,"277":-0.013732506571175295,"278":-0.0010610165896589188,"279":-0.0067355513528792295,"280":0.03155634097524258,"281":-0.05282686497449145,"282":0.02414895037961631,"283":0.19870780200336308,"284":0.009795708929877177,"285":-0.04550654742985831,"286":-0.025743548842672527,"287":-0.1791096505573734,"288":0.022533828225371526,"289":0.09345488949255322,"290":-0.016241055439534254,"291":-0.04294867212188953,"292":0.040290311887541244,"293":-0.013363791216946174,"294":0.03147281407347368,"295":0.007159458154788505,"296":-0.14085107316550932,"297":0.010187733128566731,"298":-0.028725774652017557,"299":-0.057470578543868285,"300":0.011266557745702628,"301":-0.0496123696207667,"302":-0.023076082362635884,"303":-0.14944586607852015,"304":0.044037190415477705,"305":-0.07453321279205688,"306":0.016056561393721296,"307":-0.05222596888710293,"308":0.048422557686620446,"309":-0.019025678241269387,"310":0.09658627544137148,"311":0.11356406029857485,"312":-0.01267323015593863,"313":-0.09076986753916959,"314":-0.03367110231092202,"315":0.028017718270433135,"316":-0.08080070247527661,"317":-0.00839524644297968,"318":0.2486616963401538,"319":-0.08655252421730178,"320":0.0324139514606041,"321":-0.07331319747733854,"322":-0.08386705087037667,"323":-0.03929549390943881,"324":-0.12627551481920918,"325":0.05912465665849462,"326":-0.036112427256174896,"327":-0.06276506075581643,"328":0.04492435208210528,"329":0.10131940263750117,"330":-0.02766479562155857,"331":-0.07908096623728136,"332":-0.023974600879405495,"333":-0.1080725805096984,"334":0.06850054689726064,"335":-0.09145281779119045,"336":0.10597059415844616,"337":-0.03272415813044321,"338":0.2702551168003731,"339":0.05061555361218366,"340":0.11302956168682084,"341":-0.07956881597060277,"342":-0.05891119814144338,"343":-0.023974427084738854,"344":-0.11782912128850352,"345":0.10528721995848234,"346":0.06270662214239839,"347":-0.016866110986136315,"348":0.018097433754152945,"349":-0.02321149653811717,"350":-0.0949921520876388,"351":0.00514209480393862,"352":-0.01103587100858555,"353":0.10294403796473929,"354":-0.021420377956030672,"355":0.052203726668547196,"356":-0.01881910997702038,"357":0.07197705648644102,"358":-0.06400494252588423,"359":-0.2366691987339656,"360":0.12339148518155371,"361":-0.0027189072073318422,"362":-0.032408424611092446,"363":0.06830543198972115,"364":0.0039266686206141255,"365":-0.06360831618707545,"366":-0.2286582873156335,"367":0.32853995352220733,"368":-0.08348303798123687,"369":0.05250188089074168,"370":-0.04600853519452862,"371":0.019833758797715186,"372":-0.01767414330088365,"373":-0.16708592184609383,"374":0.8433274139237755,"375":-0.018138446079006117,"376":-0.035049798062140355,"377":-0.06675907627518357,"378":-0.02418734123323291,"379":0.026718983447146585,"380":-0.1874301363292441,"381":1.5243048028157522,"382":0.005927822445381897,"383":-0.02323339454224622,"384":-0.05704029579057842,"385":-0.03696311021290392,"386":-0.030375211264001674,"387":-0.733088559118378,"388":0.4447363371259453,"389":-0.009696937615339372,"390":0.02078581528766284,"391":0.1467362169207866,"392":-0.07808699027098467,"393":0.009977551798532276,"394":-0.6245586826353418,"395":0.2545019381865977,"396":-0.1414378229967779,"397":-0.024304377446744695,"398":-0.09992027260055675,"399":-0.020403880344118244,"400":-0.0034657753502456024,"401":-0.7095967283181552,"402":-0.255667979208543,"403":0.08045600824299684,"404":0.0045109706578744,"405":-0.036268675208501105,"406":-0.06894175123126027,"407":0.014563781940164408,"408":-0.958299031904208,"409":-0.5367111577163994,"410":-0.007702275637685094,"411":0.004894727370313715,"412":0.03707674345996393,"413":0.06631255873501359,"414":0.04447080168023772,"415":-1.6695489364702973,"416":0.13487212092220036,"417":-0.05199059480411286,"418":0.02541057462834768,"419":0.08609550427211807}},{"sx":1,"sy":1,"depth":420,"w":{"0":-0.01679337194031896,"1":0.08707394956844657,"2":-0.15211471149933917,"3":-0.10873011865868211,"4":0.09202360363512337,"5":-0.05532873128867411,"6":-0.15392150822929573,"7":-0.012269366834185612,"8":-0.04032912473052006,"9":-0.10329177049694327,"10":-0.14946458055429998,"11":0.16251596178628827,"12":0.0025638822101828286,"13":-0.025403489907632183,"14":-0.0877709552505569,"15":0.0775744917034558,"16":0.041127189166733504,"17":0.007508759288929687,"18":0.16376613101159268,"19":0.04691332852316724,"20":0.03006547699282229,"21":-0.041888963772724504,"22":-0.004139609435787872,"23":0.015699461745971983,"24":-0.012038642735455312,"25":-0.044880630521408386,"26":-0.015615571198968222,"27":-0.026261831775630212,"28":-0.016734657603825205,"29":-0.006711108535731544,"30":0.004488290010891123,"31":-0.009257760213162002,"32":0.010039888201671827,"33":-0.030803183196687303,"34":-0.006589942102997395,"35":-0.011587282098417149,"36":-0.02219507233851413,"37":0.014505218863664102,"38":0.026811096226342774,"39":0.015385797363223815,"40":0.013555754438076268,"41":0.01627929904357479,"42":-0.03680181266536236,"43":0.0004578145882112957,"44":0.016201668165159486,"45":-0.0028422943511410186,"46":-0.04556495607762279,"47":-0.0055449450510470675,"48":0.02956095102513148,"49":-0.000012171475865376193,"50":0.018578850182708023,"51":-0.036146746449350245,"52":-0.03039851565382159,"53":0.0020117100148398463,"54":0.01049555117204208,"55":-0.0360807962990616,"56":-0.03046350370834529,"57":-0.029882802440214254,"58":-0.0024229233399794413,"59":-0.04603489119972835,"60":-0.027888844577383096,"61":-0.0007138739201540193,"62":0.0005482671661004474,"63":0.03394264622870024,"64":-0.021843377565899075,"65":0.00153244808746331,"66":0.013783325393774077,"67":0.020030287209945596,"68":0.004150698977449097,"69":-0.0010058839252972522,"70":0.001766051301901002,"71":-0.013162490435441569,"72":-0.03542117194864592,"73":-0.01479799816595874,"74":-0.05180414726477514,"75":0.07540771054823359,"76":0.032373296868463526,"77":-0.009979468317150407,"78":0.03567448553851647,"79":-0.03797858477237228,"80":-0.023386205556825652,"81":0.025614342984675256,"82":-0.0038534613072923694,"83":-0.04701602393214093,"84":-0.030023880162395055,"85":-0.01834412426653841,"86":-0.023131539141765186,"87":-0.014915645609559698,"88":-0.04177951735768352,"89":-0.04497147763639184,"90":0.030177200717570494,"91":-0.009740714026469609,"92":-0.02619600853272394,"93":0.03407579495767715,"94":0.022480554159328016,"95":-0.0007412334376589812,"96":-0.026852726498834373,"97":0.007534338572293054,"98":0.0316324455766801,"99":-0.012323197506266845,"100":-0.05355852810413368,"101":-0.018528026409810085,"102":0.003272144493819672,"103":0.04736716376056673,"104":-0.025553086487838092,"105":0.03244402199182496,"106":0.027056658051918942,"107":-0.000346374911298534,"108":-0.032589909149068313,"109":0.004252920613660469,"110":0.010568695701283071,"111":0.02509972005715561,"112":-0.05113039450812985,"113":0.014177627708515918,"114":0.0016604906633077737,"115":0.006577287586472207,"116":-0.025933463178027253,"117":-0.04258409030332033,"118":0.041645930839290864,"119":0.0018379777135824795,"120":0.006600864950993806,"121":-0.003746512379421641,"122":0.045694393704348184,"123":-0.014709465660133373,"124":-0.024401720019361486,"125":-0.03635763482535988,"126":0.015380302514302566,"127":-0.04296980028169144,"128":-0.02698731386945315,"129":0.002713229331105003,"130":0.017787796211560424,"131":0.029391999828093086,"132":-0.0069365331782499364,"133":0.030405209986096127,"134":0.05847591759066845,"135":-0.02667702527022475,"136":-0.06910144107298066,"137":-0.009357761933482962,"138":0.005628710208852281,"139":0.030224819440324097,"140":-0.03656060639497057,"141":0.005311224133852364,"142":-0.0134198848492123,"143":0.025290814773772093,"144":-0.02200449794745744,"145":-0.027527312590979333,"146":0.0268060120029613,"147":0.04517211850546162,"148":0.0025265053367751287,"149":0.01436387161435185,"150":0.05764541807143223,"151":0.028469077598601192,"152":-0.022172309659911703,"153":-0.026917699114869825,"154":-0.029226949025207286,"155":-0.05847046555417058,"156":-0.013445702683202472,"157":-0.04679207029273841,"158":0.00810263359353746,"159":0.058186141324513385,"160":-0.0033537131411489154,"161":0.010478071360373903,"162":0.0248768603717042,"163":-0.032799805592166525,"164":-0.07139598162911046,"165":0.0014122403481369654,"166":0.004657123136253715,"167":0.06238290988434535,"168":-0.017146511838479754,"169":0.028745456379950383,"170":-0.011290245804185318,"171":0.05707609885281006,"172":-0.04144518081181727,"173":-0.03768241694775262,"174":0.01614579386758836,"175":0.01623147212582144,"176":-0.011400218864031373,"177":0.0762354927312169,"178":0.04991743278697573,"179":0.04792500309613071,"180":-0.017742726649443766,"181":-0.023347066621437297,"182":0.00841944879910449,"183":-0.04213330602230776,"184":-0.03147993604699864,"185":-0.045328408405187634,"186":-0.02770374691539253,"187":0.031781186321188086,"188":-0.001988147164007363,"189":0.02494297628190466,"190":0.02370307540857221,"191":-0.008907118789969451,"192":-0.046041056767287175,"193":0.04574756532191731,"194":-0.0032589746286471413,"195":-0.0009836031739752008,"196":-0.009267473039081733,"197":0.015848111270627574,"198":0.0006947707651543327,"199":0.06269540381451183,"200":-0.024337198129832684,"201":-0.04205661364210531,"202":0.012485627897480981,"203":-0.0028235778359481075,"204":0.008239623527879799,"205":0.07493104999970103,"206":0.10264366055870043,"207":0.06145604830120568,"208":-0.041288202128958305,"209":0.014726523982961679,"210":0.0289658448590156,"211":-0.03560036970366066,"212":-0.02966767191103017,"213":-0.010709966833404232,"214":-0.004053111133700128,"215":0.04603352239350217,"216":-0.0020030226268613637,"217":0.007252846503987388,"218":0.00909990492120394,"219":0.008905606497368115,"220":-0.061528298722245356,"221":0.051655845275357916,"222":-0.014896541576576841,"223":-0.019659211254024384,"224":0.012526476866943883,"225":0.018688545908581385,"226":-0.01608202634108019,"227":0.08147599332963382,"228":-0.03410718420021749,"229":-0.016708433613114738,"230":-0.013106776467287305,"231":-0.01964249341869467,"232":0.015054387977446938,"233":0.06538097861736719,"234":0.14127328060227942,"235":0.07603009902106377,"236":-0.03552769967999354,"237":-0.007812655922735546,"238":0.012019153000442881,"239":0.02663281138642114,"240":-0.03348700334859114,"241":0.02403855147749782,"242":0.03329892535987547,"243":0.004785268335125473,"244":0.024090112486030827,"245":0.008099355664888851,"246":-0.003939896620094016,"247":-0.017187589941184217,"248":-0.03284043955986448,"249":0.05392876142307018,"250":0.02986360247357592,"251":-0.012708345581765168,"252":-0.0018665754862084393,"253":0.05864875803649415,"254":0.018432368046918765,"255":0.1652515470864117,"256":-0.02863963877154594,"257":0.0077063343577401635,"258":0.008777130863087668,"259":-0.015895659553520257,"260":-0.008120222984984429,"261":0.06837880508955364,"262":0.2559296892099358,"263":0.05874923531974497,"264":-0.022480158942858004,"265":0.005861695660516561,"266":0.027688833919297037,"267":0.010252034655277222,"268":-0.04220835542534006,"269":0.06708594976833171,"270":0.012576488488073181,"271":-0.03282221477700549,"272":0.001263807083107197,"273":0.007409722022757648,"274":-0.01638023516349635,"275":0.01960065078662224,"276":0.30949429403351697,"277":0.04091055953500151,"278":0.03435116871454765,"279":-0.018256179878442788,"280":0.028026846498612284,"281":0.0571991682471628,"282":0.007658587745229036,"283":0.5591562031598489,"284":-0.012123958289991401,"285":0.011203090950848963,"286":0.04569261543157111,"287":0.0035773039236031293,"288":0.0013847143754635162,"289":0.07654829562513292,"290":1.2257558039352816,"291":0.05102524720258634,"292":-0.005543701466320868,"293":0.012776567074551345,"294":0.025985827909830124,"295":0.0318451489184092,"296":-0.07135489876628569,"297":1.3561239519710901,"298":-0.007303943579296927,"299":-0.03392218795674091,"300":-0.025378037019905104,"301":0.01837566079769736,"302":0.024921799874237593,"303":0.045725590605443865,"304":1.1488061503374305,"305":0.021810278403690868,"306":0.005409095078947293,"307":-0.04552594623898462,"308":0.005276779013665981,"309":0.017770856400443603,"310":-0.011479813544589901,"311":0.9566240154587419,"312":-0.005807649779706675,"313":0.06708027143276685,"314":0.04332611719488137,"315":-0.019260477494878317,"316":0.006894757419598575,"317":0.038153501146242726,"318":1.5577483746238745,"319":0.038494749003006944,"320":0.015051703161597632,"321":0.002822415788255169,"322":-0.005683381198702868,"323":-0.018826647620418222,"324":-0.08570368166483351,"325":1.4760198351428861,"326":-0.03208031900358335,"327":-0.024685006838588507,"328":-0.047732251772867544,"329":0.02183737259651652,"330":0.012358972162766744,"331":0.0011234942634716985,"332":1.2622276976617748,"333":0.022789045237106367,"334":-0.006083762575163757,"335":-0.028833286321156424,"336":0.00952538313301419,"337":-0.03042445064902583,"338":-0.011116740675490655,"339":1.011880579162066,"340":-0.020111421013152966,"341":-0.010717053009970345,"342":-0.0016878573891353193,"343":-0.029026135518280594,"344":-0.015527042462129097,"345":0.06730364725609671,"346":1.6027020770159754,"347":0.021186196783138253,"348":-0.026232657195387657,"349":0.012079008171234806,"350":-0.005661436998804258,"351":-0.017061913623334497,"352":-0.02863794916235262,"353":1.5650518832278597,"354":-0.04719961760771051,"355":-0.01051508629321166,"356":-0.046244318098422346,"357":0.00748825759130518,"358":-0.01173464314755343,"359":-0.0325884458653324,"360":1.3409140362353562,"361":-0.0415065743031765,"362":0.002828530936724963,"363":-0.015022710707785257,"364":-0.032194236194374816,"365":-0.01213472077419322,"366":0.08136642311495416,"367":0.3734388620970999,"368":0.04766709709780397,"369":-0.0025735910019949507,"370":-0.016029097310827228,"371":-0.03252595245092888,"372":-0.0057961679726775935,"373":0.09394001138619933,"374":-2.917584103189669,"375":0.01083515913780422,"376":-0.020846316338332165,"377":0.006717656616777936,"378":-0.01483231538296716,"379":0.01476352493742159,"380":-0.033472714755371856,"381":-3.04477284992547,"382":-0.05734013340674157,"383":0.004389195102390274,"384":-0.015467971699993513,"385":0.030455982031370794,"386":-0.0005000595360615903,"387":-0.09672106100106934,"388":0.11491072099705575,"389":-0.05605038521228737,"390":0.03861838339759361,"391":-0.0013408990752695829,"392":-0.03359623485844382,"393":-0.04269702938423308,"394":0.047965457213358736,"395":0.162406629415157,"396":0.027151594298282143,"397":0.0033532900051789108,"398":-0.011058894069463143,"399":0.022594910608726912,"400":0.038692419398071755,"401":0.06297165652662474,"402":-0.06273118890119506,"403":0.008204227731652443,"404":-0.0035717948567561887,"405":-0.03447438094274217,"406":-0.01968531656944338,"407":-0.002828342435477672,"408":-0.0689375441530379,"409":-0.2694358868130323,"410":-0.04017839552752677,"411":-0.007768719457760567,"412":-0.0027927530182212485,"413":0.022900493616949985,"414":0.0011753550907509112,"415":-0.11669761277855446,"416":-3.256786317620448,"417":-0.11626152744816484,"418":0.02085185804426138,"419":0.011890749277012518}},{"sx":1,"sy":1,"depth":420,"w":{"0":-0.1656347892975072,"1":0.03657383531301746,"2":0.06009883535941104,"3":0.1569035176016042,"4":0.1290727625295681,"5":0.1586519313941939,"6":0.06003634621423474,"7":-0.01966874539593817,"8":0.04179936659789242,"9":-0.03267256477946115,"10":-0.0742408928873718,"11":0.042435033500712635,"12":0.006715272929322453,"13":-0.0536149454625412,"14":0.06327517299790775,"15":0.004980024967475755,"16":-0.060455571645145444,"17":0.10016989438716704,"18":-0.07401669190486171,"19":-0.020196024412749734,"20":0.02103527890148729,"21":0.043484202776638434,"22":0.01580094308643465,"23":0.013319777225781558,"24":-0.26800644508553845,"25":0.042795002767726416,"26":0.01946656975804694,"27":0.06739360612359403,"28":-0.03943782779832251,"29":0.0000024814502594326013,"30":0.10271759397187533,"31":0.11240097192770616,"32":0.009485592919623712,"33":-0.044523404676227854,"34":0.0737840236911436,"35":-0.13266644802985375,"36":-0.03339462074067438,"37":0.02083533277296864,"38":-0.2084618349185241,"39":-0.052769224158825734,"40":-0.09619625130282164,"41":-0.04289450034593963,"42":0.04944367505178998,"43":-0.09710248953131306,"44":-0.0528983637080013,"45":-0.037952571429352586,"46":-0.004102391822881746,"47":-0.006299496138357513,"48":0.023754857525483914,"49":0.011314114144373343,"50":-0.07496576590687173,"51":0.02077976298946631,"52":-0.08497541362240012,"53":-0.026405664589142397,"54":0.04974004351004276,"55":-0.10051694256566945,"56":-0.06992827885787516,"57":0.04506903723687806,"58":0.04135353422531257,"59":-0.027649659778469962,"60":-0.06221036013310602,"61":0.0101259549434129,"62":0.07194751037517341,"63":-0.03433008936626221,"64":0.05036553849931302,"65":-0.002932328683182492,"66":-0.13033299423746644,"67":-0.1201056912114067,"68":-0.19840190860026044,"69":-0.024269405689772584,"70":-0.0011328736395435413,"71":-0.031183114440783182,"72":-0.06200692533713993,"73":-0.21329780916445562,"74":0.017620630880196848,"75":0.030585634420163668,"76":-0.037340371335480724,"77":-0.008258592894741042,"78":-0.1557666065878213,"79":0.05447017785720138,"80":-0.22392467797890342,"81":0.015595399543148288,"82":-0.0218540710282617,"83":-0.08828260815834191,"84":0.0376117557532063,"85":0.059608574050642904,"86":0.11434425990517333,"87":-0.13916988245838724,"88":0.0009391385030740153,"89":0.019086562916049276,"90":0.1167530780913054,"91":0.03441132999336761,"92":-0.06252546666636427,"93":-0.02985402802674621,"94":-0.0007837166531314961,"95":-0.05286560452102272,"96":0.07746995894534814,"97":-0.050959902476405534,"98":0.0074517513541515895,"99":-0.051624869214555814,"100":-0.011009813731047112,"101":-0.1030151085393449,"102":0.03413450410029261,"103":-0.08421167807225065,"104":-0.058407922378627145,"105":-0.08742878037751266,"106":-0.04892028618693398,"107":-0.03206195656500116,"108":-0.12444874739675939,"109":-0.07122474235965742,"110":-0.03856236048068148,"111":0.06148257693676657,"112":-0.006669859311577339,"113":-0.02641244098641024,"114":-0.045581809775408585,"115":-0.04616264510897915,"116":-0.06635968328415086,"117":0.1347585660309867,"118":0.06005458015545601,"119":-0.03886585804626441,"120":-0.0947714772616496,"121":-0.03571803761242865,"122":-0.08471553784592413,"123":0.052431321778421434,"124":0.07949752897525902,"125":-0.0544927016170762,"126":0.03351501132374694,"127":-0.035329256776557044,"128":-0.14187598983951466,"129":-0.08194542165569657,"130":-0.04958938517260102,"131":-0.06281518703770739,"132":0.08807730835981212,"133":-0.08730169160441957,"134":-0.05497764088506236,"135":-0.09380106042404905,"136":-0.04163943596331551,"137":-0.04142426210442276,"138":0.04535672768280305,"139":-0.03984235208567113,"140":0.1335339396359784,"141":-0.12972691550898574,"142":0.008284287288341347,"143":-0.12409164095358559,"144":-0.05993550637183812,"145":0.013275751376244689,"146":-0.026825806240796727,"147":-0.19956977370945922,"148":-0.0449188693840875,"149":-0.13638369470532832,"150":-0.07779156997219473,"151":0.02202501742505553,"152":0.01503304805737335,"153":0.13700843185705808,"154":0.08915336447388018,"155":-0.026563656074283282,"156":-0.08939878607707934,"157":0.01891698594613046,"158":-0.048465234863134164,"159":0.03274209312745214,"160":0.01108614242508318,"161":0.09575606283751906,"162":0.021150268835407087,"163":0.021824614587919226,"164":-0.08522331503944844,"165":0.051783985554024456,"166":0.044677285147677104,"167":-0.19350246491026804,"168":-0.008421592818857087,"169":-0.05901170228464114,"170":-0.037679020599334305,"171":-0.13506505646684297,"172":0.09235361956258073,"173":-0.004491196784806055,"174":-0.040240222989105005,"175":-0.006763239512013549,"176":-0.012913999745577638,"177":-0.09130446368177174,"178":-0.16564565792561786,"179":0.04254399146160901,"180":-0.03285755236281214,"181":-0.04993483049543802,"182":0.0015602239391577888,"183":-0.04917244742552261,"184":-0.014953924262937074,"185":-0.14261882687960808,"186":-0.07319457758437767,"187":0.0013098616057499763,"188":0.1257760474730805,"189":-0.06919115085767781,"190":-0.020035636981106792,"191":0.016950184991965635,"192":-0.039185204876099916,"193":0.023693761021677938,"194":-0.07405134074299226,"195":-0.0032927646680903314,"196":0.03976748432361677,"197":0.01636559607234238,"198":0.0730728815332131,"199":-0.2110999521670519,"200":0.053936487023524105,"201":0.034333083209383504,"202":-0.06249654136218341,"203":-0.0810930920594658,"204":-0.05970292520610302,"205":-0.10920994275970675,"206":-0.15738023501442894,"207":-0.0581865497039905,"208":0.12828156656005274,"209":-0.00256453812311568,"210":-0.021268250012995666,"211":0.028733203947482935,"212":-0.01033870891204268,"213":-0.07734154231391192,"214":-0.2053472614887355,"215":-0.06597056227389465,"216":-0.09369347962099576,"217":-0.1066993016358733,"218":0.08877199898630896,"219":-0.12948875012181216,"220":-0.28901311464033375,"221":0.0841967354151249,"222":-0.03612715886422583,"223":0.0527435653130925,"224":-0.011937639967022665,"225":0.1248519291398208,"226":-0.11305437801987028,"227":-0.1552559513921382,"228":-0.049803020991856045,"229":-0.04369442597606801,"230":-0.1400356678869371,"231":-0.07999919522842446,"232":-0.0008183592950173561,"233":-0.1697460593415941,"234":-0.23502375931315342,"235":-0.02497842190414088,"236":0.04149005964613198,"237":0.002824634573482937,"238":-0.10677071107142971,"239":0.0473353857155365,"240":-0.10172691139659648,"241":-0.05341217541547907,"242":-0.10335616704341063,"243":0.013174942564242625,"244":-0.06405119297699556,"245":0.038283456551323876,"246":0.04577720927758615,"247":-0.003347513578701342,"248":-0.25508425348505676,"249":0.05909192654222196,"250":-0.04000622398672906,"251":0.048570669689010366,"252":-0.06641298971860894,"253":0.021432024318547627,"254":0.032253413469301,"255":-0.5978967234083944,"256":-0.06654265154941771,"257":-0.21716150454113714,"258":0.01265976067478897,"259":-0.033253954956374565,"260":-0.09602536902904824,"261":-0.029218747289854893,"262":-1.0338404468877802,"263":-0.029129875714540725,"264":0.0735068649594379,"265":-0.011746527976646196,"266":0.06893887184866794,"267":-0.14159712176363573,"268":-0.06003579760423747,"269":-1.4277797370950776,"270":-0.0444306875381526,"271":0.08460026326828517,"272":-0.02084943167414272,"273":0.014921726765147062,"274":0.01841383485050712,"275":-0.031231931515345784,"276":-2.060127628641,"277":0.0440991835628806,"278":-0.03479185028159255,"279":-0.009965398898359028,"280":-0.07522199621145526,"281":-0.012045974659386612,"282":-0.07722102729038688,"283":-1.8605767045069637,"284":-0.13943550851010733,"285":0.017624580317013323,"286":0.09561441183159824,"287":-0.012395813478935227,"288":0.0076635812727843065,"289":-0.011796696575578386,"290":-1.4733720997162232,"291":0.016308679413223774,"292":-0.04888017182183203,"293":-0.08664679030078877,"294":-0.04842365016377078,"295":-0.08159999735962302,"296":0.05705362572531262,"297":-1.4118317175365156,"298":0.04663358941176324,"299":0.07337975881821895,"300":-0.04395677217922503,"301":-0.06821935569562596,"302":-0.047554111781981254,"303":0.0642871150280302,"304":-2.154173687694074,"305":0.05853040048231602,"306":0.06677670358046828,"307":0.004248834473026457,"308":-0.01595870678124752,"309":0.0499594170428304,"310":-0.03265822592064591,"311":-2.106783528968412,"312":-0.027664981985178895,"313":0.089324016506254,"314":0.038791720813193674,"315":0.010805993365899751,"316":0.1240474064653492,"317":-0.010554651278909078,"318":-1.8852167519064373,"319":-0.028731875263956364,"320":-0.09218128172776721,"321":0.013300712087955309,"322":0.03498525764877795,"323":0.10524074823968518,"324":0.03683930256885098,"325":-1.1595348880414817,"326":0.01076048818793454,"327":0.07512886259512189,"328":-0.05275204508108194,"329":-0.019960291958900696,"330":-0.021317319544403312,"331":0.02038439373724856,"332":1.1714685638662308,"333":0.0411542112269561,"334":0.03267045274605825,"335":0.10288094687584519,"336":0.04932103581300612,"337":0.057382199213649024,"338":0.0062348488364693585,"339":1.8278129989048986,"340":-0.07952312645391034,"341":-0.02708576655966788,"342":0.001741107944734807,"343":0.11101330871338623,"344":0.035056497407175854,"345":-0.04802313994209936,"346":1.9577996844208758,"347":0.00881677006299899,"348":0.02482444397479451,"349":0.01431359330450459,"350":-0.008328703090901116,"351":0.033057681027101174,"352":-0.0917666136694004,"353":-0.32175805007345676,"354":0.04877260449015851,"355":0.08350408841698044,"356":0.07041405822909991,"357":-0.09164022268949874,"358":0.06607223823300283,"359":0.18358117507649968,"360":-0.1341575529069339,"361":0.10462690466647223,"362":-0.05566542582172343,"363":-0.051615865218404396,"364":0.06901431360327231,"365":0.06801515780461759,"366":0.3101289668287734,"367":-0.26179411306342293,"368":0.14332438953718016,"369":0.03744215492474675,"370":0.010872755122296612,"371":-0.018000373777737808,"372":0.02343793209005515,"373":0.15559508804776925,"374":-0.5241582920779476,"375":0.2095905998442695,"376":0.01947407885919517,"377":0.08666934650561134,"378":0.1002434167006928,"379":0.08817716386730892,"380":0.09505981995966799,"381":1.6542978812807938,"382":0.021671312153934273,"383":0.04137963039294972,"384":-0.011227622925942874,"385":0.08071237020561722,"386":-0.011779608602539085,"387":0.02025636029302915,"388":1.9305126601643405,"389":0.14877610706680267,"390":0.07479541154105726,"391":-0.10371408461651861,"392":0.0466380579594864,"393":0.057268309410165356,"394":0.17386866685306226,"395":1.9276789460234556,"396":0.018308721365575088,"397":0.02245688418828087,"398":0.019347078825422748,"399":0.16797399002524416,"400":-0.013132826077277563,"401":0.1361513709711047,"402":0.38779491838839236,"403":0.10039100947287177,"404":-0.10677229123280413,"405":0.0015167348652616792,"406":0.041809166521631656,"407":-0.0034332658051642174,"408":0.03955172938661749,"409":0.17995802222657578,"410":-0.1739249237499346,"411":0.05976389099486909,"412":-0.10101442693856996,"413":0.08244454997684852,"414":-0.08222043786111836,"415":-0.22498412686675323,"416":-0.18294272839178585,"417":-0.06105243382538171,"418":-0.04805618053178545,"419":0.053142808644426394}},{"sx":1,"sy":1,"depth":420,"w":{"0":-0.028370681181131802,"1":0.2459032794886379,"2":-0.002615481599873481,"3":-0.018045553281774183,"4":0.0946304632113761,"5":-0.022978041718295917,"6":-0.046344493811596714,"7":-0.1022059113971246,"8":0.0448261979754851,"9":-0.11911581502012054,"10":0.013519695165607493,"11":0.02702899579489905,"12":0.032724039257378545,"13":-0.16418407562721285,"14":0.10842225361797624,"15":-0.006891325974426848,"16":-0.01656873040424815,"17":-0.00018068058189241792,"18":0.1576839031045194,"19":0.1029427480365695,"20":-0.02906475766159632,"21":0.025379553809743768,"22":-0.06720828565832947,"23":-0.025313557548591666,"24":0.14973083349306476,"25":0.117751110263576,"26":-0.04359557820522593,"27":-0.06779969645702541,"28":-0.01882388642977615,"29":0.04871866751892778,"30":0.07384273270515619,"31":0.04608952141087547,"32":-0.002848968178041499,"33":0.1674211886365193,"34":-0.02842311856588778,"35":0.1505063083927187,"36":0.016990108755961644,"37":-0.015919564262427632,"38":-0.040774768861085255,"39":0.0613988094733474,"40":-0.07028068412389714,"41":-0.01951426965406702,"42":-0.06252402207704151,"43":0.0029163552415104135,"44":-0.06914746521447301,"45":0.1673031056769179,"46":0.0649015404314363,"47":-0.051004794747579456,"48":0.037142461938634685,"49":-0.01639503577663258,"50":-0.023631753307024463,"51":-0.051327233479791824,"52":0.10422931591949836,"53":0.11531911964169711,"54":0.14100646889268778,"55":-0.03767895521836298,"56":0.09462478167107986,"57":-0.018580792966093097,"58":0.058699934203947354,"59":0.11239706562865621,"60":0.060448431077217146,"61":0.028492295217204523,"62":0.007255133187574781,"63":0.015886574981747833,"64":-0.004984656585291999,"65":0.06263926307995439,"66":0.05830238550867,"67":0.13687005266212451,"68":-0.015494721125008683,"69":0.04457200390177681,"70":-0.05582312823876914,"71":0.14819758577207695,"72":-0.04812840598971859,"73":0.1429499406145726,"74":-0.007269242872921594,"75":0.01499919481485879,"76":0.04443537790722293,"77":0.06882935272871979,"78":-0.033439783972862194,"79":0.10952196829546507,"80":0.11408652270458285,"81":0.061523626612457354,"82":0.057723954109777556,"83":0.06447565849285423,"84":0.004277012825454969,"85":-0.04618961901045681,"86":0.022075135559274917,"87":-0.0043697600664697,"88":0.10094215036711057,"89":-0.016679407078887737,"90":0.24818458258272452,"91":-0.06595599904803887,"92":0.08346550476774954,"93":-0.08298811478858262,"94":0.04642203616609282,"95":0.05486421116892165,"96":0.11467334206523569,"97":0.015560581243531688,"98":-0.06192894305238186,"99":0.043635104405453366,"100":-0.03396688083129949,"101":0.13981383370158895,"102":0.05004804741659364,"103":-0.08487172489567535,"104":0.05503398503579383,"105":0.11728179145517324,"106":0.026909761883269493,"107":0.008511054254339151,"108":0.08473242364984734,"109":0.11802061122098693,"110":0.11718182128374574,"111":0.03947337111367201,"112":0.030425336086268073,"113":0.1020769858800208,"114":0.06850730457825038,"115":0.09287933747866359,"116":-0.10890773467467413,"117":0.055923715436112326,"118":0.10999960819211714,"119":-0.023994529752705777,"120":0.1046518951304807,"121":0.006926289114425687,"122":0.08226246825821282,"123":-0.06948214446480805,"124":0.05128631573150035,"125":0.008172413843283998,"126":0.06636651304033173,"127":-0.0004889554943207761,"128":-0.07398868568007377,"129":0.05552478335200876,"130":-0.010428291778683454,"131":0.05140237873391272,"132":0.018465247337629748,"133":-0.09779133535453763,"134":0.18794355917057723,"135":0.08889382589656447,"136":-0.012097170050688898,"137":-0.07079600117893017,"138":0.118050605132226,"139":-0.02657309518755219,"140":-0.003987503719724647,"141":0.019559652320652734,"142":-0.03926588158288715,"143":-0.03881057595632528,"144":0.05086698328885513,"145":0.019040900419153937,"146":0.025242551460559672,"147":0.07867719876275664,"148":-0.037981677911979955,"149":0.07432480636267264,"150":0.09808462354209188,"151":-0.045651502837000354,"152":0.1312543800441353,"153":-0.027419842118203204,"154":0.02500994115503252,"155":0.06396918692335837,"156":-0.07856680431935044,"157":-0.02918398097317888,"158":0.04821367096621225,"159":-0.05668680307677813,"160":-0.005890762155008475,"161":-0.0179684351759003,"162":0.052771992765617746,"163":-0.16667069867925927,"164":-0.02889157097556364,"165":-0.008587587378841336,"166":-0.02688218154641137,"167":-0.0367711172652626,"168":-0.03526236530730411,"169":0.04057168469812964,"170":0.0647559712116801,"171":-0.029441689217714,"172":0.05103824530814742,"173":-0.07607503916992096,"174":0.05907430200747134,"175":0.030391029411288142,"176":0.0660511426937559,"177":-0.15346826013635836,"178":-0.050746116642916485,"179":0.03066970362767539,"180":0.02131769676781196,"181":0.06652529830741526,"182":0.11484017765002809,"183":-0.06243619453170551,"184":-0.11236948158680264,"185":-0.09549246422376782,"186":-0.02287671255763886,"187":0.03742272999298095,"188":0.09391176660134422,"189":0.04466105425036874,"190":0.10608594101825627,"191":-0.014374518045963427,"192":-0.10392221541490763,"193":-0.020060741302737977,"194":-0.0071741978963492875,"195":0.07395714946338806,"196":0.10491769662408677,"197":-0.015290583484681337,"198":-0.06939268317674284,"199":-0.35630415648651625,"200":0.035707868715094494,"201":0.13141342778665685,"202":0.08079491401223436,"203":0.025833325858176444,"204":0.03687486226243283,"205":-0.07448651955400613,"206":-0.21264501836018407,"207":-0.02032027903261772,"208":-0.08639287089931348,"209":0.029464441628039822,"210":0.022239442772185557,"211":0.027453842607988607,"212":-0.1893661382175562,"213":-0.37511819737009705,"214":0.061275275798216004,"215":0.00798578022562258,"216":-0.008654362642562662,"217":-0.03280054259532398,"218":-0.007634231927930512,"219":-0.13348436288937424,"220":-0.39266307913377946,"221":0.12930227970997601,"222":-0.05832512209506772,"223":-0.05476114168026678,"224":0.007096376908520123,"225":0.04152047521024917,"226":-0.0910024312802112,"227":-0.554545480995879,"228":-0.0411067256251984,"229":0.04147492919742042,"230":0.1016243654538133,"231":0.03357193576418697,"232":0.046274889484772964,"233":-0.15174672836378386,"234":-0.5400922441450232,"235":-0.012008158235121838,"236":-0.028772741057459004,"237":-0.07245892874475646,"238":-0.0235190993606147,"239":0.15568754188830083,"240":-0.0961043385206856,"241":-0.37122277517103386,"242":0.018949212277902108,"243":-0.06154313470865376,"244":0.0008948623706003361,"245":0.08742820314860654,"246":0.07166373609204728,"247":-0.23094086991649776,"248":-0.7028862367257284,"249":-0.025344429773207035,"250":0.04475349870794661,"251":0.012326437467581433,"252":-0.0018541124881230602,"253":-0.013355390115381404,"254":-0.063601770376576,"255":-0.721586312266617,"256":0.09282638337260093,"257":-0.06304937846055841,"258":0.005639484317443814,"259":-0.03601046691090653,"260":0.001703731986605896,"261":-0.12340217912724676,"262":-0.6586486756001991,"263":0.07724983279561273,"264":-0.01041113550024146,"265":-0.010383211737242042,"266":-0.022459112354111632,"267":0.03642719349614119,"268":-0.18346341680552952,"269":-0.4154235694454449,"270":-0.03500627475073053,"271":0.06257968588396337,"272":0.12199964567018688,"273":0.00851228157048078,"274":0.16744441290798542,"275":-0.1603921783048624,"276":-0.10871174898985514,"277":0.13740207739037053,"278":-0.03474173565991357,"279":0.0614874951525866,"280":0.007996625857704925,"281":0.035668682833760575,"282":-0.20612367876114338,"283":0.2339157038803473,"284":-0.05498392180717609,"285":-0.0499959601042402,"286":-0.1099714851460636,"287":-0.038922877836640245,"288":0.17224681829361244,"289":-0.21134417256645485,"290":0.043897893621479674,"291":-0.030621724525824807,"292":0.06380705213622134,"293":0.09511672556643809,"294":0.042361056535305294,"295":0.10261979265830114,"296":-0.2522688176424547,"297":-0.22736248601728537,"298":0.014794026707207582,"299":0.03763354099908056,"300":0.03399788996368184,"301":0.04586212745955304,"302":-0.017054932057943176,"303":-0.24420278296676065,"304":0.08598676052213461,"305":-0.18046827313234853,"306":0.009080738822808215,"307":0.051895301438509026,"308":0.06709145915304306,"309":0.1232510985862151,"310":-0.040342891040106,"311":0.3216973090954994,"312":-0.030252159084306337,"313":-0.10947713528439622,"314":0.01891668592622463,"315":0.07032286979284798,"316":0.20798989429330192,"317":-0.015348174705384863,"318":0.5501906710582412,"319":0.10561286362414564,"320":-0.003744355681284801,"321":0.06831717188893831,"322":-0.042592544281283645,"323":0.06422859993475219,"324":-0.010933100789438932,"325":0.7793528132182,"326":-0.01876406668027861,"327":0.1271917212432426,"328":0.12020424904896085,"329":0.11956757915410347,"330":0.03463776078522314,"331":0.2031681324991727,"332":0.749402900441811,"333":0.18423341958778636,"334":-0.04120264090440553,"335":0.02644493978616119,"336":0.011428131031447816,"337":0.050934274555237684,"338":0.24748354052260718,"339":0.8535295322244472,"340":0.12516782644972946,"341":0.08560275048774321,"342":0.0064400826926776684,"343":-0.07001779141464706,"344":0.027674965152046375,"345":0.21476925059979263,"346":0.7808022062702766,"347":-0.03898984582981287,"348":-0.05672835095975666,"349":0.0015668649215395344,"350":-0.02906276190851331,"351":0.23141821515419814,"352":0.18331962842699945,"353":-0.1310619986684664,"354":-0.05887663339513317,"355":-0.08553916876140855,"356":-0.030081620045556662,"357":0.040656461315798344,"358":0.07828260807645662,"359":0.20373512324621446,"360":-0.07546237792677596,"361":0.10691688553412207,"362":0.009713482265688704,"363":-0.061359042923725,"364":-0.028155277382248125,"365":0.0008959042668174503,"366":0.12925249474143397,"367":-0.12620536285354766,"368":0.0859839051727609,"369":-0.09567130300441588,"370":0.05912449563626588,"371":-0.09553477823773816,"372":0.07868300444705584,"373":0.017202534973634234,"374":-0.02402080967347314,"375":0.060353922368074346,"376":0.07628998507570915,"377":-0.05813640729943792,"378":0.089756153335761,"379":0.04668863436141242,"380":0.13741492018639426,"381":0.7584361363931982,"382":-0.01999768125142693,"383":-0.006305845282635304,"384":0.02524686882697543,"385":0.13737573587441038,"386":0.13184987110397392,"387":0.041982611309646096,"388":0.6786950012236921,"389":0.018524192204952154,"390":0.08115853698746577,"391":0.028455064182564098,"392":0.006479023325659819,"393":0.059186442191681114,"394":-0.016113738783659914,"395":0.7187515801331408,"396":-0.04239596727818848,"397":0.07701704275801437,"398":-0.029688596853643112,"399":0.02289959443788391,"400":-0.01661435400607527,"401":0.0449460423422733,"402":0.08021767920718217,"403":0.030706666321475336,"404":-0.0011992207650550343,"405":-0.008568634869875438,"406":-0.04857241651563423,"407":0.022995528255843976,"408":0.2023215431339279,"409":-0.10641113470007879,"410":0.12304002732070633,"411":0.11697280946363996,"412":-0.0035290779433184683,"413":-0.03647527083399442,"414":0.04204073939955949,"415":0.07400972481063386,"416":-0.042397167563027624,"417":0.07149101414595699,"418":0.14172071807384914,"419":0.056417335853667414}},{"sx":1,"sy":1,"depth":420,"w":{"0":-0.02301629104414126,"1":-0.015542602974345475,"2":0.008253379462902869,"3":-0.05458811347428294,"4":-0.07647764771007484,"5":-0.026666447952688126,"6":0.001379854755562527,"7":-0.055779461781962705,"8":-0.05172934181443902,"9":0.05466280675084735,"10":0.025231473322096496,"11":0.04844306989886597,"12":0.032201922365832525,"13":0.026495907852865295,"14":-0.0067653835841537495,"15":0.038370692743684424,"16":0.007638251014837432,"17":0.074683795446208,"18":0.03493529014997303,"19":0.0064953323267173575,"20":0.059212537338996514,"21":0.038400125965124494,"22":-0.00039315163255265945,"23":0.04676792070517558,"24":0.04096211021148872,"25":-0.0220114424972845,"26":0.007413657538538743,"27":0.01571376862959211,"28":0.08300082621847603,"29":-0.034346441427984556,"30":0.015472866729081212,"31":0.02969919947047486,"32":0.006087204641729368,"33":-0.0067309502711175384,"34":-0.03256260814777776,"35":0.03171709804966188,"36":-0.009223177321297427,"37":0.08530413212212856,"38":0.0074241492937775445,"39":0.060503937862674134,"40":0.04860331482742722,"41":0.048728122498000494,"42":0.010424818579877704,"43":-0.03612845779921196,"44":0.0008769987009155846,"45":0.07519681439613181,"46":0.05932382772084437,"47":0.02545588096112631,"48":0.10971179186191972,"49":0.04638573498611308,"50":-0.008631616107645818,"51":0.00474689861157708,"52":-0.024333601796138526,"53":-0.003938407723928315,"54":0.008133050147653151,"55":-0.05088444154005347,"56":0.05072242010648294,"57":0.058157465886226,"58":-0.011190079526563335,"59":0.08216473554035385,"60":-0.05568692111622585,"61":-0.012488043491389862,"62":0.0008766547361850754,"63":-0.02782557024131638,"64":0.13484578123948568,"65":0.03333648122515752,"66":-0.016456405368284445,"67":0.03996066906509495,"68":-0.047179863153823755,"69":0.09388479505325982,"70":0.10058982454658003,"71":0.01149623621488748,"72":0.06206389443390838,"73":0.000759936053840301,"74":-0.009979610968196226,"75":-0.08575235968718407,"76":0.0030329328324721224,"77":-0.00836688465417107,"78":-0.026488087793256006,"79":0.15921784601168126,"80":0.003015969229280046,"81":-0.008450835045618917,"82":0.035016013070695406,"83":0.003550579581754759,"84":-0.05108703567131275,"85":-0.011736998469648608,"86":0.04305055359405024,"87":0.0712218170014969,"88":-0.005904890150268421,"89":0.03749111760069354,"90":0.02014045549724482,"91":-0.01137532114950082,"92":0.009080179059762432,"93":-0.056697758361821504,"94":-0.023781776103641378,"95":0.13995077211508627,"96":0.02925909671858312,"97":-0.04886295987004201,"98":0.06672989781376826,"99":0.07629804323470522,"100":0.03538824812255759,"101":-0.02419851701973646,"102":0.045160162248137806,"103":0.07826482633473862,"104":0.12269420856264392,"105":0.029382990275339495,"106":0.017348789202493938,"107":-0.030691312483937208,"108":0.05780738676159324,"109":-0.021849701217037224,"110":-0.06823015844441752,"111":-0.011691701684184897,"112":0.015590955117578013,"113":0.053923455564250704,"114":0.028316221451952582,"115":0.008225583689191136,"116":0.011957897429737891,"117":-0.10522834720810614,"118":-0.007400797818759793,"119":0.15864978919046074,"120":-0.00018375280607500937,"121":0.003997999556383116,"122":0.06239980546291937,"123":-0.024090288503735686,"124":-0.06460785326450431,"125":0.00823001374724774,"126":0.015118058491793887,"127":0.09922497348340942,"128":-0.03570817339417309,"129":0.05354570662501152,"130":-0.0028968432165035933,"131":0.0792907299648719,"132":-0.04846737883986746,"133":-0.04943992145984381,"134":0.02720179182824902,"135":-0.0063265417208967275,"136":0.0020292066233842943,"137":0.10713731011009048,"138":0.012161780610367495,"139":0.04200799585754806,"140":0.022143283480467478,"141":0.07408527573640897,"142":0.06670362291125925,"143":0.00006194043295152391,"144":0.010042729784069322,"145":-0.037320624915151514,"146":-0.04280836112837622,"147":0.00024122095699252385,"148":-0.061949065157245756,"149":0.039003403837294094,"150":0.04456546197121783,"151":-0.0015539097291380002,"152":-0.030475197267877733,"153":0.023084123357680286,"154":-0.0453731432620882,"155":0.05188993720571897,"156":0.030815767341891977,"157":-0.028831739991861578,"158":-0.025883071510563314,"159":0.012444318503578475,"160":-0.07370062216288743,"161":0.011788962567804534,"162":-0.0470768781012284,"163":-0.0019270205443512323,"164":0.05494066485856904,"165":-0.07269975629226265,"166":-0.00044385586449422566,"167":0.032482940248546345,"168":0.04251331439345464,"169":0.06231120155260814,"170":-0.007780136388301259,"171":0.01203122814488808,"172":0.08683257900244318,"173":0.00041483364214520325,"174":-0.023298293450546976,"175":0.03179517761489196,"176":0.007847021693199719,"177":-0.01527604856076305,"178":0.03162645672248752,"179":0.019865644494355714,"180":0.006254336034901247,"181":0.11982949156439701,"182":0.0428396069198419,"183":-0.08297251599572217,"184":0.01842784951750417,"185":0.043142171107758906,"186":0.015470053302031871,"187":-0.10537304705250827,"188":-0.07742440416345191,"189":0.01601691605158723,"190":0.029199465482190386,"191":0.012540414055618917,"192":0.029956297263899468,"193":0.03340819854437879,"194":-0.0031247074708309506,"195":-0.08361043874630372,"196":0.0716222624599323,"197":-0.03125765575093358,"198":-0.011275202500938527,"199":0.041704695202669416,"200":0.08825815534169022,"201":-0.02546557652402688,"202":0.0282720919741593,"203":-0.05723790939677418,"204":-0.01933963485280443,"205":0.032464847969905064,"206":-0.015087915229051488,"207":0.017068562220780098,"208":0.07555087880156054,"209":0.023458824033682074,"210":0.02630330723092577,"211":0.009674763953537157,"212":0.10027738635683925,"213":0.01454270992726264,"214":0.0036503462420702103,"215":-0.027730775531094765,"216":0.07738085798671757,"217":0.017088221826894023,"218":0.043713413793340164,"219":-0.038459606601675994,"220":0.041222584174034016,"221":0.10875915243689091,"222":-0.023151246249152616,"223":-0.07215811462336057,"224":-0.056186389992438496,"225":0.036604683965440137,"226":0.04851203407965211,"227":-0.008172242470862748,"228":-0.07940637938510864,"229":0.020012410183147415,"230":0.11697896626368982,"231":-0.05884761810481168,"232":0.07480148232004422,"233":-0.052989947225620705,"234":0.04603341093106454,"235":-0.016018756533410575,"236":-0.07143395773158798,"237":0.043695317881974546,"238":0.08083350323666048,"239":-0.005662458525226672,"240":0.05483463822840824,"241":0.03236419987592814,"242":0.06110658438793891,"243":0.022317277444892095,"244":0.02787508718119641,"245":0.028859137962698206,"246":-0.034145299507444375,"247":-0.09978317043775888,"248":-0.011470360255543398,"249":0.06464997066508626,"250":0.0493497843875636,"251":-0.07970050295051095,"252":0.07842667804749558,"253":0.025974514147611583,"254":0.030565572091493083,"255":-0.008842112388741979,"256":-0.04647239393434241,"257":-0.04450200240342907,"258":-0.029384893472273806,"259":-0.003120864860569807,"260":-0.003212265074696928,"261":-0.026745876158056126,"262":0.014728074776058612,"263":-0.013301139840395462,"264":-0.00039694603227093166,"265":0.10910804345401856,"266":0.03306251822082036,"267":-0.010747464412510548,"268":0.05981287632081247,"269":-0.006729652202329802,"270":-0.006560235181256746,"271":0.047639855132840844,"272":0.10503844988818595,"273":0.03414012506231797,"274":0.08080391435388626,"275":0.01780037239246327,"276":-0.05374042204159794,"277":0.047496580413119334,"278":-0.019806674464692184,"279":0.005166476830347343,"280":0.07548554320148378,"281":-0.001093089276992218,"282":0.02391138398730406,"283":0.012315334802175344,"284":0.010672547581403432,"285":0.054572187909026154,"286":0.03718442415916032,"287":-0.031128836268752447,"288":-0.051625411210612274,"289":-0.002050619167649418,"290":0.05478203152220589,"291":0.015033539533341423,"292":0.01237760909995982,"293":0.08391040036292685,"294":0.023938316010661587,"295":0.05195660780339792,"296":0.06850498143961836,"297":0.13042745626280206,"298":0.06778757090509967,"299":-0.011534200277210301,"300":0.0286211782178103,"301":0.053897956147038226,"302":-0.027663496196902795,"303":-0.03384980629750426,"304":-0.0035136616567218674,"305":-0.030435430797757925,"306":0.047423031969888875,"307":0.017219148874015475,"308":-0.007139837853897524,"309":0.04237708360851471,"310":-0.052890856880508805,"311":0.05085619929212264,"312":0.055676977853446594,"313":0.007759167957923058,"314":-0.005437962232242603,"315":0.021089093328818875,"316":-0.019785197611100806,"317":0.06921942155163323,"318":-0.05673880164804599,"319":0.028750041123776552,"320":0.052444396724540765,"321":0.0665038892161509,"322":-0.03256797861053713,"323":-0.031242339446150978,"324":0.0728849892039935,"325":0.009726095235852134,"326":-0.005165765739613532,"327":0.0009145703039030201,"328":-0.018294239718519234,"329":0.04139941661689329,"330":0.07978665825812886,"331":0.03518198968413223,"332":0.002795709233516303,"333":-0.025729954207279953,"334":-0.0010863578149864904,"335":0.011026298764999134,"336":0.04649008466321489,"337":0.05402049650854621,"338":0.011489535949056199,"339":0.08477464085755126,"340":0.02635326909770756,"341":-0.03415238224346204,"342":0.03686634159704656,"343":0.06703293773922621,"344":-0.02285282869659477,"345":-0.005979767630875573,"346":0.04868617282523519,"347":0.08590214412063682,"348":0.04189663898881693,"349":0.014601038387123587,"350":0.07013626822838535,"351":-0.028915992104941498,"352":0.07516685789410904,"353":0.11025902934540852,"354":0.06155100458661799,"355":0.0016083642701167264,"356":0.008038522358183985,"357":-0.023527650254431112,"358":0.039337266543644736,"359":0.04596090686117522,"360":0.14753264263713955,"361":-0.023210284689321938,"362":0.06712620962687534,"363":0.025320416745716966,"364":-0.020301161835351876,"365":-0.0321227118559343,"366":-0.053555830859260245,"367":0.029287771208773943,"368":0.07928974975830969,"369":0.057092440469994454,"370":0.024416124352553213,"371":0.011212019579672609,"372":0.054160031963313315,"373":0.01911665603192161,"374":0.0521913432324892,"375":-0.010779546608963521,"376":-0.01682363157986806,"377":-0.03406989852488436,"378":0.07876568106501343,"379":0.0011706635064749158,"380":-0.006850062951419114,"381":0.009250508856543185,"382":0.055594010597441755,"383":-0.008404154577627545,"384":0.02922271636008621,"385":-0.00594408551156518,"386":-0.0025117235838534755,"387":0.029614578710923847,"388":0.04522984514006451,"389":-0.0348665836205261,"390":0.033750553789135766,"391":-0.008996921662692486,"392":0.03362055107428864,"393":-0.040307984546596703,"394":0.051985016316970147,"395":0.02022581136721171,"396":-0.03935812555408309,"397":0.010269361472581026,"398":0.08653257507818252,"399":0.08315086852254651,"400":0.053406060623795354,"401":-0.022807823189380783,"402":0.0645271768313083,"403":-0.012765130889558572,"404":0.04063794763259889,"405":0.020490692792068763,"406":0.09394557696326807,"407":0.061658634605447495,"408":-0.08323009130430088,"409":0.032178965689475335,"410":0.09756591570240765,"411":0.10576028054591975,"412":0.030964447741806095,"413":-0.004810288831680063,"414":0.02199091107647296,"415":0.06754665102327231,"416":0.009908534058491757,"417":-0.029754129692664767,"418":0.04212408060278616,"419":0.032988005152231215}},{"sx":1,"sy":1,"depth":420,"w":{"0":-0.03331637725391114,"1":0.07334171207938986,"2":-0.11365430880575968,"3":0.1470122846424465,"4":0.056051397688235235,"5":0.02610379930123337,"6":-0.007492318167279439,"7":0.017090981261350724,"8":-0.0024047267573928575,"9":-0.0721820429776848,"10":-0.07160156858114253,"11":0.010046722650963473,"12":0.04223467860759868,"13":0.06082039542961319,"14":-0.11560747448564654,"15":0.11475215857856351,"16":-0.14075187533212946,"17":-0.03114422045312774,"18":0.006939605281608836,"19":0.004329246655356383,"20":0.015699924580575907,"21":-0.040655901260134346,"22":0.17267599259299893,"23":-0.027997210627798697,"24":0.04791123529210464,"25":0.1262370112947789,"26":0.08198736336143903,"27":-0.03613171484836409,"28":-0.14905466672609305,"29":0.05171328400298332,"30":-0.11957310719524096,"31":0.07081863136851717,"32":0.029211481340987458,"33":0.008767480078718963,"34":-0.03689821423266242,"35":-0.009044939746365832,"36":-0.0059377397413940235,"37":-0.13036547303926238,"38":-0.0706939783507176,"39":0.006579867627974595,"40":0.01647159355119326,"41":0.06430990509022888,"42":0.059056977492650486,"43":-0.04265131063523598,"44":0.006520782550913647,"45":-0.02518310998012746,"46":-0.009609083614257682,"47":0.012949798490946183,"48":0.01690778502334743,"49":0.06793186033713858,"50":-0.0846390802408099,"51":0.06146498110307719,"52":0.003941933474941497,"53":0.007615501791287425,"54":0.02930286645908989,"55":0.08804878135960117,"56":-0.002734598634774532,"57":-0.07588860289966882,"58":0.029659280336602308,"59":0.07203340108879187,"60":-0.09609893964905784,"61":0.012319502056251918,"62":0.055709771025983144,"63":-0.0759252797334317,"64":0.059073236942349325,"65":0.03975376163012995,"66":-0.0067532229172775895,"67":-0.012385664699664666,"68":-0.0052976162676311115,"69":0.033735540458339326,"70":-0.06568472563225608,"71":-0.05442390057798259,"72":0.014539644874667124,"73":0.01869575066335706,"74":-0.04419514964060073,"75":0.06706918499022821,"76":-0.06045763781516355,"77":-0.14950166399022108,"78":-0.09036400597116816,"79":0.00597107034418564,"80":-0.0019723543449208466,"81":-0.004273400033934318,"82":0.052141500247801384,"83":0.02124964093473549,"84":-0.06437837343793291,"85":-0.057927154591794434,"86":-0.03180985043421632,"87":0.18842438248075338,"88":0.13845779577436687,"89":-0.02880143808693489,"90":-0.012782363099748357,"91":0.022830846990490414,"92":-0.14405950663288702,"93":0.17809248096253294,"94":0.30441238012765515,"95":-0.09922839392252282,"96":-0.05149931259631378,"97":0.029226746442755008,"98":-0.00694901754725494,"99":-0.06596287094896255,"100":0.11566291030977104,"101":0.05873419900378968,"102":-0.00703322939129998,"103":0.0037729530272484265,"104":0.024865073321863763,"105":-0.10572549180218825,"106":-0.08205362881715687,"107":-0.021017625480332088,"108":0.07464310611344473,"109":-0.024322724021766676,"110":0.02940995501092998,"111":0.05489512809074024,"112":-0.017818656553062945,"113":-0.08752757022281213,"114":0.05535809124274062,"115":0.07698217560231263,"116":0.027234193367299465,"117":0.03293667246238319,"118":0.08958411630025523,"119":-0.08107787721032773,"120":-0.0577316690866123,"121":-0.09077882248184557,"122":-0.058479290769714004,"123":0.03671735721356771,"124":0.05522099077274709,"125":0.04869454907133264,"126":-0.047992292443573954,"127":-0.10794394467844827,"128":-0.017644866530215828,"129":0.042640077867353667,"130":0.1571545806382441,"131":-0.012672553169716138,"132":0.02515135812299296,"133":-0.12975127593028057,"134":-0.03710312368192948,"135":0.03718374214580696,"136":-0.015629806352932183,"137":0.05803323981984403,"138":0.034286000337379406,"139":0.03217789473640273,"140":-0.1240173370068378,"141":0.0032175205708803224,"142":-0.00633114921420904,"143":0.00515856646868197,"144":0.15308001274731223,"145":0.11413995754484402,"146":-0.025462371412524023,"147":-0.11134021634752052,"148":-0.002707410326451452,"149":0.0019401107303832468,"150":-0.08641005055588033,"151":0.041649025382781694,"152":0.01251067807719854,"153":-0.04390457132580998,"154":-0.018814841580879385,"155":-0.04326005242828802,"156":-0.04758946314299347,"157":-0.008324560927933678,"158":0.08997716765724391,"159":0.01692909447703662,"160":0.03521431759259925,"161":-0.015602320990881338,"162":0.011630190655600772,"163":-0.12255589823303714,"164":-0.11633487471943037,"165":0.025791010608613087,"166":0.01919068417130667,"167":0.035102433768618525,"168":0.03819152045030995,"169":-0.056863722180589195,"170":-0.21928817599557213,"171":-0.05972725338923028,"172":0.01876315969458671,"173":0.08705599425833423,"174":0.03469715404831951,"175":-0.0955090270708336,"176":-0.20879708902477004,"177":-0.09840422036046456,"178":0.06736194749613067,"179":0.010844010251648268,"180":0.09533909525096915,"181":-0.053875592039278095,"182":0.07836500511061285,"183":-0.09861744789370032,"184":-0.08774084860119227,"185":0.08387486753229777,"186":-0.07665494449082838,"187":0.011725987991610065,"188":-0.06723205295284042,"189":0.02370339920939681,"190":0.037765796296490094,"191":-0.18516559192069806,"192":0.009300905782017923,"193":-0.05019735718417829,"194":0.053222279568522914,"195":0.0007716665555450701,"196":0.035794231297944325,"197":0.013881117630174977,"198":-0.04505303381556506,"199":0.19996929156739818,"200":-0.08249915769039329,"201":0.10972816927432386,"202":0.01050259608682385,"203":0.01087185162803792,"204":-0.061003456150746586,"205":-0.03743745773046323,"206":0.22348592268902295,"207":-0.11318988503931177,"208":-0.05672662214346659,"209":-0.0387372060795967,"210":0.023365771883261728,"211":0.030706388099278822,"212":0.07042159502236842,"213":0.2800725723063837,"214":-0.0178915295862846,"215":-0.05678127532949958,"216":0.007644637629104766,"217":-0.02377159676655578,"218":0.02820543904632596,"219":-0.0886039644056831,"220":0.16551869368897099,"221":-0.07404470572848208,"222":0.022903141393754853,"223":-0.05262112209172023,"224":0.01790136436680729,"225":0.10092266721608906,"226":-0.06434905749712848,"227":0.08048268709844136,"228":0.02978177164168388,"229":0.03971493226811858,"230":-0.02303578793567448,"231":0.07095981856727633,"232":-0.03386459071385407,"233":0.07483751839682334,"234":0.0228246593381977,"235":0.09124838423208259,"236":0.07487364095873393,"237":-0.0370628674428456,"238":0.06294602630554647,"239":-0.025454902239867603,"240":0.06996893963291083,"241":-0.010182310330243341,"242":0.041406875473954954,"243":0.05491665622073445,"244":0.02988680848419537,"245":0.05307896451119216,"246":-0.08244072562583994,"247":0.2030245181075949,"248":0.16814734710704538,"249":0.023487580534201698,"250":0.1847196377659165,"251":0.05950817956798619,"252":0.2288096020805517,"253":0.0715992935619123,"254":0.019926259732190126,"255":0.23668307422266827,"256":-0.0033298437187600756,"257":0.05780502746599464,"258":0.027129527913661543,"259":0.0771195729861551,"260":0.0024538697234166486,"261":-0.007075870211730291,"262":0.21314600781966367,"263":-0.05071634209990539,"264":-0.0010677790168192572,"265":0.01145086766817434,"266":-0.07702346097366905,"267":-0.003151291723246877,"268":-0.06832022819866725,"269":0.16847967174587594,"270":0.012540208992390608,"271":0.07784159317544766,"272":0.017348707784567596,"273":-0.0279190840207829,"274":0.02623903879652746,"275":-0.10863639080737716,"276":0.14447474467494448,"277":0.04727613199713612,"278":0.05162471715271214,"279":0.00941713793177213,"280":-0.026581161278734965,"281":0.06415886185098456,"282":-0.014293139502834071,"283":-0.14382240899902576,"284":0.08608715798388256,"285":-0.05893894441951362,"286":0.0725149281758271,"287":-0.022092043890658133,"288":0.03330948610207622,"289":-0.055429908501511735,"290":0.04697597328789155,"291":0.0997890490772149,"292":-0.014442789770993883,"293":-0.018444127151484847,"294":-0.06355490932341859,"295":0.01620467054371245,"296":0.03319795363613265,"297":-0.07888628752362616,"298":0.06883366331698769,"299":-0.010971328291694253,"300":0.053375649660483304,"301":0.016217499617931376,"302":0.12825448799949407,"303":0.17209711054327376,"304":0.2750672316082523,"305":-0.05224289804749475,"306":0.08616491512504766,"307":0.05404700635921256,"308":0.020456331122473623,"309":-0.031412646327030946,"310":0.10811245053092175,"311":0.23252424531982124,"312":0.04065623999254311,"313":0.07665967588300454,"314":0.025231035453213778,"315":-0.0027801465386857,"316":0.07864755128708352,"317":0.16088081419539935,"318":0.26762177623884703,"319":0.07954237224773304,"320":0.09237578758630303,"321":0.0188972222666076,"322":0.06814284139124088,"323":0.10648643525297719,"324":0.2610104578136579,"325":0.24123875963336644,"326":0.07845828424344453,"327":-0.03693478722275276,"328":0.08528787770947159,"329":0.07943022323094392,"330":-0.024905966021330234,"331":0.05241513444394945,"332":-0.056954106278499284,"333":0.10097891350720282,"334":0.083208727394351,"335":-0.06497712912169928,"336":0.0648432171400748,"337":0.07853549806332423,"338":0.004543202190247276,"339":-0.18755614336358553,"340":0.060279301817849386,"341":0.06843542579997658,"342":0.05294396244453271,"343":-0.01048125111659247,"344":0.06436867408918075,"345":0.21029144280985995,"346":-0.12033861136738946,"347":-0.13261926756357287,"348":0.07965333512730202,"349":0.015528362399683776,"350":-0.09059797091205483,"351":0.1658876006229919,"352":0.13472683431158541,"353":0.12665629338462597,"354":-0.07929355364452093,"355":0.05516370517082109,"356":0.012975680556797995,"357":-0.14009916750893778,"358":-0.044070049461065276,"359":0.1360779753126826,"360":0.2120860728469186,"361":-0.10679030125210182,"362":-0.0044870486437802596,"363":0.1088724996752668,"364":-0.013981873943157239,"365":-0.005202189500168225,"366":0.2127968240061013,"367":0.20193498008837932,"368":-0.1546929864441863,"369":0.0154285788925623,"370":0.000856482582750867,"371":-0.037778718483840616,"372":0.059851837996136414,"373":0.2992262793830151,"374":0.27377683331902253,"375":-0.07665559920804049,"376":-0.010267734018624157,"377":0.10386985847152289,"378":0.0025959169698255772,"379":-0.08443500961065725,"380":0.3028033292688975,"381":0.07000640590683278,"382":-0.0576261539473648,"383":0.03932915795395032,"384":0.0010156209799496154,"385":-0.011668172340511722,"386":-0.04899686520834718,"387":0.3260877169591922,"388":-0.09876586199696834,"389":0.09687646327726608,"390":0.04591126338169776,"391":0.005919413569374152,"392":-0.06271452535374505,"393":-0.12424776424268501,"394":0.39806231897285443,"395":0.04038591886808395,"396":-0.032789578370834044,"397":0.008381868644661996,"398":0.02158282913731175,"399":-0.11492462325946655,"400":-0.09831464759236691,"401":0.42968299287505524,"402":-0.08068202965218604,"403":0.016505442438156395,"404":0.0045802255492344195,"405":0.026050169043298044,"406":0.07715806975024829,"407":-0.062075974558111764,"408":0.5012429782877775,"409":0.03343018931771476,"410":0.06730828323136695,"411":0.05192570239793264,"412":0.06363599735716664,"413":0.13966043759468996,"414":-0.02358613420612923,"415":0.43136816396558075,"416":0.13969384877948143,"417":0.01083997768315212,"418":0.04206116650074196,"419":-0.01795261684664086}},{"sx":1,"sy":1,"depth":420,"w":{"0":0.025097502934372466,"1":0.07814629268505133,"2":0.07509167859977446,"3":0.04998033250343581,"4":0.09750174426087352,"5":0.16204593694492395,"6":-0.04671295093302831,"7":0.005375649942105246,"8":0.06402952607691705,"9":0.029084435325050288,"10":-0.05139097088731098,"11":-0.004318256791321139,"12":0.032029907138011855,"13":-0.055648987333718786,"14":0.05464912315991427,"15":0.05213048910474485,"16":-0.03600038048583896,"17":0.03510544939001026,"18":-0.06111479649021278,"19":-0.003758625378545079,"20":-0.03568835247148402,"21":-0.005826885583523703,"22":0.04719854464480733,"23":-0.12101112156212013,"24":-0.036236115072392744,"25":0.05770251002024706,"26":0.023641756972079937,"27":-0.00756517815518588,"28":0.049485153578277076,"29":-0.04017725854497959,"30":-0.04429586739940079,"31":-0.013907462851776206,"32":-0.0008656116095238383,"33":0.06042297572863456,"34":0.013271965544889299,"35":0.02394208065633463,"36":-0.007126534005843116,"37":-0.05267590030155024,"38":-0.049328099616509774,"39":-0.051424540937835723,"40":-0.03310102894131209,"41":-0.03210337596450894,"42":-0.004589526814179315,"43":-0.03553163547266276,"44":-0.07878614313527159,"45":-0.029782686788193773,"46":0.0010668940832476977,"47":0.026709086685105465,"48":-0.004465806678273233,"49":0.018900769279456366,"50":0.04482456387710888,"51":-0.010568968633651112,"52":0.03176681438636995,"53":0.011513391336684154,"54":-0.06152166171516453,"55":0.03656467890945258,"56":-0.041880133371419034,"57":0.01775655226502198,"58":-0.06758123335800886,"59":-0.027780607003989915,"60":0.02158078968912311,"61":0.02840149104811226,"62":0.01163833147448413,"63":-0.002326205588150396,"64":-0.05837430467406965,"65":-0.05784074736244518,"66":-0.042101050994015364,"67":-0.0145831270679202,"68":0.004696622824180087,"69":-0.023552342491479503,"70":0.0007257317122057937,"71":-0.031228344254013014,"72":-0.004341125342113915,"73":-0.03802655346895097,"74":-0.006999474300509585,"75":0.006846712610824188,"76":0.05486148303918125,"77":-0.05323476046914642,"78":0.02135092227006676,"79":-0.08528529812546491,"80":0.0051247097171478045,"81":-0.04118818933093038,"82":-0.012338529739204985,"83":0.017878088392003846,"84":0.043202120819894725,"85":-0.03721653131474578,"86":-0.0711573122105513,"87":-0.03315591623184166,"88":0.04842097621936117,"89":0.012235444607871553,"90":0.049228587221532664,"91":-0.0616307395584379,"92":-0.022196259713992614,"93":-0.06923466048655741,"94":-0.08647163433280583,"95":-0.011398815711680057,"96":0.025924512041213196,"97":-0.03068340870907884,"98":0.02301968718084655,"99":0.029611503171832514,"100":-0.0848711075789137,"101":-0.026881339529240055,"102":0.005342580573682891,"103":0.010593774997421155,"104":-0.01656357672378767,"105":-0.1127223703614223,"106":0.015206139631788008,"107":-0.056495398233001266,"108":-0.017985423507486536,"109":0.02028514637491422,"110":0.016613137407664055,"111":0.02806111736491554,"112":0.048880815490628074,"113":0.04992470344975917,"114":-0.11542548456671717,"115":-0.042425349806962144,"116":0.058342287130879356,"117":0.0713361885246712,"118":0.002116729399843485,"119":0.010235155508204547,"120":-0.0702803217012443,"121":-0.12684729076888318,"122":-0.06725868364983427,"123":-0.02603894032887444,"124":0.058787272680729565,"125":0.0032192908331542995,"126":-0.03118356585603384,"127":-0.034004723519292894,"128":-0.12416749012752855,"129":-0.026170990803139487,"130":0.0030214122394969624,"131":-0.008264980949699923,"132":0.02221009640047038,"133":0.08520739663128336,"134":0.02258574282709127,"135":-0.04613070462372409,"136":-0.01831481528472723,"137":0.002963075526613307,"138":-0.043568523395458,"139":0.008872821227178777,"140":-0.06567538694906357,"141":-0.0010301093203618579,"142":-0.14732775982171853,"143":-0.03500164878942374,"144":-0.01764148715882878,"145":0.04796129652887129,"146":-0.04106848180693138,"147":-0.07310541452068763,"148":-0.056473924534013856,"149":-0.09838225271106059,"150":0.002732003373350034,"151":0.06929510670514608,"152":0.08197780108705735,"153":-0.018771328438869108,"154":-0.007712174260866334,"155":-0.030891110032480754,"156":-0.17493669982813237,"157":-0.09034636796419646,"158":-0.0006498476779091232,"159":0.00866829983002936,"160":-0.0018035575261850835,"161":-0.09622463098837328,"162":-0.07462957164885169,"163":-0.13233431872260767,"164":-0.011437742745441905,"165":0.03547035278419402,"166":0.00741313833945083,"167":0.03035805937518118,"168":-0.027185582052976477,"169":-0.016452128211626265,"170":-0.10749408269325204,"171":-0.09388681383776391,"172":0.03720477355452913,"173":-0.03934545132491881,"174":-0.016022889301437714,"175":-0.012955252476329606,"176":0.004159528647036438,"177":-0.19630881376362588,"178":-0.05270001402218839,"179":0.04862078762661073,"180":0.053534001376907434,"181":0.021022380405415795,"182":-0.059336544717059236,"183":-0.08197404492563104,"184":-0.1724638369372653,"185":-0.03863847354394036,"186":0.06105988575024832,"187":0.010524369976642647,"188":-0.020926581365935983,"189":-0.08981204500214564,"190":-0.04269039164469291,"191":-0.15680590585278123,"192":-0.1024324468698071,"193":-0.03707833695222794,"194":-0.017300675451708016,"195":0.051257778240001675,"196":0.023275853392148313,"197":-0.03985532227593031,"198":-0.20371657501540696,"199":-0.024614754928247506,"200":0.03224824646673741,"201":0.06389949112273483,"202":-0.043787554386463964,"203":-0.034153994755975664,"204":-0.08561338266705917,"205":-0.20021132238695213,"206":-0.00793914373918521,"207":0.0815170003677594,"208":0.07830284403203042,"209":0.032678316934662784,"210":-0.006205131349847419,"211":-0.06451560791652412,"212":-0.2579029452883886,"213":-0.0742246586995577,"214":0.016610998737735024,"215":-0.001325503654639786,"216":0.05461350767956666,"217":-0.07907156061464383,"218":-0.03985371166145593,"219":-0.22870308315870022,"220":0.012647509158981612,"221":0.04709614156723835,"222":0.009432150266851274,"223":-0.0492825047199357,"224":-0.02428127873007092,"225":0.006380672781911984,"226":-0.22756894194199798,"227":-0.006623238738417909,"228":-0.019996787394544947,"229":0.028061500450217585,"230":0.021145707236141658,"231":-0.022740192760662477,"232":-0.0646901842413249,"233":-0.27119596586075134,"234":0.014883000224599017,"235":0.04809152656196459,"236":0.06770720493204815,"237":0.023766382194318838,"238":-0.021215468236249972,"239":-0.044497067090018216,"240":-0.28263665112337244,"241":0.03398436372015421,"242":0.033558531532481936,"243":0.027571145795724752,"244":0.013385608084781871,"245":0.018800898540143156,"246":-0.0707679276885637,"247":-0.37618549143321417,"248":0.05886010460300955,"249":0.09377441873827999,"250":0.0962184609639272,"251":0.004252374877955525,"252":-0.01351456091332622,"253":-0.042784052417707254,"254":-0.33378309249473864,"255":0.06260808515448911,"256":0.020887014271121506,"257":-0.054285765250662615,"258":-0.025203753608792456,"259":0.006412255383246812,"260":-0.041752546969138764,"261":-0.28220797953801324,"262":0.10486455864102777,"263":0.0777861480453335,"264":0.08134872742984801,"265":0.00443173198167926,"266":-0.0017564377292530002,"267":0.008527530605172948,"268":-0.30623306669242817,"269":0.06405841453807734,"270":-0.0016109061819355476,"271":0.016810009406570587,"272":0.015306125372014616,"273":0.022494222074810895,"274":-0.05602029401787542,"275":-0.49543975624465536,"276":0.0904901932892398,"277":0.09342748817918575,"278":0.03700749015773177,"279":0.03106214526780256,"280":0.07396444643265732,"281":-0.04464885461578192,"282":-0.4324813220487232,"283":0.269544534820167,"284":0.026287773159260987,"285":0.027833397339913968,"286":-0.07439743756455754,"287":0.032538016912383415,"288":-0.03845530808143037,"289":-0.2860498880728064,"290":0.07079757879862472,"291":0.09160000116115653,"292":0.039774933640120726,"293":0.010044800727158042,"294":-0.00457016315361189,"295":-0.010152610850095386,"296":-0.3126895657952121,"297":0.21840347463273982,"298":0.018893787149118813,"299":0.07047415715795469,"300":0.023983924136948144,"301":-0.06676723954691889,"302":-0.03625398773569729,"303":-0.16659052185448686,"304":0.29844381455557845,"305":-0.0023763842051737257,"306":0.021596017434007467,"307":0.037661452154165304,"308":0.007015192959868007,"309":-0.001190625972857587,"310":-0.14603101371262453,"311":0.3222282073271643,"312":0.14043680386270285,"313":0.07250190631654829,"314":-0.038069827418318214,"315":0.04370648789034867,"316":0.02570023047969631,"317":0.04202001294912694,"318":0.1981997070978129,"319":0.015669792152214913,"320":0.002098727263418568,"321":0.01826371886132964,"322":0.09353734964368071,"323":-0.009508592288800025,"324":-0.13037769685011516,"325":0.08698741850864866,"326":0.05642004877533665,"327":0.04741916706394246,"328":-0.012034084221059109,"329":-0.07910966789000404,"330":0.054484085535915806,"331":-0.003277931732071497,"332":0.3351230508901482,"333":0.010377494030505868,"334":-0.0011806505500572052,"335":0.07457557738375019,"336":-0.0031654353905911066,"337":-0.05348090188979728,"338":0.06842811756453226,"339":0.20628447220537066,"340":0.06424133538627955,"341":0.0035258732473463996,"342":-0.012841856848953793,"343":0.017165132937098166,"344":0.10826498535042145,"345":0.09603052025955783,"346":0.1751956698120266,"347":-0.022209676216690594,"348":0.002082696559405234,"349":-0.005668521703424739,"350":0.1456506777899334,"351":0.08260391246558349,"352":0.01716967440148233,"353":0.08727354302907302,"354":0.02626217364959059,"355":0.041115236554347935,"356":0.03022392171528436,"357":-0.020286493390133154,"358":0.09991420382931666,"359":0.1479485379163911,"360":0.09747032741392866,"361":-0.056990381384075396,"362":0.0011941769018599527,"363":0.03504302837522671,"364":0.002576055735826785,"365":0.08875448168722712,"366":-0.2088121850070863,"367":0.18661845287256906,"368":0.10081373188706487,"369":-0.011661638560791821,"370":0.02077515676316538,"371":-0.02778982749886461,"372":0.09924757601881393,"373":-0.003605906326988431,"374":0.36846765599342735,"375":-0.056872424293327235,"376":0.05034605344086923,"377":-0.03406674245824494,"378":0.05146052865557515,"379":0.11032613751901835,"380":0.03703863991077434,"381":0.36428139016139477,"382":0.06879101101444396,"383":-0.02578928173952399,"384":0.01926781731126543,"385":0.02727692843034646,"386":0.17508460131330372,"387":0.18401438230120465,"388":0.003339796771159102,"389":0.035898794075940745,"390":0.009297539777648859,"391":-0.027696737783219533,"392":0.010489919155745491,"393":0.03811398846878265,"394":0.003451289394647596,"395":-0.08335387046116058,"396":0.03184481759257535,"397":0.01808672687743289,"398":0.04770522572034636,"399":0.013033430803840229,"400":0.09425597929674984,"401":-0.09760313510299758,"402":0.13813748141993962,"403":0.016687020031666215,"404":-0.005805098145100581,"405":-0.04127087043899103,"406":-0.021349531575793588,"407":0.02238749329243239,"408":0.07039404262842837,"409":0.05252051487062723,"410":0.08754739863129408,"411":-0.0023430467132036525,"412":0.0023516906264338627,"413":0.05279994003530582,"414":0.06184344172306858,"415":0.3429118279937463,"416":0.33134261709589646,"417":0.00002711829273294556,"418":-0.07586076834784669,"419":-0.04101756925523961}},{"sx":1,"sy":1,"depth":420,"w":{"0":-0.02555553239330175,"1":-0.08779475827430705,"2":-0.07037909137472309,"3":0.014840686588429517,"4":0.15331214966135134,"5":0.033872496380219004,"6":-0.001470086518316699,"7":-0.14218237758915178,"8":0.030781903354476222,"9":-0.09327864368168388,"10":-0.08974163520540201,"11":0.1564804712086338,"12":-0.16025252625677153,"13":0.01921467214073418,"14":-0.09182984239618382,"15":-0.13352372541070776,"16":-0.10542748371539562,"17":-0.04019355104454447,"18":0.11591653956705684,"19":-0.09506570844175423,"20":-0.033742270684144406,"21":0.014341365135440449,"22":-0.10287267034106341,"23":-0.2697500842417776,"24":-0.03428940131622923,"25":-0.07063631646923163,"26":0.05576043342147093,"27":-0.05697833235896081,"28":0.005030361999720037,"29":-0.15390448325673672,"30":-0.08477222089544027,"31":-0.14698567384446407,"32":0.047011503321734746,"33":-0.1589042856812622,"34":-0.06565533889396802,"35":0.013991001316930648,"36":0.052211925510202255,"37":0.0697089687338592,"38":-0.1092815325603668,"39":-0.008293973685250991,"40":0.015713047284348015,"41":0.09445633954816592,"42":-0.0021412166695525367,"43":-0.10348426124029601,"44":-0.017605596309012515,"45":-0.07497617778453022,"46":-0.04413515986305266,"47":0.06582974580075462,"48":0.08280839478640419,"49":-0.009711211310789072,"50":-0.09210635654398903,"51":-0.07519869003924937,"52":-0.08805073452818336,"53":-0.0516304233326484,"54":-0.097289661411198,"55":0.07595108844338695,"56":-0.04210360370762172,"57":-0.017155899646943355,"58":-0.17646460856178783,"59":-0.018320698580988674,"60":-0.026598504228425173,"61":-0.009804531347366419,"62":0.014405173989517723,"63":0.011176826622524715,"64":-0.012617759485070624,"65":-0.07077626434810216,"66":-0.08704353274747031,"67":0.0282319831880093,"68":-0.06501558743269058,"69":0.058465240304259675,"70":0.01154429774223002,"71":-0.015555202521294583,"72":-0.14899147152148248,"73":-0.07671419516119375,"74":-0.07877828867235198,"75":-0.08961293567425677,"76":0.1222204020661916,"77":0.06347154928243207,"78":0.01927086977095238,"79":-0.000424008369281579,"80":0.02048917507345624,"81":-0.022809534715358758,"82":-0.07904512696262193,"83":0.08264534710682496,"84":0.00015919275420012277,"85":-0.14827626201531346,"86":0.009282154429155151,"87":-0.06063118411693465,"88":0.041329980503976536,"89":-0.07965848365847492,"90":-0.0762378483638474,"91":-0.005091338652588477,"92":-0.0020123367727959873,"93":-0.18219077122884178,"94":-0.13981166950873122,"95":-0.03554387609538837,"96":0.033457722097140236,"97":-0.08080774178515814,"98":0.05854756608081578,"99":-0.008945616402619233,"100":-0.018923027899636173,"101":-0.1452032723319696,"102":-0.13313017771587557,"103":-0.10574743844930572,"104":0.02108167076816394,"105":-0.06753772866771092,"106":-0.01170751649004181,"107":-0.10812208597077927,"108":-0.07320885674438495,"109":0.08235712403516547,"110":-0.07059213600198704,"111":0.0007423128503751312,"112":-0.016033805305071137,"113":0.059166942171975295,"114":-0.08664529322791571,"115":0.010607987622308686,"116":-0.015118716170080258,"117":-0.037245070469297516,"118":0.09406290477155178,"119":0.041401331209913766,"120":-0.033671917873564786,"121":-0.027758643372591638,"122":0.0023825478707938308,"123":0.030356558196110394,"124":-0.06523299530906693,"125":0.015025405031188092,"126":0.06969892350864301,"127":-0.07761463212235246,"128":-0.046962168863118485,"129":-0.0964022444706358,"130":0.0774818819387544,"131":-0.12408654054592708,"132":-0.035648362998944715,"133":-0.036789322212820115,"134":-0.0636093845259247,"135":-0.13957573393634476,"136":-0.07094156699624471,"137":0.0395118729970751,"138":-0.07277028299360486,"139":0.09564800203155319,"140":0.010356471980433102,"141":-0.13044208296455018,"142":-0.029035872640524825,"143":0.011565100428357124,"144":-0.017354927661533227,"145":-0.05222462472703474,"146":0.022180194060821,"147":-0.002554340960010007,"148":-0.02717719780436454,"149":-0.054847217281212564,"150":-0.042258439948592144,"151":0.06826133157167429,"152":0.04904183680570222,"153":0.004320586258246093,"154":0.008466592447361617,"155":-0.0692078860225431,"156":0.0010614129253452753,"157":0.008812236529347525,"158":0.03385366216457155,"159":0.004083018039350497,"160":0.05107512638872384,"161":0.061263258107979016,"162":-0.06591407387344299,"163":-0.000819651817064947,"164":-0.12640083985746092,"165":-0.025411919509006523,"166":0.004418901948097453,"167":0.029774937528343984,"168":-0.1431181125285621,"169":-0.0291495876542725,"170":-0.13168258868160285,"171":0.07090968971180368,"172":0.13185189909992684,"173":-0.015538498318365318,"174":0.1055383474803999,"175":-0.0641816816256418,"176":-0.08532350296832002,"177":-0.0675783321364473,"178":-0.10388221317614367,"179":0.02214172830478217,"180":-0.017593070897856597,"181":0.05802472141042806,"182":-0.06549036472492238,"183":0.06930800602510281,"184":-0.036559367682326656,"185":-0.017845137758077095,"186":0.08313300397749745,"187":0.09470004092120635,"188":0.031349970791705636,"189":0.015315545687211263,"190":-0.1070960379155658,"191":-0.024508346496713258,"192":-0.03469482932592556,"193":0.02277934904887725,"194":-0.033400545345910256,"195":-0.0043756372432608515,"196":-0.0445032624206517,"197":-0.012272459516702926,"198":0.011588112365207277,"199":-0.036097638248212216,"200":0.08194395273302099,"201":0.05640073645096224,"202":-0.04134963305917882,"203":-0.06284635405200871,"204":-0.06830805922952225,"205":0.10478481979769942,"206":-0.027535055231485858,"207":0.03377122797421462,"208":0.1436496015291994,"209":0.0453569172896174,"210":-0.046386375822894614,"211":0.08435330427880777,"212":0.01520067799879562,"213":0.05813021140885211,"214":0.07684448334870586,"215":0.017476829804951237,"216":-0.04646420024697002,"217":-0.05547661945376756,"218":-0.08418239980959788,"219":-0.03153327315270517,"220":0.13929050239903362,"221":0.016800889497974425,"222":-0.04271944907216815,"223":-0.0314436517349348,"224":-0.04908173469309769,"225":0.08215364887893216,"226":-0.07465426918735316,"227":0.0035888469586549897,"228":0.009047780417038907,"229":0.006907150255799114,"230":-0.0037690591297177565,"231":0.10213358496499372,"232":-0.08627073120176042,"233":0.07073262795264201,"234":0.06766698894371595,"235":0.23589136279949327,"236":0.0014325458752293691,"237":-0.07976263546643925,"238":-0.04693386189890989,"239":0.11427505401159133,"240":0.030852011448095996,"241":0.07180631400637862,"242":0.15010530485758553,"243":-0.06481766155365414,"244":0.04186204369956699,"245":-0.06720846507979537,"246":0.009716318415962145,"247":-0.03201059672820732,"248":0.10402699437174799,"249":0.09508113691248156,"250":-0.018422061697827133,"251":-0.013961109306124096,"252":0.07571037184565943,"253":-0.0024236311922140085,"254":0.014816151040250393,"255":0.19511000160807954,"256":0.26211856667937655,"257":-0.004837406669107731,"258":-0.0027343701989895534,"259":0.0051889752777468205,"260":0.14396272533107876,"261":0.13349103840499518,"262":0.06597293941039607,"263":0.23412828642793482,"264":-0.02994509553191961,"265":-0.0479945037608606,"266":0.057571551044133765,"267":0.01634360041889577,"268":0.16783234435070526,"269":-0.034521992654062264,"270":0.20434368681564147,"271":0.05055464943713446,"272":-0.05810335527457454,"273":0.03117391994057843,"274":0.1318515357874508,"275":-0.00963482178726388,"276":-0.061157782858469976,"277":0.18396620252710405,"278":0.0670147019199115,"279":0.0012102476586118751,"280":0.004777790379643231,"281":0.036120823854466015,"282":0.10379566244671787,"283":-0.21566163912979447,"284":0.36740202810307443,"285":0.016761194062931983,"286":-0.02904719236718687,"287":0.004093481033470217,"288":0.1432749885524212,"289":0.06774378461714253,"290":-0.2038123609510385,"291":0.32713508672868635,"292":0.05677028984718377,"293":-0.054887315772973976,"294":0.0036424689666749457,"295":0.19120394978665392,"296":0.09241625009034389,"297":-0.06817084125722839,"298":0.2990179295365912,"299":0.009651208771103153,"300":-0.0491591059231319,"301":0.0825269899970804,"302":0.08484825551796742,"303":0.08481954169721141,"304":0.1713727916427745,"305":0.12946136679303202,"306":-0.02737643046685605,"307":-0.08517702448842802,"308":0.06243294615198648,"309":0.011094512202778408,"310":0.1717160108377328,"311":0.20025487910310388,"312":0.20463330165530982,"313":-0.028634126726896258,"314":-0.025445581404986303,"315":0.0022610674622334107,"316":0.15533732173989304,"317":0.12346376501600578,"318":0.15653964157821984,"319":0.1658070592705076,"320":-0.04497396751460667,