
//<![CDATA[

// a few things don't have var in front of them - they update already existing variables the game needs
lanesSide = 5;
patchesAhead = 50;
patchesBehind = 20;
trainIterations = 100000;

var num_inputs = (lanesSide * 2 + 1) * (patchesAhead + patchesBehind);
var num_actions = 5;
var temporal_window = 0;
var network_size = num_inputs * temporal_window + num_actions * temporal_window + num_inputs;

var layer_defs = [];
layer_defs.push({
   type: 'input',
   out_sx: 1,
   out_sy: 1,
   out_depth: network_size
});
layer_defs.push({
   type: 'fc',
   num_neurons: 40,
   activation: 'relu'
});
layer_defs.push({
   type: 'fc',
   num_neurons: 50,
   activation: 'relu'
});
layer_defs.push({
   type: 'fc',
   num_neurons: 50,
   activation: 'relu'
});
layer_defs.push({
   type: 'fc',
   num_neurons: 50,
   activation: 'relu'
});
layer_defs.push({
   type: 'fc',
   num_neurons: 20,
   activation: 'relu'
});
layer_defs.push({
   type: 'regression',
   num_neurons: num_actions
});

var tdtrainer_options = {
   learning_rate: 0.001,
   momentum: 0.0,
   batch_size: 128,
   l2_decay: 0.01
};

var opt = {};
opt.temporal_window = temporal_window;
opt.experience_size = 30000;
opt.start_learn_threshold = 5000;
opt.gamma = 0.91;
opt.learning_steps_total = 10000;
opt.learning_steps_burnin = 1000;
opt.epsilon_min = 0.0;
opt.epsilon_test_time = 0.0;
opt.layer_defs = layer_defs;
opt.tdtrainer_options = tdtrainer_options;

brain = new deepqlearn.Brain(num_inputs, num_actions, opt);

learn = function (state, lastReward) {
   brain.backward(lastReward);
   var action = brain.forward(state);

   draw_net();
   draw_stats();

   return action;
}

//]]>
    
/*###########*/
if (brain) {
brain.value_net.fromJSON({"layers":[{"out_depth":770,"out_sx":1,"out_sy":1,"layer_type":"input"},{"out_depth":40,"out_sx":1,"out_sy":1,"layer_type":"fc","num_inputs":770,"l1_decay_mul":0,"l2_decay_mul":1,"filters":[{"sx":1,"sy":1,"depth":770,"w":{"0":0.026100609865761414,"1":0.02863402696147852,"2":0.014145439813572872,"3":0.0007992715559963036,"4":0.01390758944592651,"5":0.08693322428249872,"6":0.017282657540891488,"7":0.010377084652009734,"8":0.054949331258204254,"9":-0.039971336690788783,"10":0.02542266531172059,"11":-0.05837177712308229,"12":0.017656917814486934,"13":0.045398493404483146,"14":0.07901581875743859,"15":0.03920119242109084,"16":0.07607790285636452,"17":0.02348455159613393,"18":0.06301832810787861,"19":-0.05597318458212301,"20":-0.018358088686245284,"21":-0.021874497504006357,"22":-0.0030077423450340234,"23":0.04969571948724511,"24":0.01959236369742826,"25":0.02010891317547055,"26":-0.03404425317787661,"27":0.010949209085659552,"28":0.06040232848128895,"29":0.021995002510646105,"30":-0.02886274239667364,"31":-0.028584391224877045,"32":-0.004646194172124199,"33":-0.054424771177580294,"34":-0.05468807762666195,"35":-0.04221017939613619,"36":-0.022623870499645177,"37":-0.009365069187200505,"38":0.05678514526493477,"39":0.015450479730306898,"40":-0.03898781152352728,"41":-0.07046179101672775,"42":0.042563416209995764,"43":-0.011128322393963006,"44":-0.02335002565821416,"45":-0.012025035989636678,"46":-0.09458936415235158,"47":0.017855753478082353,"48":-0.023043920759072366,"49":0.08536976997747467,"50":0.06288193286354751,"51":0.013130965225797094,"52":0.014107373105496552,"53":-0.044898616322648924,"54":-0.018792679157173194,"55":0.029134218698403342,"56":-0.04776370652954786,"57":-0.014910192516819184,"58":-0.010997177797592605,"59":0.030834868643982,"60":0.01946062913338544,"61":0.028682477735172324,"62":0.016917820709252625,"63":-0.011155655883034738,"64":0.021704360265431193,"65":-0.012575256578282694,"66":0.009606648473605713,"67":-0.010844132778622227,"68":0.025949936853318645,"69":0.001773808831189235,"70":0.051406614955872,"71":-0.006606064256089094,"72":0.044040123846982665,"73":0.01810174263624769,"74":0.02823240190023298,"75":-0.0020140517512652056,"76":0.03013595841836479,"77":-0.030659330595103514,"78":0.011404644007322237,"79":0.02990033512649433,"80":-0.004881615740334466,"81":-0.014570097648008975,"82":-0.011977914204484612,"83":0.04503988227243993,"84":-0.029100596708612918,"85":-0.009470693987963736,"86":0.004095519547053209,"87":-0.032496621902492716,"88":0.010066427673578602,"89":-0.057817172853408365,"90":0.016106571339679503,"91":-0.017494316751646883,"92":0.01194859486946908,"93":0.08158549339437038,"94":-0.008720808475404376,"95":-0.03782970807589917,"96":0.04715128953293828,"97":-0.013067558352110455,"98":0.07151104618793858,"99":0.0037938239899112038,"100":0.002689234146531533,"101":0.022824132529387833,"102":0.002235979148097032,"103":-0.00443977843856379,"104":0.07354147033251099,"105":-0.012756865728922718,"106":-0.02666862683417153,"107":-0.07420405801094461,"108":0.030616167967553537,"109":0.017915994622869722,"110":0.06900720514681553,"111":-0.02772998505418799,"112":-0.08143243353825931,"113":-0.007495663821055565,"114":-0.018001535911534992,"115":0.04222442107658788,"116":0.11768050030163443,"117":0.015725175523263867,"118":0.013731338115723404,"119":0.016853802441867162,"120":-0.015508186370775667,"121":0.009832198981689732,"122":0.014885768019137805,"123":-0.009113411745404795,"124":-0.01532483451477387,"125":0.017607047450793008,"126":0.05985279352497603,"127":0.06302195234062005,"128":-0.03397076151299595,"129":-0.0590762954808433,"130":-0.04089046948481996,"131":0.0690490101994035,"132":-0.039131747436358666,"133":0.034498447715917244,"134":-0.02420181228173269,"135":0.020035032250771585,"136":0.04506692861180296,"137":-0.02466308427043293,"138":0.024080834521770917,"139":0.01654949390998229,"140":0.04859275200523897,"141":-0.016720203469803706,"142":0.0027323898826237467,"143":-0.022986145669666638,"144":0.009365081462048017,"145":-0.04029600685156146,"146":-0.022740729242652684,"147":-0.0446143063790559,"148":0.06521240215519612,"149":0.03188181940113186,"150":-0.05009601471246104,"151":-0.01770606170021141,"152":-0.008095469340299834,"153":-0.05528022965251024,"154":-0.052244902373085725,"155":0.04680555319838395,"156":-0.0287902681176736,"157":-0.04826554324164175,"158":0.012236775935508454,"159":0.05812686974344304,"160":0.044483362826772524,"161":-0.0629035018026115,"162":-0.0034881925758730803,"163":0.03171665663835844,"164":0.04005721313071696,"165":0.03465641410027637,"166":-0.011884181389794943,"167":-0.026704260278552504,"168":0.006173233574672355,"169":0.025444860441508,"170":0.05382443768590472,"171":0.014043746457587545,"172":0.05341925037024511,"173":-0.03160745537449352,"174":-0.03315352464595946,"175":0.034488126256669756,"176":-0.014978647615398622,"177":-0.004559713535784779,"178":-0.02125332947860607,"179":0.008764338821995628,"180":0.048530394450214724,"181":0.07867626146787457,"182":0.0451331791092473,"183":0.06969894225893544,"184":-0.0931718575972932,"185":0.025424791500397344,"186":0.04044985934184578,"187":0.0042182980325179975,"188":0.028354376519026857,"189":-0.030888473731866404,"190":-0.01620544618548142,"191":0.06473888265004175,"192":0.08023665246553618,"193":0.07891288298379666,"194":0.010743554231546402,"195":-0.020547916268582878,"196":-0.041120482695045965,"197":-0.0023748803538487053,"198":-0.09337295712878668,"199":-0.036571859978743404,"200":0.04379022680003823,"201":-0.027780652129789002,"202":0.05111585028490599,"203":0.048486700241409185,"204":0.0644778241867177,"205":0.021067405532215974,"206":-0.04480490402271323,"207":0.02759259644121984,"208":-0.007332886883073507,"209":0.01907239230026684,"210":-0.022069204324616645,"211":-0.014482533211664752,"212":0.007946625329475368,"213":0.01676234797292528,"214":0.02001727001394775,"215":0.03473385369990026,"216":0.07480742160506368,"217":0.005466856654417839,"218":-0.04662581929835233,"219":0.0032442167851224287,"220":0.007448608653449588,"221":-0.04963627984819499,"222":0.004055087227689697,"223":0.02482342425540485,"224":0.023083659014486245,"225":0.10803393625837782,"226":0.01226331748119274,"227":0.015160732771288096,"228":0.017987399034115937,"229":0.04641791416254294,"230":0.022807335251662685,"231":-0.01439193863629564,"232":-0.04443908691991249,"233":-0.0047475984454778235,"234":-0.011332342537093709,"235":0.02708689413141964,"236":0.03114288873593963,"237":0.05776476860024803,"238":-0.018794469158116035,"239":-0.08808285640912514,"240":0.009715122578708262,"241":0.013026212708982661,"242":-0.07551284175644443,"243":-0.010316227827533811,"244":-0.032116287324315845,"245":0.03340449039801375,"246":0.07372610877655658,"247":0.04452216891970047,"248":0.02622316748983334,"249":0.03522104626007431,"250":0.009553727436283846,"251":-0.03726951317347378,"252":-0.04007083700861691,"253":0.000505737071255332,"254":0.0003320294115454797,"255":-0.0531987318085464,"256":-0.041370181128871884,"257":0.0703923041117327,"258":-0.02798212984598952,"259":0.015492243176280422,"260":-0.0049224067065872035,"261":-0.06015364390978659,"262":-0.06025516582388549,"263":0.054778500386956974,"264":0.042233123182592196,"265":-0.05233444635066527,"266":0.02121253543419379,"267":0.02241473900426973,"268":0.016581352185203475,"269":0.08690686708339175,"270":0.03117560431041218,"271":0.012472254882496824,"272":-0.014523952369342527,"273":0.019975671461086798,"274":0.010724451553004895,"275":-0.052647233266291615,"276":-0.03496828062530557,"277":0.0269884109542069,"278":0.011192198565350935,"279":0.02335196336179768,"280":0.07550456578766476,"281":0.10104210362672844,"282":-0.013531759823892564,"283":0.010462993023951471,"284":-0.015129967205051758,"285":0.01164912437628389,"286":-0.01455030424110876,"287":0.022826631260204622,"288":-0.036256433134349765,"289":-0.014227085879908142,"290":0.06705242891123844,"291":0.1530402091396827,"292":0.04916086637711058,"293":-0.025376303334880657,"294":-0.022207146717071143,"295":0.0366559444845344,"296":0.046769732137064736,"297":-0.013828460594404575,"298":0.059697938296698214,"299":0.0022340953305545093,"300":-0.06920854378989365,"301":0.08285809439730517,"302":0.1191461615854529,"303":0.041287348130837766,"304":0.04334859795608982,"305":0.0076849076881723944,"306":-0.016291992780928168,"307":0.0010046349084324687,"308":0.008821871602941164,"309":-0.04520303229978841,"310":0.029260904365525166,"311":0.013588721193441346,"312":0.00855468897197102,"313":0.14818820098001967,"314":0.03851961946194137,"315":0.006318449292567211,"316":-0.006840526188513652,"317":-0.005419213428948033,"318":0.013384969007805626,"319":0.008377916914267891,"320":0.019160831787592952,"321":-0.027891802141638257,"322":-0.030953081778078588,"323":0.05096828642427436,"324":0.09321840653256502,"325":-0.009396366766069105,"326":0.019849117994025944,"327":-0.04851487836485549,"328":-0.012300690674050286,"329":0.042648348461071385,"330":0.04398340701614142,"331":0.038356941784041344,"332":-0.04554762050791922,"333":-0.036240712520295516,"334":0.006886979420535292,"335":0.061243105525054554,"336":0.04061114372386242,"337":-0.025668881529608747,"338":-0.006146355986533011,"339":-0.02632438863627746,"340":0.00181783140470395,"341":0.08410723850262121,"342":-0.003802403072191173,"343":-0.015702183075701613,"344":0.029285480916328994,"345":-0.055033198876080096,"346":0.12632809610671988,"347":0.058302024519655875,"348":-0.031211328316895885,"349":0.027276391982763454,"350":-0.003597978401427732,"351":0.014393935444287667,"352":-0.04863899582256121,"353":-0.034087376484569124,"354":-0.015383198226613081,"355":0.020576175077251617,"356":0.03251443983537051,"357":0.12460805781513531,"358":0.028286573179180353,"359":-0.003797270572001194,"360":-0.03413176152967967,"361":-0.0025430663256083698,"362":-0.01635850420507949,"363":-0.0034662381845878857,"364":0.01890530894300558,"365":-0.01541592012966412,"366":-0.0018274708010648528,"367":-0.07126113088799901,"368":0.1581649286207847,"369":0.07199935081611356,"370":0.0003233105563613109,"371":0.02225174827644778,"372":0.014288193939945777,"373":0.06689785911328487,"374":0.022773730344576706,"375":-0.01583235007566277,"376":-0.05152625583241821,"377":-0.048548273921266025,"378":-0.031124937046782125,"379":0.11894363655017832,"380":0.040566888436552005,"381":-0.0018228377921025755,"382":0.06037732042770987,"383":-0.033222712234847886,"384":0.027200439381637465,"385":0.0534754476019186,"386":-0.0017479750150640766,"387":-0.00034878439816650155,"388":-0.023639026646033994,"389":-0.0386859592205165,"390":0.15132619914979623,"391":0.05908312352577071,"392":-0.005092537155878272,"393":-0.09169004126821054,"394":0.004444675165290076,"395":0.04506560474857153,"396":0.03210022852660176,"397":0.028207724813918155,"398":0.027740568392570546,"399":-0.01841392052883398,"400":0.0063569901918441776,"401":0.1459458601364571,"402":0.058275712101197134,"403":0.03527243079877737,"404":0.009268218605787144,"405":0.06001608009341479,"406":-0.04667709951749142,"407":-0.04258767859644908,"408":-0.0036495780594145467,"409":0.037820207942960614,"410":-0.014311288152442578,"411":-0.012760981763207115,"412":0.06418449255736647,"413":0.026249054192679033,"414":0.04992392079597237,"415":0.003009720197347042,"416":-0.032536748263396004,"417":-0.004502557658266347,"418":0.0674272050294759,"419":-0.03716842451885745,"420":0.01211194349704262,"421":0.0033453666220505246,"422":-0.13797865094433276,"423":0.16246313468221107,"424":0.03620658080946622,"425":0.015749578680374177,"426":-0.0023563807713808823,"427":0.03426286450192665,"428":-0.009540431383714973,"429":-0.02843244207603434,"430":0.03667223942656671,"431":-0.0050352040284830655,"432":-0.04907823472964185,"433":-0.007965909218594483,"434":0.13479507811437128,"435":-0.07308761082829468,"436":0.013135412093117419,"437":-0.07673380859028345,"438":0.027369372585625763,"439":0.044592968158061,"440":-0.009701235777226737,"441":-0.0009137645432924444,"442":-0.11539103931053966,"443":-0.03650476948776253,"444":-0.05605812479026319,"445":0.22797737174874821,"446":0.09807378735232909,"447":-0.11289326096389009,"448":0.007373550701771605,"449":-0.005944799240888584,"450":0.019458479007297823,"451":0.022870951718863157,"452":0.005705380108017232,"453":-0.01851506314164029,"454":0.01200208871092366,"455":-0.024430007181303653,"456":0.20088593238233257,"457":0.014472137045630077,"458":0.005573639165203667,"459":0.007289721952675544,"460":-0.05397465963900742,"461":-0.004040052761528157,"462":-0.016206018928954145,"463":0.010000586834239608,"464":-0.04218147610625287,"465":-0.06526099771677682,"466":-0.029227542785910075,"467":0.18855493929921163,"468":-0.08758644625960813,"469":-0.029741923103021983,"470":0.03204015480882123,"471":-0.04552529881036087,"472":-0.021224325186817213,"473":-0.009734107719011011,"474":-0.01929905055182001,"475":0.010897967539922806,"476":0.002138366061887826,"477":-0.053684265215811225,"478":0.34477418755207295,"479":0.03520433073837753,"480":-0.05050723363357674,"481":-0.01103557491173049,"482":0.0417513297140947,"483":-0.06058036390023709,"484":-0.0007576064875191718,"485":0.024103080245718674,"486":-0.035855817874167424,"487":-0.011767327877122244,"488":-0.13974338729348504,"489":0.3256375435383165,"490":-0.1050857754764952,"491":-0.04155301259553952,"492":-0.00913635768853249,"493":0.022296232407264183,"494":-0.02239913421569678,"495":-0.03156887180637462,"496":0.010982204398232975,"497":-0.033266490795930165,"498":0.010482684531304869,"499":-0.03531955310413843,"500":0.2672623817764857,"501":-0.08622018562175024,"502":-0.07365035876255185,"503":0.010087145193883377,"504":-0.0246080249848292,"505":0.03194508787765169,"506":0.0759903955731513,"507":-0.012689160043598052,"508":-0.03516151015775167,"509":-0.0007721716138365438,"510":-0.0697725839514471,"511":0.29029117818680744,"512":-0.07709872692657259,"513":-0.028303086318794555,"514":0.0684597838449896,"515":-0.02394866041217804,"516":0.03213418891903494,"517":-0.08865578438970065,"518":0.03844735574209932,"519":-0.032412962987471504,"520":-0.03326186766352194,"521":-0.08915487386923507,"522":-0.07352247117336529,"523":-0.10177564725710703,"524":-0.020202387086427683,"525":-0.04608854104316247,"526":-0.0416877230947263,"527":-0.0249308107614629,"528":-0.01592159218258168,"529":-0.01390511693854279,"530":0.0184715953680142,"531":-0.034544032891573255,"532":-0.14578807176441685,"533":-0.10825819152699247,"534":-0.1288301865438248,"535":-0.021773742586928067,"536":-0.013889580918669212,"537":-0.0666995882569266,"538":-0.024999152140627125,"539":-0.037992039296687936,"540":-0.013747310946812835,"541":-0.042349903179780136,"542":0.05529031390154038,"543":-0.14532563961215028,"544":-0.07900062132603038,"545":-0.1536794824942315,"546":-0.0067977391324045185,"547":0.020292160640298415,"548":0.023289918273943642,"549":0.02462636672304936,"550":-0.028040737413217595,"551":0.029275697886460436,"552":0.027957308426132758,"553":0.00295704163661389,"554":-0.12895555157886776,"555":-0.043270097265376235,"556":-0.14420159810208003,"557":-0.023212824222451797,"558":0.008582483203491899,"559":0.0028247634993718,"560":0.025408060864643894,"561":-0.04917713048917381,"562":-0.01641635058977104,"563":-0.005560704494864956,"564":0.02624976430874979,"565":-0.12373545971217005,"566":-0.1238999173978657,"567":-0.14374342000998733,"568":0.0016650476743662898,"569":-0.047988068772947715,"570":0.028062110013163017,"571":-0.008053914132316415,"572":-0.010203234803833519,"573":-0.004817152657874427,"574":-0.028022859231436253,"575":-0.0008543060941813687,"576":-0.060653367996032284,"577":-0.07601693427063161,"578":-0.19499287248835112,"579":-0.07510528185417377,"580":-0.026766263879518915,"581":0.04629829603079271,"582":0.00020214903958944258,"583":-0.04550234548214074,"584":-0.012547145200986412,"585":-0.004653092684462498,"586":0.06119127328056122,"587":-0.05013010989797646,"588":-0.006823489742806372,"589":-0.15478726943035992,"590":-0.007660601982685522,"591":-0.021154211169143337,"592":-0.002757951035171038,"593":0.0535968315887989,"594":0.01001227812242627,"595":0.015627070567630474,"596":-0.015094574585167643,"597":-0.003145889308343547,"598":-0.048939082161943696,"599":0.06809334792121126,"600":-0.16056923715611154,"601":0.047788566528874254,"602":-0.00630607377515915,"603":0.03591201328266188,"604":0.008799620063209728,"605":-0.02939647894053233,"606":-0.016064745068712433,"607":-0.008219336447413525,"608":0.04344645528311637,"609":-0.05059750214806659,"610":0.043257825321423506,"611":-0.1362434683242228,"612":-0.04085146654675278,"613":0.03245785581502181,"614":0.06568570317072492,"615":0.05184022692815417,"616":-0.03885488550639836,"617":0.007110861440179054,"618":0.030408896596475526,"619":0.02838951777358397,"620":0.0277540833303733,"621":0.11754237680763568,"622":-0.06485022432585467,"623":0.029148472523760002,"624":-0.011182191611669291,"625":0.07608533383584738,"626":0.06242168141584516,"627":-0.01528468905884755,"628":-0.011503480804824204,"629":-0.008020998651015911,"630":0.042726549149951346,"631":-0.01828388816990082,"632":-0.04961367009977327,"633":-0.044882264971033856,"634":0.043195832889064055,"635":0.0020676370404984937,"636":-0.026926419411337707,"637":0.012584029852429483,"638":-0.004845092412141593,"639":-0.03129184946765903,"640":-0.0032105342871923976,"641":0.060749964594776135,"642":0.054686382928194714,"643":-0.03535238748754083,"644":-0.08236737880827841,"645":-0.03666060766543713,"646":0.037756979219453916,"647":0.07573583064108202,"648":0.03401015481251711,"649":-0.007195921600450109,"650":0.026877609090409333,"651":-0.000423344399680362,"652":0.04274083209290968,"653":0.03967295713211213,"654":-0.02268968929989375,"655":0.038278043860486784,"656":0.037356292437698654,"657":0.045227896137944874,"658":-0.08311763449574498,"659":0.015168427886108709,"660":0.030497802957024235,"661":-0.015448232327583711,"662":-0.022011069031839064,"663":0.008387565812268316,"664":0.03993576844399473,"665":-0.0004605873158375765,"666":-0.056552852844269225,"667":0.041791363553304484,"668":0.004433397024580185,"669":0.008125269282045917,"670":0.01289999415270848,"671":0.053762909030367366,"672":-0.026936631483790358,"673":-0.02840060092059458,"674":0.05522746414615222,"675":0.054470266483062385,"676":-0.034911672873156226,"677":0.023533571574740918,"678":0.11800740492983597,"679":-0.012578570489770268,"680":-0.004645759248969735,"681":-0.008671932053484823,"682":-0.04626971540836616,"683":-0.0032626818792908245,"684":0.02244450266821673,"685":0.1088099030241293,"686":0.11102579855208697,"687":-0.012883553813448821,"688":0.030355813172752304,"689":-0.0035727421154424857,"690":0.019697935963665824,"691":0.011759245819235218,"692":0.015402301429732857,"693":0.03339346323788373,"694":-0.014172679190788169,"695":0.029435288361917254,"696":-0.02955917079311994,"697":0.08287463362399822,"698":0.04498286273605223,"699":0.003995859440252117,"700":-0.06409320472454055,"701":-0.03652559095396312,"702":-0.014250785840227919,"703":0.015788426595058597,"704":-0.025552184389251574,"705":0.06434084049026523,"706":0.0034370735315215604,"707":0.022894349656695234,"708":-0.0020012011659501726,"709":0.11129307608803336,"710":-0.022974914302051414,"711":-0.011884687247122779,"712":-0.0002115242824079867,"713":-0.020459179396855556,"714":-0.061427755817568305,"715":-0.008352617032050695,"716":0.0641920759324262,"717":-0.003632528098491274,"718":0.006791612039936937,"719":0.06541095433563227,"720":0.012957923611383,"721":0.055122459095282794,"722":0.0725706835423491,"723":0.013394193256651435,"724":0.003807996442338485,"725":0.01055751528156377,"726":-0.03707767139055005,"727":-0.017313904507637416,"728":0.023012538204262526,"729":0.07174530186549502,"730":0.019927333577415194,"731":-0.018647119738428974,"732":-0.057357072049544176,"733":0.06331788453131418,"734":-0.026306095527063807,"735":-0.008604529195559426,"736":0.09464971722082036,"737":0.027280498393682462,"738":0.0687655126448176,"739":-0.005542236480891682,"740":0.0447440713878066,"741":0.04389545656179939,"742":0.07340370895202791,"743":-0.012928216664436621,"744":0.025012103736760587,"745":0.02156618372236992,"746":-0.03781600581132889,"747":0.008431556734773436,"748":-0.0049416035997725954,"749":0.04357761735438402,"750":0.04349366445095316,"751":-0.008174078859499249,"752":-0.009617392215649443,"753":0.059038945065085335,"754":0.0613635380847965,"755":0.02685944824292927,"756":0.0834107396958562,"757":0.020922493066447605,"758":0.05380057240719313,"759":0.03373375602088869,"760":-0.002905414661091191,"761":0.06459919178988448,"762":-0.003069221241340211,"763":-0.035237726352896785,"764":-0.068708119971265,"765":-0.061007630656554936,"766":0.07851422228664924,"767":0.032267032132507374,"768":-0.019776074124546333,"769":0.019242362116088426}},{"sx":1,"sy":1,"depth":770,"w":{"0":-0.01523839331532223,"1":-0.09644741188749326,"2":0.003856329678889902,"3":-0.056723254140256835,"4":0.03890751510487684,"5":-0.04024740486918927,"6":0.030256068852555648,"7":-0.029432076017001787,"8":-0.01938047039876328,"9":-0.016511444832355178,"10":-0.02463892732897332,"11":0.024343210645417113,"12":-0.011186133459869943,"13":0.007563655332874925,"14":-0.022583838649882296,"15":-0.004429996838261179,"16":-0.02258723606193739,"17":-0.01647880847591604,"18":-0.046562868398718815,"19":-0.009387725800043155,"20":0.049491130744606746,"21":-0.02007303674412228,"22":-0.0019519562745510008,"23":-0.02664239716053443,"24":-0.04838197609361379,"25":-0.006340210536031149,"26":0.08162849382863974,"27":-0.026455239528587443,"28":0.01788385433995134,"29":-0.014588373482768714,"30":-0.04815499355103201,"31":0.010655803169929402,"32":0.03248183858233509,"33":0.0168574848977489,"34":0.002190334955346807,"35":0.03449412208450124,"36":0.025607814175389,"37":0.020504755365611905,"38":0.011655313870976488,"39":0.012633694105040654,"40":-0.0677053617644444,"41":0.011476255536978723,"42":-0.009306113763977424,"43":-0.053770473553939185,"44":0.001423929475486617,"45":0.07635626415921916,"46":-0.0404249311949656,"47":0.01128489641126596,"48":0.0018271194392668415,"49":-0.07548784484287484,"50":0.009280423690655142,"51":-0.04761955080243172,"52":-0.02261357695445836,"53":-0.020410364634098538,"54":-0.019067489364363605,"55":-0.018175680523662693,"56":-0.013126711938367744,"57":-0.007172334129633134,"58":0.052206706234161515,"59":0.006448532566213423,"60":-0.04544890428395285,"61":-0.023469877727182016,"62":-0.07751143599013677,"63":0.02598030551541689,"64":-0.03813058649722599,"65":-0.034311478995615714,"66":0.036365982413018916,"67":0.03583891504507241,"68":-0.03712665336973336,"69":-0.01066272620225543,"70":-0.10371064800945774,"71":-0.01901187137476847,"72":-0.0895923924980145,"73":0.04468293867954783,"74":-0.0014237612755047696,"75":0.021608736742287003,"76":0.016221257164942365,"77":0.01503733113104893,"78":0.023267403824885874,"79":0.015478942944011493,"80":0.04626289164938788,"81":-0.012764102969150417,"82":0.014240590207395341,"83":-0.010836788198177344,"84":0.004301521582632575,"85":-0.000710131494448252,"86":0.05401028429623914,"87":0.04979233350656098,"88":-0.03475872622365002,"89":-0.06312265061411378,"90":-0.025789207923527513,"91":0.014040811342719959,"92":0.0025112848307558546,"93":-0.03727202509098395,"94":0.001640712048918525,"95":-0.03888584785987452,"96":-0.02673138694482627,"97":0.025664167933027563,"98":-0.04024818788104931,"99":-0.02612080640462313,"100":0.0652879465697501,"101":-0.013736493558222694,"102":0.006587995611260982,"103":0.04085401747792795,"104":-0.03568110245558139,"105":0.03387398003447877,"106":0.02556247921545986,"107":0.05164091917895757,"108":-0.008466524351709597,"109":-0.06755511732904076,"110":-0.02074991903189753,"111":0.011829031692804401,"112":0.004810235980939618,"113":-0.06926252091342507,"114":0.05688904261972431,"115":0.051275751974820455,"116":-0.034441618070429315,"117":0.011604567743777038,"118":0.016027093445072544,"119":0.030965946461465454,"120":-0.009553993707452635,"121":0.04063226493934145,"122":0.038978152655180925,"123":-0.029099227966871838,"124":0.029683292028425925,"125":0.03882752979516076,"126":-0.03143460700009588,"127":0.002355340601635853,"128":-0.04611591829949412,"129":0.001649731809206879,"130":0.01986284726365667,"131":0.004184470043085111,"132":0.033486744995422944,"133":0.023207672322585124,"134":-0.022290481879286624,"135":-0.0038791878230704656,"136":0.04060777131169245,"137":0.016112769791036662,"138":-0.025058475343614203,"139":-0.025015363422172913,"140":-0.06461739079929478,"141":-0.028621220775846085,"142":-0.07372971610308433,"143":-0.027182603770323964,"144":-0.0262408807177827,"145":0.01640148614702485,"146":0.001028694722916193,"147":0.00518512133358816,"148":0.013832738914856682,"149":0.0244993261354475,"150":0.023778252155320447,"151":0.0021590154002360767,"152":0.010191339913971005,"153":0.03749068006259778,"154":-0.019922174628768517,"155":0.09866913160808546,"156":-0.004338480045417407,"157":-0.04933187980012334,"158":0.008574528630276173,"159":-0.04559889345387427,"160":-0.04089876986215986,"161":-0.03293867225095094,"162":0.01239362430715043,"163":0.019372424037655368,"164":0.046583559116769375,"165":0.037848964769101864,"166":-0.021019113305666488,"167":0.02130216980938548,"168":-0.03460359502956071,"169":0.024188993703305725,"170":0.002507166444889961,"171":0.007526414258478244,"172":0.018397049779149254,"173":-0.013207536128517834,"174":-0.06512015214792545,"175":0.023554450992638882,"176":-0.030912899439038816,"177":0.007599939117994129,"178":0.058446669120774064,"179":-0.031191511033400995,"180":0.010690153965727455,"181":0.007472749443213594,"182":0.00030258290692115316,"183":0.07689861213465668,"184":0.0041274196615201115,"185":-0.026495114457905776,"186":0.000724030860735235,"187":0.010420436546112759,"188":0.01030129915073752,"189":0.054030408302416226,"190":0.060174242848646996,"191":-0.024063665475388542,"192":-0.00435342323993621,"193":-0.02858290116522552,"194":-0.033426569135586635,"195":-0.031197228175851226,"196":-0.02661681506869007,"197":-0.005226864528963688,"198":-0.015053110779105244,"199":-0.023224877640937246,"200":-0.07953132412065522,"201":-0.0002731036545396445,"202":-0.029263120241581984,"203":0.00466895127387413,"204":0.054202925382345495,"205":0.002726254887164583,"206":-0.01685700204458488,"207":0.02274163174835264,"208":0.035647857349499726,"209":-0.019186766497517844,"210":0.01576954082303589,"211":-0.023120860691176914,"212":0.11109692811461974,"213":0.01152199820361258,"214":-0.043996264405202025,"215":-0.011366312190281426,"216":-0.029299905194834646,"217":0.02558962267940403,"218":0.03619578816354785,"219":0.07580434434533881,"220":0.05166351982485048,"221":0.02115761457060687,"222":-0.03288798930833659,"223":0.031300964559728556,"224":0.04186236244041203,"225":-0.02585867239343526,"226":0.024398540962060362,"227":0.010361987728617872,"228":-0.03162046177490581,"229":-0.0053585456870140725,"230":0.036527579409708646,"231":-0.0077316221473776835,"232":-0.013968624679649171,"233":-0.007768759135476026,"234":-0.008896213181511896,"235":0.001959021955500187,"236":-0.0657596785010316,"237":0.004805946567048582,"238":0.007135450211706769,"239":-0.009598718815762654,"240":0.03454592047532155,"241":0.000135753638218924,"242":-0.008291435357344874,"243":-0.040010208794868204,"244":-0.024439726167329343,"245":-0.003883851730064082,"246":0.028530154440962758,"247":-0.009632437756112453,"248":0.011187222861170997,"249":0.05104875384116385,"250":-0.022494320645483283,"251":-0.0013157687211781373,"252":-0.004310301607440037,"253":-0.006187823451804924,"254":-0.041661698399408045,"255":-0.000570070278333041,"256":0.012687384991178828,"257":0.049059681302973064,"258":-0.033127539313379945,"259":-0.02062707901281894,"260":-0.012504345998390672,"261":-0.023317718061608227,"262":-0.07737229452356668,"263":0.04556360276325996,"264":-0.05767374449428639,"265":-0.05725556864526338,"266":-0.04619030743450226,"267":-0.03252994927280742,"268":-0.04978061137801166,"269":0.04780373126582347,"270":-0.0459748868173261,"271":0.051335080454583175,"272":0.00584743196532452,"273":-0.010986599212606142,"274":0.0628208050657213,"275":-0.0889873457662606,"276":-0.04079237141859631,"277":0.003478770297151933,"278":0.022175818072667327,"279":-0.03281658284677414,"280":-0.03047126112771773,"281":0.014957729543690616,"282":0.021616026286878892,"283":-0.0201941180719189,"284":-0.008579956577346276,"285":-0.004332025558224028,"286":-0.01716968312881102,"287":0.033981047716516985,"288":0.016636076567981658,"289":0.02861492968378484,"290":-0.028190036339895426,"291":0.03010883599566507,"292":0.002304916440607484,"293":-0.03260843406932206,"294":-0.0019968730786409537,"295":-0.003892037366285895,"296":0.01854434598816917,"297":-0.02433434295867737,"298":-0.049868243540390336,"299":-0.010106761841919637,"300":0.009115993740337171,"301":0.026132371553861722,"302":0.0008789920855805136,"303":0.05782978279609485,"304":-0.04848950296055579,"305":-0.015305023765677401,"306":0.010603357683518784,"307":-0.014595424965685291,"308":0.022531850078955258,"309":0.02154608833062869,"310":-0.05403672800509006,"311":-0.024095779379180882,"312":-0.10566855206100313,"313":0.011648019128246052,"314":0.047060677413381435,"315":0.008377933253107423,"316":-0.00126268751966744,"317":0.015818376209972587,"318":0.023318263824516763,"319":-0.04255498031817879,"320":0.05291906140630414,"321":-0.03862691275407956,"322":0.0005254532518088564,"323":-0.043014180866071346,"324":0.09163142529941205,"325":-0.0004678647508127017,"326":-0.022311716823058426,"327":-0.02367931730072113,"328":0.040851253581769977,"329":-0.01884807785858654,"330":-0.011327046334789885,"331":-0.022486912019704076,"332":-0.040794986702908445,"333":-0.025960342900204797,"334":0.03843865626293503,"335":0.004376180092398648,"336":0.013135465406788978,"337":0.022474010478606338,"338":0.02492160903122713,"339":0.017559927156083278,"340":-0.07367798554961819,"341":-0.02120199516365058,"342":0.017071816614061073,"343":0.027325649980382807,"344":-0.010604115597699377,"345":-0.01689495311443265,"346":0.026744667987778158,"347":0.008490141851913767,"348":0.059917461060235565,"349":0.03726784052333155,"350":-0.0051654052680763715,"351":0.0018217541970388055,"352":-0.033208587261050276,"353":-0.0074509386450627175,"354":0.026572079897255088,"355":0.030308764021585142,"356":0.012070806913326324,"357":-0.05162573520386484,"358":0.030226801539514677,"359":-0.0019254112548262774,"360":0.013581234220850683,"361":-0.014854810178046914,"362":-0.028131421404484346,"363":0.03886832120555534,"364":0.021794277171576833,"365":0.016517536507309617,"366":0.001989564868480599,"367":-0.05316321052830942,"368":-0.001081190194879219,"369":0.014651950154674086,"370":0.010662381302772283,"371":-0.0276879575062167,"372":0.008705814749121507,"373":0.013008288951493497,"374":-0.029189758514347866,"375":-0.015129773408935501,"376":0.03605141425512708,"377":-0.019881964645057936,"378":0.03492136507745005,"379":-0.016608770677006765,"380":-0.036725973998748496,"381":0.054408268237497844,"382":0.001408002383105234,"383":0.04866140135583064,"384":0.0036251237201524013,"385":0.020440565281689808,"386":0.022280633963803552,"387":-0.001116572318341492,"388":0.022058190413806304,"389":-0.05135957679296793,"390":-0.01520146537764857,"391":-0.08486262203428517,"392":0.008620829922859475,"393":-0.024358436756253748,"394":-0.015809593972600285,"395":0.01610455646452132,"396":-0.015850367349406265,"397":-0.02728141417018742,"398":-0.0620862556961291,"399":-0.08293130770094997,"400":0.05647763647216653,"401":-0.029739385647148137,"402":-0.0014373015590977635,"403":-0.010960555705402813,"404":-0.043542682133204565,"405":-0.000682048863214419,"406":-0.01773659343087393,"407":-0.042619837127759054,"408":0.024431297733833183,"409":-0.006668432153768152,"410":0.022706342169030645,"411":0.0024333973681099595,"412":0.011220875008503377,"413":0.04532439724029242,"414":-0.011998619853748067,"415":0.023711700422045238,"416":0.09097781972845272,"417":0.03764225218690836,"418":0.0987990811988273,"419":-0.06346149562577526,"420":-0.01431510993897931,"421":-0.016338221376769234,"422":0.023212736518866826,"423":-0.04764511002562207,"424":-0.050767378258740316,"425":-0.0326048824928526,"426":0.005172298582878002,"427":0.03753515073661543,"428":-0.0012345540158029084,"429":-0.00316948763959408,"430":0.006140119222562349,"431":0.014388696127710546,"432":-0.0026757273091255473,"433":-0.002928600936829815,"434":-0.012424162996857117,"435":0.045205614429694285,"436":-0.06447209575114414,"437":0.009621254078907694,"438":0.004643171198459033,"439":0.04876657526972904,"440":0.0497998000253538,"441":-0.0324471138740022,"442":-0.0700157536206142,"443":-0.03078820833118294,"444":0.008944635503460285,"445":-0.06384150167916995,"446":0.01968001365128898,"447":0.04673474272228582,"448":-0.030455169704392774,"449":0.010822513476476864,"450":-0.0005938730353120596,"451":0.022312392422926684,"452":-0.027020581065876223,"453":-0.03885992751164036,"454":0.054140683720229815,"455":-0.04367254513347932,"456":0.039031026944122395,"457":0.011727280375320462,"458":0.006442137503005311,"459":-0.03979252775213367,"460":0.018965068829546666,"461":0.006638068251534916,"462":-0.01349294258801762,"463":-0.005593662526542897,"464":0.009875542450360862,"465":-0.031441676443519764,"466":-0.013739855126658632,"467":-0.047474609396992884,"468":-0.038767860583323044,"469":-0.002985139919675284,"470":-0.004792679087370776,"471":0.010942579966653182,"472":0.046640650626080984,"473":0.012209948708031099,"474":0.002493767195193718,"475":0.004418446464572001,"476":-0.04325406460612312,"477":0.04862251438808356,"478":0.01152083529655525,"479":-0.001971201613547896,"480":-0.04389676496698374,"481":-0.0694368629258217,"482":0.04486978323777603,"483":0.036744359711145036,"484":-0.002948401826503807,"485":-0.023542815713628706,"486":-0.016704395717865167,"487":0.012746188524020662,"488":0.026188218624167727,"489":0.030835051818262165,"490":0.005230186755893934,"491":-0.034766228422064394,"492":-0.03181213643250369,"493":-0.021221336698846974,"494":-0.04037543975330256,"495":0.021471263959489815,"496":-0.058173041497208804,"497":-0.037849893827361994,"498":0.05878408965895731,"499":-0.007925656144168071,"500":-0.011243200583105345,"501":-0.029593150804209302,"502":0.014313825860718997,"503":-0.02749117627907941,"504":-0.00463453313132971,"505":-0.022911762921763203,"506":-0.02392954442638511,"507":-0.01492584529206961,"508":-0.03371288640118893,"509":-0.03651796558845188,"510":0.023199707892469078,"511":-0.06725727497730441,"512":0.03378235382623579,"513":-0.016482300845120295,"514":-0.02485973910794371,"515":-0.01242470617065414,"516":-0.0172800549521126,"517":0.03156904400907569,"518":0.01628943604690559,"519":0.026366242179207043,"520":-0.0196006960446969,"521":-0.023332551286814746,"522":0.034997879935520046,"523":0.04853228800312978,"524":-0.014700091838037794,"525":0.09114199624795265,"526":-0.018830857773142574,"527":0.03519862685241883,"528":0.007845549745413103,"529":0.0016540036401153908,"530":0.001260439343468129,"531":0.046984896598972384,"532":0.0015962432228424732,"533":-0.02273442158304431,"534":-0.010725252514828216,"535":-0.0005536768765816832,"536":-0.0249820944706286,"537":0.034203411526079655,"538":0.03242203863391995,"539":0.005110097401740211,"540":-0.05193230798788255,"541":-0.02477078912171809,"542":-0.023064584007174444,"543":0.005446983011797474,"544":0.015584983413304073,"545":0.019499883003994082,"546":-0.009929490443142022,"547":0.009142538817028624,"548":-0.03079262397739718,"549":-0.015822714602237463,"550":-0.027687486360238364,"551":-0.030654826373919617,"552":0.010887781386595305,"553":0.09853693235479943,"554":-0.027686030226103612,"555":-0.04355767196653065,"556":-0.01922114609286193,"557":-0.0003477827806560541,"558":0.009530263787434516,"559":-0.0419187254807259,"560":0.03807702823760562,"561":0.04015709862272921,"562":0.025089371863568855,"563":-0.015182823421645888,"564":-0.017539669613875958,"565":0.013390228907306123,"566":-0.020502753667262598,"567":0.0029519867249902004,"568":0.04664350260560262,"569":0.04797464639001513,"570":-0.0049048359394427785,"571":0.036110272686988694,"572":-0.014040133780411714,"573":0.0020038425359778012,"574":-0.00983045475222256,"575":-0.02849944002060665,"576":-0.02109846380903483,"577":0.03890382919919182,"578":0.0331632501942745,"579":0.05212987160335249,"580":0.0016096072591337128,"581":-0.027789403859659,"582":0.05801538494000556,"583":0.004073085574681843,"584":-0.07114331601182892,"585":-0.026408393538696624,"586":-0.03250193258973148,"587":-0.006017602728669648,"588":-0.029303987807640243,"589":0.0327739331654812,"590":0.023078222768836976,"591":0.012565134018813423,"592":-0.016547470857946216,"593":-0.010154565898302865,"594":0.022289012364123537,"595":-0.030154674084068023,"596":0.031589123123582065,"597":0.0364678407224961,"598":-0.05755817220708429,"599":-0.02997425310684936,"600":-0.026886558644917766,"601":0.010175593840195727,"602":0.016386291046163258,"603":-0.026994995382708886,"604":-0.023167329224160413,"605":-0.0025563848513102997,"606":0.05255120993495065,"607":-0.02753396120800083,"608":0.025953368262285132,"609":-0.004570684005131783,"610":-0.039228248905419934,"611":0.008502645420375625,"612":-0.06399923332034477,"613":0.011950902998418288,"614":0.011980572184171877,"615":0.015612289697007325,"616":0.015931281420078842,"617":0.016908341010464196,"618":-0.01779436892293251,"619":-0.010661066829949757,"620":-0.008526243859299672,"621":0.06516821107286835,"622":-0.023613399522052044,"623":-0.09978547905187557,"624":0.019351777952249388,"625":0.01355112360384025,"626":-0.004026249781108297,"627":-0.03820706354019421,"628":-0.008722974872346767,"629":0.03238688411153314,"630":-0.009339047143030082,"631":0.008504389068759406,"632":-0.006487861777384737,"633":0.00029775328080087414,"634":0.041209833042369665,"635":-0.01306066477357861,"636":-0.013283464007927496,"637":0.02052382583369253,"638":-0.01749470762583044,"639":0.04949177702574167,"640":-0.08449645416221226,"641":0.00618071719187284,"642":-0.03288150361634518,"643":0.0818002553492486,"644":0.011372827659950124,"645":-0.008689315970632886,"646":0.018123608323802384,"647":-0.041899283259368675,"648":0.005475892630422462,"649":0.02975622879206638,"650":0.015539759531426781,"651":-0.002821854523940633,"652":0.005824795140148948,"653":-0.037145728159951104,"654":-0.04297865080751007,"655":-0.03500333507657017,"656":-0.04006711789047616,"657":0.018549531873247833,"658":-0.041957102354607985,"659":0.02088672089867854,"660":-0.046543176599116,"661":-0.001530026329506056,"662":-0.00935889481929932,"663":-0.03941861787123854,"664":0.01251966051386557,"665":-0.011902605658568098,"666":0.031627949848131595,"667":-0.008140961104691992,"668":0.04142416588859437,"669":0.03735105985407749,"670":-0.02624044337067248,"671":-0.013678045878076665,"672":0.04478046498150727,"673":-0.008091685295733599,"674":-0.036904676260513844,"675":0.005348848387121933,"676":0.025910716754219163,"677":-0.01429115724523815,"678":0.021129234780119147,"679":0.017754849073980453,"680":-0.00526051765286986,"681":-0.037826468309050294,"682":-0.05174455116572373,"683":0.03947571503761743,"684":-0.006428688334444597,"685":-0.020627639805477972,"686":-0.029283590125317373,"687":-0.03597006176693368,"688":0.012890723779466033,"689":0.042931969769561366,"690":-0.023223171724513436,"691":0.04819914875278393,"692":0.055274989107666005,"693":0.002174738898839139,"694":-0.06299670342010973,"695":-0.016601327385725565,"696":-0.02188408629923334,"697":0.059120300509316874,"698":0.04613610497610995,"699":-0.0053196084589797795,"700":0.06415243654127173,"701":-0.03113806582444345,"702":-0.04234808912050023,"703":0.043792477201485554,"704":-0.01868627225984993,"705":0.03954383679099331,"706":0.032036138934269646,"707":0.015683055381629573,"708":0.0720815436516512,"709":-0.012532640336415966,"710":0.016896391433695954,"711":0.043485732242122994,"712":-0.01379409030264864,"713":-0.027925954259810974,"714":-0.030655489732968774,"715":0.014174827022814697,"716":-0.02824602041368429,"717":-0.09413273613974765,"718":-0.024364334060785718,"719":-0.011009261769624946,"720":0.023198069972783605,"721":-0.005907118145732079,"722":0.052284478891570174,"723":0.010552838803679633,"724":0.016230089518477778,"725":-0.08039803376558603,"726":0.011576607996038282,"727":-0.07087347668387037,"728":-0.05252200262082675,"729":0.006209516341874014,"730":0.04799811665960712,"731":0.012517193367410416,"732":0.016197543910030452,"733":-0.03581394473908175,"734":-0.004492570574958667,"735":0.03910446497523026,"736":0.011809771734122853,"737":0.07081512536594668,"738":-0.03752043318769691,"739":-0.021380053712952724,"740":0.0067291457951488215,"741":0.012055854437458949,"742":-0.04477100610989541,"743":-0.007688190414116748,"744":0.0261342496377158,"745":0.004988401944631923,"746":-0.05375450154121649,"747":0.07032964031033626,"748":0.014843140040393549,"749":0.020628596628875506,"750":-0.02380907578111096,"751":0.01507861091266589,"752":-0.02611600272863205,"753":0.027474145246907916,"754":0.03057296063091938,"755":-0.044160756758227275,"756":0.026393044352802292,"757":0.0070332880421998855,"758":0.056368356730468604,"759":-0.04355660188165969,"760":0.0019855006118576946,"761":-0.04359173670410038,"762":0.001975287210247032,"763":0.027024656993568406,"764":0.03745574449072694,"765":-0.026248835965005903,"766":0.01178775590716915,"767":-0.01849261664753108,"768":0.030930054070201673,"769":-0.0061899384656599575}},{"sx":1,"sy":1,"depth":770,"w":{"0":-0.010807020508799364,"1":0.004410567243324745,"2":-0.015952684187127454,"3":0.053571247621930405,"4":0.005291602840840122,"5":0.06843269609251744,"6":0.03963761200649394,"7":-0.025033082329303905,"8":0.004790160152687826,"9":0.02699870901833885,"10":-0.02938902282274231,"11":-0.02026950842304404,"12":0.048704108088127675,"13":-0.07022911898195734,"14":0.023893538534751266,"15":0.0259371429050343,"16":0.01888994261298594,"17":0.0069857409727637895,"18":-0.027668349823892692,"19":-0.0003267534875783913,"20":-0.022372927109023655,"21":0.03534800575027544,"22":0.024100343676716353,"23":-0.04125170698080653,"24":-0.007277574224983648,"25":-0.0016220599894305157,"26":-0.03932671032549049,"27":0.06293040362489033,"28":0.02108068335011083,"29":0.016509822699323124,"30":-0.08688020433193294,"31":0.0031368917903060577,"32":-0.03606890283137069,"33":0.02257076279570737,"34":-0.020849935631528184,"35":0.017618621965647646,"36":0.03241870170534184,"37":0.021993135791293136,"38":0.002811579525614978,"39":-0.005317506174808822,"40":0.00291056366713488,"41":0.07367502335184227,"42":0.05081222836469759,"43":-0.0024626566533683027,"44":-0.004658501036966523,"45":-0.03164378734144068,"46":0.003534366400817307,"47":-0.0005465847907288163,"48":-0.009734633509333911,"49":0.018253678764250953,"50":0.07909863205475376,"51":0.031826418851050205,"52":0.03443301753972066,"53":0.04314454111931607,"54":0.0027223110839521654,"55":-0.005400534137530457,"56":0.05806115825744763,"57":-0.020108256985691002,"58":0.041394991791385595,"59":-0.03544057849922468,"60":0.04024136627066282,"61":0.03413438468724018,"62":0.0459880114643182,"63":-0.02248575164508807,"64":0.019305388960124893,"65":0.030974203098340834,"66":-0.017509506080728467,"67":-0.033059817960685044,"68":-0.033612028565965006,"69":0.07809186867062734,"70":-0.03781631320802148,"71":0.029965110316200912,"72":0.04691211649992144,"73":0.04122512847184834,"74":-0.005964944749854314,"75":-0.03569401720276366,"76":0.016572180111495725,"77":-0.0371328996086234,"78":0.0321868478648466,"79":-0.08320052509938104,"80":-0.02866143511656905,"81":-0.06545474668683778,"82":-0.03200729179120945,"83":0.0500746917253093,"84":-0.0299419879595618,"85":0.03925063599789369,"86":0.030372366329483688,"87":-0.007044517794818723,"88":0.010187426970617596,"89":0.02183651304302238,"90":-0.03764038252509611,"91":-0.08027438551522538,"92":-0.058636945771978616,"93":-0.00069931812265673,"94":-0.00048585332030915156,"95":-0.03408581400130611,"96":-0.00790934146426536,"97":-0.0014237894701535142,"98":0.0507620973810272,"99":0.02226211426850387,"100":-0.04048998330294299,"101":-0.05307291021048021,"102":0.021147389254814342,"103":-0.04692340943794186,"104":-0.008334975099334082,"105":-0.015492758945511232,"106":-0.021294641930819185,"107":-0.039273766807688744,"108":-0.012370979990623114,"109":0.013161309759006548,"110":-0.05861366727223091,"111":0.0063626151332150304,"112":-0.029527385842979037,"113":-0.005335213571866013,"114":-0.059071923193911,"115":-0.04852819454234497,"116":0.02890293634860962,"117":-0.03985183120207082,"118":0.03769422170322271,"119":0.0422361231082617,"120":0.04606282861996455,"121":0.0010665521436235346,"122":0.03618613176757341,"123":-0.062017521294952666,"124":-0.03221093799822043,"125":-0.014530367764685963,"126":-0.01699991375827537,"127":0.007003888209627371,"128":0.053006034784566836,"129":-0.05125879149301326,"130":-0.007765180984397801,"131":-0.029382443394356944,"132":0.0067113464193540836,"133":0.03181720858216867,"134":-0.08673604481306312,"135":0.0010028518527558073,"136":0.02250411035186422,"137":0.08090419318269396,"138":0.00563749512967547,"139":0.06533656391578947,"140":-0.007691415254011037,"141":-0.002143415598958859,"142":0.030186179122310308,"143":0.0015816071845728063,"144":-0.034590449628313286,"145":-0.03169966044788319,"146":-0.016158894078366508,"147":-0.06468487431591337,"148":0.016274026517602427,"149":-0.021098729020415277,"150":0.05995438358286417,"151":0.010505956964920564,"152":-0.008483564484401108,"153":0.004222233211301188,"154":0.006863216087109714,"155":0.02438884818623309,"156":0.03380368523120483,"157":-0.021416830559113136,"158":-0.0009251579659921474,"159":0.07524418564141974,"160":-0.0151335792302682,"161":0.027842828169896163,"162":-0.044200536740220564,"163":0.07210332087227843,"164":0.024263867005280892,"165":0.020030476022852253,"166":0.03564749221281199,"167":-0.08279922135342031,"168":-0.02165327906958717,"169":-0.013706487515540947,"170":-0.04734982260548782,"171":0.014914425886713161,"172":0.018176801180993275,"173":0.07758983566037642,"174":-0.00895228038498322,"175":0.016743238472966125,"176":0.0273744538967218,"177":-0.04149708165978905,"178":0.015398899148032701,"179":0.04044507575247579,"180":0.06468231307310185,"181":0.00522650524370387,"182":-0.014064429137562926,"183":0.0692153156439204,"184":-0.027737394749065256,"185":0.034151830758855306,"186":0.014744382959364115,"187":0.02513323762929088,"188":-0.0020471953084528964,"189":0.021765984393639186,"190":0.0012721749220232774,"191":-0.03227447750910552,"192":-0.04132024610843627,"193":-0.08358516954366282,"194":0.04406374668999859,"195":-0.05569710650644797,"196":0.06251368725941821,"197":0.022240648374600807,"198":-0.012856469533445406,"199":-0.030613765630945432,"200":0.026444497671471934,"201":0.014147630466232233,"202":0.009123887982776193,"203":0.02145736496788572,"204":-0.03842401771437625,"205":0.09209507444306352,"206":-0.11415477442735995,"207":0.05057775632783277,"208":0.032039488686209344,"209":-0.0004393383390756453,"210":-0.056129377364464675,"211":-0.026276237895049903,"212":-0.07212636216697077,"213":0.011531762281368109,"214":0.051894144791903594,"215":-0.012983242693255207,"216":0.04250975746999976,"217":0.04927431771569589,"218":-0.008241076642746384,"219":0.03745568924385321,"220":-0.015503221071102165,"221":0.02682394612018377,"222":0.004018670933228329,"223":-0.025238666302025304,"224":-0.05011369645337948,"225":0.0008307109026708966,"226":-0.034568714117720625,"227":0.052950111312824885,"228":0.031747165056595264,"229":0.02845142350571385,"230":-0.00552627680262247,"231":0.002374712891044446,"232":-0.04384503574170325,"233":-0.038373030554811303,"234":-0.055701544928471264,"235":-0.03027108851158392,"236":0.003152602736723585,"237":-0.013249875121263813,"238":0.06340798791654173,"239":-0.00023950141701071427,"240":0.03433926216721787,"241":0.04164636198752855,"242":0.010187476815880378,"243":-0.03988299523634402,"244":-0.013864331124342395,"245":-0.000725658494023459,"246":-0.05244297379598917,"247":-0.008736554581615107,"248":-0.008537793814607656,"249":0.024189386793822727,"250":0.034885819382835456,"251":0.02080279967153215,"252":0.00783493342882915,"253":-0.02572564266600059,"254":-0.027494417526701075,"255":-0.03803340126385334,"256":-0.025633005332147244,"257":0.0023184949127586017,"258":-0.049081869030520045,"259":-0.010517427868543086,"260":-0.03221236453210432,"261":0.0055038970728512795,"262":0.04821113925460977,"263":-0.037428455661756316,"264":-0.02684416603129189,"265":-0.04149728522622251,"266":-0.02002917827582059,"267":0.01017102862195962,"268":-0.06882082148496353,"269":-0.10871003492870959,"270":-0.05642036621199087,"271":0.03298409841474625,"272":0.04539454864713678,"273":0.04320412580105534,"274":0.01115623918867705,"275":0.011085079874665997,"276":-0.02616534647217786,"277":0.02941739545910339,"278":-0.008165771418341442,"279":-0.05333635599945756,"280":-0.06902888517576249,"281":-0.03999911678105481,"282":-0.004384579278494628,"283":0.04532471428787385,"284":0.052565626533119005,"285":0.020665472864990906,"286":0.015116419172222423,"287":-0.009786745518799496,"288":0.04877791166797752,"289":0.029769273740431118,"290":-0.025380135541188807,"291":-0.061013365210807476,"292":-0.04482132879135947,"293":-0.0068649552394805914,"294":-0.016197502241268945,"295":0.09770847897584715,"296":-0.11500952001661341,"297":-0.06381753334138078,"298":0.021803095170090454,"299":0.02597013943195683,"300":-0.06246394351872914,"301":-0.09172932664622396,"302":-0.06992046461566583,"303":-0.03057335051250191,"304":-0.019216852481923872,"305":0.08207506441553745,"306":0.09260437329109278,"307":-0.06298839296287734,"308":0.03552595969551946,"309":-0.012228008702056467,"310":-0.057898464187086496,"311":0.035482661002749244,"312":-0.056418628499308815,"313":-0.050138505975111616,"314":0.0006487087017732735,"315":-0.0011513191803381687,"316":0.017284859762318108,"317":0.026665286405946027,"318":0.012041805485024825,"319":-0.04368102951467454,"320":0.01725286929127472,"321":0.04168214916437627,"322":0.00529439392300473,"323":-0.007651623067430238,"324":-0.02886129675641761,"325":-0.00394472841017347,"326":-0.0003877075951677855,"327":-0.014925943041440907,"328":0.03761183460642071,"329":-0.026416847708944213,"330":-0.020594434048451564,"331":-0.01776307096682433,"332":0.020913943955326718,"333":-0.009756649111412755,"334":0.013513119161964255,"335":0.016002594222627755,"336":-0.018951156337830018,"337":0.09861937218793272,"338":0.0033978776730784724,"339":0.0695592259656949,"340":0.004151715238134784,"341":-0.010536588223212396,"342":0.0065919251437324125,"343":0.0339342869571058,"344":-0.10658340530052976,"345":-0.03366250271678291,"346":-0.05235301431757264,"347":-0.015567370177456095,"348":-0.01629710853703634,"349":-0.03960572157676815,"350":0.08921675073835289,"351":0.09199408435360175,"352":-0.021129108295536422,"353":0.06708415869039558,"354":0.0501659373400722,"355":0.029108392243694263,"356":-0.059835226789696695,"357":0.029518422544233723,"358":-0.12479967260864655,"359":-0.007283624832059202,"360":-0.039031254480839335,"361":0.12655927273921816,"362":-0.02279912927808374,"363":0.0002753029052071763,"364":-0.05220283296190939,"365":-0.09981634913838104,"366":0.029780466072881845,"367":-0.1091043770374431,"368":-0.03598094037083995,"369":-0.007049814313211128,"370":0.009867761934461173,"371":0.0024429478501631686,"372":0.034504414440275556,"373":0.0031844366927762683,"374":-0.06400408366746484,"375":0.0265187953245816,"376":-0.01733558570522349,"377":0.022174871937160993,"378":-0.049245269879550045,"379":-0.030372339198258158,"380":0.029525422745989884,"381":0.021074561149471125,"382":0.03938015614118644,"383":-0.011428113112904748,"384":0.023403865741125754,"385":-0.06690990196408335,"386":0.1026396998346401,"387":-0.04061467177049268,"388":-0.01255781009933143,"389":-0.04322178206702338,"390":-0.09945237056033157,"391":0.015503154143200104,"392":-0.004953484103764409,"393":-0.019063682695950008,"394":0.011790898080891348,"395":-0.028797725442678127,"396":0.025848407289181714,"397":0.03416569754663521,"398":0.03428934911873373,"399":-0.07068902251998982,"400":-0.02590522967679722,"401":0.028550253241187176,"402":-0.0020518057014238342,"403":-0.03609019158156706,"404":0.044422695937379776,"405":0.06793014397278714,"406":-0.04803053918466104,"407":-0.003944481682464307,"408":-0.02839792399450077,"409":-0.006958639676651683,"410":-0.02179928660817759,"411":-0.09650534750159899,"412":-0.02106815466478378,"413":0.008896460128848899,"414":0.028188873282350774,"415":-0.023173645964078962,"416":-0.01606096260476559,"417":0.02074013577183007,"418":0.01239375332223828,"419":0.033045191081423,"420":-0.021677410442849234,"421":-0.02489982410943661,"422":-0.05620688766369074,"423":0.08540204871015879,"424":-0.0043703656457109745,"425":0.031811609894821645,"426":-0.030779213986054793,"427":-0.023366565594979117,"428":-0.022665318951836814,"429":-0.06314053050703824,"430":0.062128793058869494,"431":-0.0040461905128067145,"432":-0.020377160307582638,"433":-0.057089190661814976,"434":0.10964162051705328,"435":-0.014867885518855721,"436":0.01182038896286563,"437":0.043703838051999074,"438":0.03820288295470019,"439":-0.00048313586924465904,"440":-0.006809638894340612,"441":-0.00790722501557799,"442":0.015821020827834428,"443":0.04621689594229593,"444":-0.06595719646967109,"445":0.09012176176554294,"446":0.04418814223780955,"447":0.03366516282595501,"448":0.03566995740199418,"449":0.00967487311654483,"450":0.03592813002861612,"451":-0.018355882802901784,"452":0.024129123199292123,"453":-0.013561988294327216,"454":-0.0514739307038071,"455":-0.004982446591695567,"456":0.12747018220805348,"457":-0.04160553290634547,"458":0.04574193963055989,"459":-0.0022920089670930253,"460":-0.0025792256186530312,"461":0.06319311156280477,"462":-0.00403537952138508,"463":-0.03456659844607848,"464":0.008777490191482044,"465":-0.004753772999669861,"466":-0.01800371164500551,"467":0.012369341966709527,"468":-0.029047794812932792,"469":-0.046403149142423744,"470":-0.05720941214604345,"471":-0.0011848855788025223,"472":0.01313362468336457,"473":-0.04350100528720275,"474":-0.047250725523664466,"475":-0.024008933262525047,"476":-0.023309928668402674,"477":0.05682703476979398,"478":-0.024638426823945566,"479":-0.08800556786484087,"480":-0.020658316031576363,"481":-0.028247622911339202,"482":-0.014012719220121223,"483":0.018966245121878725,"484":-0.05295096685451502,"485":0.013374992101515866,"486":-0.01915099865537218,"487":-0.0643236556335076,"488":0.022541570419799938,"489":-0.0665701109519151,"490":-0.12938359731981006,"491":-0.07928156156506488,"492":-0.10824989401754016,"493":-0.017503875740302526,"494":0.06605398258991484,"495":0.030163029270153265,"496":0.010199022944456636,"497":-0.03236504767708874,"498":-0.06144075996703008,"499":-0.0444684998672278,"500":-0.09603601561969446,"501":-0.09005624479546302,"502":-0.07924249061101242,"503":0.07442227808597646,"504":0.04915316315551369,"505":0.018438963962303215,"506":-0.02298477751635093,"507":0.034461335489458095,"508":-0.07521439862392856,"509":-0.003072206177265081,"510":0.07496062571743896,"511":-0.08617750680548061,"512":-0.09495974522645859,"513":-0.005468399157506087,"514":0.06625528787191547,"515":0.04442275054455181,"516":0.040269706992777425,"517":-0.010371008061531954,"518":0.015966517736427637,"519":-0.01233693794224195,"520":0.0692680870483873,"521":0.07624655839664962,"522":0.01704122874471356,"523":-0.03983213666399999,"524":-0.1472413136369989,"525":0.022441813444699837,"526":0.05008648805988085,"527":0.020680691055507055,"528":-0.012951307560913054,"529":-0.08332763663301106,"530":-0.011496828191271935,"531":0.05138921833132793,"532":-0.0012688659344677912,"533":0.01069578107285085,"534":-0.1084749446114211,"535":-0.049351367824773236,"536":-0.013950403050946244,"537":-0.029540939677655857,"538":0.007858123325514804,"539":-0.0033637147637295708,"540":-0.01977324421351028,"541":0.0253256754558029,"542":-0.013794194613398756,"543":0.06968233057467015,"544":0.03089211327514185,"545":-0.13819327838864331,"546":-0.06832568991722911,"547":0.0875790612356353,"548":0.04597622900527477,"549":0.007103795128668665,"550":-0.01358204436593614,"551":0.04852659486272998,"552":-0.06276900932535955,"553":0.03070122887317879,"554":-0.04138421804629315,"555":0.016444902651165133,"556":-0.1384865984571051,"557":-0.016640231331780886,"558":-0.014844033284399462,"559":-0.046876416167838296,"560":0.03542442997206709,"561":0.011783819494311844,"562":-0.08530203715708631,"563":-0.02998718197319821,"564":0.08136500513675729,"565":-0.06025578849681657,"566":-0.002967983149193288,"567":-0.041572663432810145,"568":0.04534589581283978,"569":-0.017190022084479003,"570":-0.022801574249933974,"571":-0.045595416666040514,"572":-0.04545498677286649,"573":0.09465516741409022,"574":0.013167252894542361,"575":0.02785543192330681,"576":-0.10094781892756824,"577":0.01842759866966736,"578":0.020522031316649054,"579":0.0011646595732963652,"580":0.02686767660473186,"581":-0.009302166547583453,"582":0.008894278715934996,"583":-0.014079300536627436,"584":-0.04819387303723963,"585":0.02027713838764809,"586":-0.0386550420051838,"587":-0.09641953497416011,"588":0.0026329675711860923,"589":-0.004868253409966729,"590":0.047002593119791186,"591":-0.0561900066153929,"592":0.05455607225971346,"593":0.04005061689415394,"594":-0.052198400414162405,"595":-0.0015230869703766552,"596":0.030720746433529802,"597":0.06952567091120021,"598":-0.08013770018142256,"599":0.031465686314390506,"600":-0.10114341729740461,"601":0.035636944334990456,"602":-0.024838280378064702,"603":0.04974573140826617,"604":0.008356295822978439,"605":0.019265886012548444,"606":-0.05704537426703384,"607":-0.04079794857008871,"608":0.029125286483611606,"609":-0.06314069910873336,"610":0.025975776606563784,"611":0.003033522785243963,"612":0.03143773113448461,"613":-0.030938600811269524,"614":0.004861926934033604,"615":-0.009354942075624028,"616":-0.06685932151041568,"617":0.03098572761290683,"618":-0.09676200325912707,"619":0.05868175485033185,"620":-0.12222356117100279,"621":0.002225943044338242,"622":-0.05536906439250804,"623":0.06759885399541266,"624":0.011839796107532526,"625":-0.017058893303935906,"626":-0.020234373195888267,"627":-0.027027774767944966,"628":0.018033331400461303,"629":0.0037187500566712227,"630":0.05895901180818495,"631":-0.08153055218549062,"632":0.007985883863658323,"633":-0.01042533368905947,"634":0.04181053425535355,"635":0.012046689322724952,"636":0.024753035181182315,"637":0.02763920000342331,"638":0.015326979485012682,"639":-0.03904553248104123,"640":-0.038967141216897073,"641":0.011205318260853147,"642":-0.08909960735486697,"643":0.07723682460715699,"644":0.05101024798363145,"645":0.06518033423516237,"646":0.0335569500580118,"647":-0.026238793160450767,"648":-0.05546712813004298,"649":0.0013001467801435464,"650":-0.018732986890324606,"651":0.023805054167825235,"652":0.017701974992613962,"653":-0.02792389897834209,"654":0.11472831601022843,"655":0.050258926748463724,"656":0.027800982641875693,"657":0.01293310634159498,"658":0.021169453848125075,"659":0.006787317908003051,"660":-0.055402549107644895,"661":-0.001353669630412631,"662":-0.03809682873033896,"663":0.027668165233393285,"664":-0.0666778574430707,"665":0.046623337850178796,"666":0.05722876308266814,"667":-0.02147462536603185,"668":-0.053379639462519377,"669":-0.0003865494322180494,"670":0.004660144498658629,"671":0.037331681080581686,"672":0.026840580282537666,"673":-0.051979230355728184,"674":0.04545933986892355,"675":-0.07237344012939684,"676":0.044677845668864465,"677":-0.0032124588594448027,"678":0.030181618278702752,"679":0.036230158925164874,"680":-0.06549765063312397,"681":0.02733851686613839,"682":0.0010956595196014757,"683":-0.0047768886202741575,"684":0.06078034149641574,"685":0.0027288360517385493,"686":-0.03716158167222319,"687":0.038797648781913406,"688":-0.01700407804654921,"689":-0.028786121553269553,"690":-0.0650591284627735,"691":0.0064049115564076345,"692":-0.020769061686029173,"693":-0.04338981797196324,"694":-0.05240456762989056,"695":0.01063798330738018,"696":0.107868577952219,"697":-0.06879660652809311,"698":0.005581698044218712,"699":-0.04978250768625793,"700":0.04031374468762432,"701":-0.04045700804228994,"702":0.012665132503813289,"703":0.03670633228400361,"704":0.004843758644995602,"705":0.0409420852140656,"706":-0.0028452514607079727,"707":0.04190153341151698,"708":-0.00971913338552335,"709":-0.022295618983472598,"710":0.0020625382844398276,"711":-0.056901127816220844,"712":0.0021281561990601702,"713":0.05026815013916838,"714":-0.024896131902119256,"715":0.048878498659777836,"716":-0.016884867356637953,"717":-0.0253081290921404,"718":-0.03302956146953382,"719":-0.056143776251399956,"720":0.07783567392097389,"721":-0.04802462095067784,"722":0.10968899883302935,"723":0.022794562877801183,"724":0.03560852550665897,"725":-0.020220080127786363,"726":0.06729893935772989,"727":-0.041625863166708695,"728":-0.051918814791603374,"729":0.06445003084428187,"730":-0.049742153847780454,"731":-0.08204816284864808,"732":-0.06534087211277195,"733":0.01807788794894242,"734":0.04043520620623006,"735":-0.0009118077059703427,"736":0.00880380365376749,"737":0.06174072464972721,"738":0.008338339475647397,"739":0.020047572916151054,"740":0.08441623503616251,"741":-0.09307545041431801,"742":-0.045074172200411995,"743":-0.023452579421029053,"744":0.0825335594549042,"745":0.038412935804823994,"746":0.07211252419179832,"747":-0.00859149375848214,"748":0.03153101075441639,"749":-0.03694583241299286,"750":-0.006770082472025672,"751":-0.014172627504536352,"752":0.015963312919300636,"753":0.021761334555103568,"754":0.027647876869996906,"755":-0.02266436451586776,"756":-0.01849924505874953,"757":0.07332131340077878,"758":0.020670753508791218,"759":-0.017680208640082636,"760":0.02722089753258021,"761":0.013217388372331256,"762":-0.03811676327315279,"763":-0.02208174724556526,"764":-0.0068567491984927,"765":0.06943555082568559,"766":0.009999445438619595,"767":-0.0377616830435266,"768":0.053882749532107234,"769":-0.0008189514202292794}},{"sx":1,"sy":1,"depth":770,"w":{"0":-0.00027431718315660896,"1":0.04504893426207106,"2":-0.036838178454477004,"3":-0.0054898118944303265,"4":-0.04020913690860732,"5":-0.05995920184793348,"6":-0.007470524609118931,"7":0.0968084553949348,"8":0.05457811559190344,"9":-0.03190738939866356,"10":-0.015470934862798214,"11":0.002352447406846944,"12":0.020929194683795973,"13":0.06760170502352929,"14":0.009695609371641234,"15":0.030159691627428455,"16":0.019276955916375852,"17":-0.019528078143139442,"18":0.05409164937239878,"19":-0.01677463936529952,"20":-0.00541161750137071,"21":0.028496549007995794,"22":-0.09635435231660432,"23":-0.013221618629543887,"24":-0.009789941066341125,"25":-0.03822244756865706,"26":-0.045989663329322625,"27":0.024539681087605167,"28":-0.036397566652442925,"29":-0.02255747318550135,"30":0.0525956968094257,"31":0.10184830993942612,"32":0.028711155202982994,"33":-0.042189606926028654,"34":-0.030788903293360988,"35":0.05501146618371652,"36":-0.05260033626845661,"37":0.01911207514357979,"38":-0.016738433211211493,"39":-0.03203872490872391,"40":-0.06365500479135659,"41":-0.027140470092016346,"42":0.030521529363211234,"43":-0.04650339681482145,"44":0.0053932714448972395,"45":-0.015822613803562615,"46":-0.0033701428452859324,"47":0.010276498771214355,"48":-0.011757080647342986,"49":0.04421193089752456,"50":0.0652324794613907,"51":0.013440652498699943,"52":0.018502302674401887,"53":0.049706811540500905,"54":-0.016656591795611544,"55":-0.022464356701519864,"56":-0.05923931694834928,"57":0.017683702061603183,"58":-0.017409218840313795,"59":-0.028189267572961297,"60":0.04740411616215718,"61":-0.02261713948662255,"62":0.049320890829854074,"63":-0.01004075767042083,"64":0.006050528417474455,"65":0.006524792174307048,"66":-0.036864757454674546,"67":-0.06164580044190281,"68":0.054477788269935094,"69":0.041506504238069133,"70":0.027029506384751722,"71":0.04387095913645201,"72":-0.03375257343275251,"73":-0.02513083359350544,"74":-0.025606842917812834,"75":-0.027988130557482376,"76":0.007113704580474669,"77":-0.0038730617641556096,"78":0.022510934833000838,"79":-0.037786703155020876,"80":0.0022114203538417566,"81":0.01636108147892116,"82":-0.02260495974456152,"83":-0.008249065959685851,"84":0.09522522344142013,"85":0.1304801915830435,"86":-0.0661077466335851,"87":-0.02068318868926805,"88":0.02513255000169055,"89":0.045200207219707994,"90":0.0049348307222590185,"91":0.02429913154267455,"92":0.015974636053650054,"93":-0.035782745198066214,"94":-0.014279174498689842,"95":-0.006897862153025001,"96":0.03229719478323357,"97":-0.01830015224300534,"98":0.021514189541933466,"99":-0.004555676208086621,"100":-0.05999592992786597,"101":-0.04037618697072203,"102":-0.005271171643846577,"103":0.05326025891487357,"104":-0.04455572055731578,"105":0.043579471278734655,"106":-0.00514222573843758,"107":0.004048535079907886,"108":0.03785685118042672,"109":0.0718023316014596,"110":0.007001458935709767,"111":-0.023939999279282666,"112":-0.08164263990215172,"113":0.01429671628503122,"114":0.007136722647187113,"115":0.04784934003031463,"116":0.032495331213505604,"117":0.03313260895480612,"118":0.01092888909184729,"119":0.037484708199848046,"120":-0.013062305977861101,"121":-0.03765901256354571,"122":-0.00047262247775029073,"123":0.0031227307715752557,"124":0.03725716835577478,"125":0.041083602719577485,"126":-0.0009851914070079038,"127":-0.002627138615090929,"128":0.02026132572712825,"129":-0.04648173382549276,"130":0.02720943062867109,"131":0.006944499359808464,"132":0.011197644775392241,"133":0.020331675760552285,"134":-0.03166756528670676,"135":-0.04897092205091429,"136":-0.028892937884759332,"137":0.014484657598531816,"138":0.031939652166997894,"139":0.007570817219345026,"140":0.010935351325719763,"141":-0.023749476320653638,"142":0.061804459620280056,"143":-0.011341288199428414,"144":0.03523467644556574,"145":0.020848405125482496,"146":0.05370801464219447,"147":0.008840618182045106,"148":-0.01874743158258256,"149":-0.0014386698646138194,"150":0.04278424681694735,"151":-0.005147975415287328,"152":0.04508398982130824,"153":-0.04556593969022755,"154":0.006181586557295778,"155":0.024390081366087696,"156":0.006648415569701196,"157":0.0509629265451907,"158":-0.016198238036854804,"159":0.0056134387753293226,"160":0.001101278308458459,"161":0.08734073429631291,"162":0.0005633849310879296,"163":-0.024094012187179503,"164":-0.027616621889370363,"165":0.08312301592128402,"166":0.006399932556838984,"167":0.015455668640039916,"168":0.06896644274438367,"169":-0.04973548607129565,"170":0.050618112019332674,"171":-0.04097422451789482,"172":0.08015316988294612,"173":0.009150469036162333,"174":-0.029413896083207013,"175":0.024684609431262033,"176":-0.010599474208549607,"177":-0.0020061159677898207,"178":-0.009455669751348733,"179":0.10410164661370877,"180":-0.033514893585900235,"181":-0.035407539921867036,"182":0.1093102983808107,"183":-0.012126467869038914,"184":0.0037615631205186345,"185":0.053556902063822506,"186":-0.02935562345535682,"187":0.003402432939568774,"188":0.06299834746017016,"189":-0.011965117209956315,"190":0.04148801040974034,"191":-0.058961023850231505,"192":0.02252533204541959,"193":0.03908302857073616,"194":0.05347991380902015,"195":0.008519218656142698,"196":-0.012849224303044231,"197":0.04381219376109745,"198":-0.031978238844971064,"199":0.008242996942128981,"200":0.04543065487087374,"201":-0.008286378781575315,"202":0.027718845133615177,"203":-0.02073624549064985,"204":0.08902116141490765,"205":-0.002486795095430081,"206":-0.00020998363498753202,"207":0.010403367862064961,"208":-0.015331171128077005,"209":-0.006816022540244666,"210":0.019181263946885446,"211":-0.046388361041332433,"212":0.019679979164278927,"213":0.0037984041528685585,"214":-0.02487649996073138,"215":-0.02080234296282398,"216":-0.08629579730566994,"217":0.00020493081307646334,"218":0.014457565883597182,"219":0.05205792926837622,"220":0.03905045283222618,"221":-0.06793943700262157,"222":-0.006860371196889057,"223":-0.032464191550752565,"224":0.055890482356371916,"225":-0.013337821776739487,"226":-0.023179135400426522,"227":-0.03593776850583198,"228":0.02413734921880164,"229":-0.02824230147378694,"230":-0.053511962128720524,"231":0.059898177060502864,"232":-0.06923917849497314,"233":0.0042436716561900035,"234":0.015080630126414536,"235":0.04019280901072386,"236":-0.005897466201421699,"237":-0.009714803206173293,"238":0.003674918193004097,"239":0.0299978107536519,"240":0.06192322348034027,"241":-0.11481430561989536,"242":0.0016658794639001259,"243":0.0076355379383848815,"244":-0.052977019810552896,"245":-0.030794337106294957,"246":0.012865724296402845,"247":-0.045021777390157884,"248":-0.0074075746057176,"249":0.050982837207992675,"250":0.045068439716237814,"251":0.001544529079536696,"252":-0.04918466754791525,"253":-0.052272991457187154,"254":-0.06656590389993268,"255":0.0022685947924124474,"256":-0.00669235086103675,"257":-0.019116355828496044,"258":0.03791171604363206,"259":0.01656211468942654,"260":0.03417265412330428,"261":0.011815053314224729,"262":-0.11110874681607681,"263":-0.019189578660202756,"264":0.0973350909208744,"265":0.06008425142269821,"266":0.045879393842411624,"267":-0.009457561842446841,"268":-0.023742820971049457,"269":0.038829276431818466,"270":-0.04652422288298317,"271":-0.018588770609398547,"272":0.02001419759151138,"273":-0.035947714244365554,"274":-0.07821810809188601,"275":0.010001031714668086,"276":-0.0729727239547588,"277":-0.026183915369129885,"278":0.011485826600467134,"279":-0.07229818158612958,"280":-0.011023606867889453,"281":0.028513990307425904,"282":-0.01078522773027476,"283":-0.0009013821810152018,"284":0.042651099361905816,"285":-0.021240747402147733,"286":0.019416098160211823,"287":-0.035722860682294216,"288":0.002204660866155964,"289":0.050660768385759926,"290":0.034467925415960256,"291":-0.027235413392647966,"292":-0.09336468204740223,"293":-0.029721993638119955,"294":-0.0006907604368780358,"295":-0.0657133149282118,"296":0.0315096613125821,"297":0.05979759028640296,"298":0.04981319738058952,"299":-0.008336295941918898,"300":0.0009483358858580144,"301":-0.05961553228940903,"302":-0.02755458213134579,"303":-0.0910176958128064,"304":-0.05614259788751485,"305":0.022490039247153933,"306":-0.001594374448415159,"307":-0.011082235611735155,"308":0.021384628946435533,"309":-0.0021383385471755957,"310":-0.013170186564003416,"311":0.040113845231755506,"312":-0.031131174693450534,"313":-0.07434143991142592,"314":-0.012655824489095144,"315":-0.020994412332325466,"316":-0.015654367711948055,"317":0.014155530433908232,"318":-0.028404916983354123,"319":0.01795712262870929,"320":-0.07959037732691869,"321":-0.01668353224265424,"322":0.026920292063165444,"323":0.006345253105235427,"324":-0.024390042730407353,"325":0.0251827495814047,"326":0.026418964852254416,"327":0.04213390572620496,"328":0.0245260651406892,"329":-0.008716602880091101,"330":-0.021678016969357006,"331":0.01296354044749198,"332":-0.017397381558676095,"333":-0.017022734686484735,"334":-0.055564821207994115,"335":0.022496565666446682,"336":-0.008606086892763813,"337":0.039302510206823384,"338":-0.0063577920026798174,"339":-0.00899727703948811,"340":0.020305245020999108,"341":-0.007681045198202259,"342":0.025328051888603115,"343":0.035127533760493004,"344":0.026825945974021635,"345":0.012270827079292541,"346":-0.09022211910639634,"347":0.027961179493097503,"348":0.041136518462704115,"349":0.049926678471104595,"350":0.03697249403840863,"351":0.08000176352175509,"352":-0.04262362614811671,"353":-0.004847723501857609,"354":-0.02065173409363645,"355":0.0022202070489317216,"356":0.004187205348583701,"357":0.02658214116932828,"358":-0.02912534557681508,"359":0.0668782311406983,"360":0.007296559441560169,"361":0.05011216902129964,"362":-0.009084723508121378,"363":-0.015925566710679337,"364":-0.0030776783582464736,"365":0.0049118466171763076,"366":-0.015388290969503367,"367":-0.029243470026102433,"368":0.048201906334893484,"369":0.009032838155179914,"370":0.025910658081565917,"371":-0.040491522684822236,"372":0.05763247030934229,"373":0.009695194037034829,"374":-0.008706678827189365,"375":-0.04370692235131637,"376":-0.04063011331798184,"377":-0.015092601057574337,"378":0.06201509247676663,"379":-0.0724546041822494,"380":-0.018951631187661477,"381":0.031066956053084946,"382":-0.021693476676142444,"383":0.05033736800859435,"384":-0.07731242561415115,"385":-0.04782081053968215,"386":-0.005489041777182543,"387":-0.02936828622225404,"388":-0.0024191745773646696,"389":-0.07004827193934711,"390":0.023709311016026118,"391":0.020336356513123988,"392":0.0520430758434101,"393":0.01388166450100648,"394":-0.005123744507335366,"395":0.0035291481778840167,"396":-0.047198112311785154,"397":-0.0009550188300284137,"398":-0.0012944280017121491,"399":-0.0453307758935887,"400":0.04224058365376072,"401":-0.13728563587043943,"402":0.005025147869450623,"403":-0.105136033713546,"404":-0.006990796045192497,"405":0.019091985917797094,"406":-0.0037424251483279673,"407":-0.00066769016899373,"408":0.05323028627664601,"409":0.019509761852166355,"410":0.0016286671987226766,"411":0.010024985596330123,"412":-0.08858328556076656,"413":-0.04840959023531152,"414":0.004305421860576969,"415":0.00679454925332198,"416":-0.03797377173513101,"417":0.02752181749805302,"418":-0.01593352625678027,"419":-0.018994765279847732,"420":0.051383315638775795,"421":0.10844794504893829,"422":-0.007092218242777004,"423":-0.1478328008156252,"424":0.04315980564181131,"425":-0.050332394554355564,"426":-0.0049655432927510935,"427":-0.02233643278945206,"428":-0.06855539547239199,"429":0.024117121508614277,"430":0.029524507237082498,"431":-0.013075419259551036,"432":0.024988792725834177,"433":0.002709585760432904,"434":-0.08391212668473637,"435":-0.015110435677605404,"436":-0.011243163464262042,"437":0.01420143049289324,"438":-0.0510107487714507,"439":-0.0422862491834865,"440":-0.03212278579851709,"441":-0.024087910379865317,"442":-0.0197825764340226,"443":0.03509914417629758,"444":-0.0047829531542502605,"445":-0.04543502438722997,"446":0.01221298728031408,"447":0.08389364392545451,"448":0.001569542969945108,"449":-0.03404352292689769,"450":0.0069140452939777395,"451":0.012711872562432548,"452":0.025295466650603872,"453":-0.011283382171236731,"454":0.04911597122168876,"455":0.03676636154856974,"456":-0.045746900855468516,"457":0.014062642891447331,"458":0.03157579051674221,"459":0.023750249993349987,"460":-0.0007140133179215694,"461":-0.021027998877286864,"462":0.015289900349441634,"463":0.05784919754064039,"464":-0.019567482363314445,"465":-0.023447845278030236,"466":0.10544049503529805,"467":-0.02973345044871849,"468":0.09386551442542382,"469":0.09909686462113206,"470":0.036687969935443654,"471":0.054724759309068595,"472":0.017935817157825273,"473":-0.0026257554060875096,"474":-0.01953436759901484,"475":-0.03307113204029385,"476":-0.005579502714155726,"477":-0.04612563808464767,"478":-0.13685078478616822,"479":0.006502485442793729,"480":0.05330506772602514,"481":0.05550146333555705,"482":0.029886695929113336,"483":0.03789862953741622,"484":-0.010469102599938064,"485":-0.03389505579174741,"486":-0.013292645385722111,"487":-0.05896903688779867,"488":-0.05247141045169215,"489":-0.04589250928802489,"490":0.016698649576577865,"491":-0.011649168847181198,"492":0.024735084990414293,"493":0.0578498809800743,"494":0.04761757976830191,"495":0.006201767504086202,"496":-0.0298392201377832,"497":-0.06215795034716366,"498":0.033650950104350694,"499":-0.0355471001688613,"500":-0.09537992368503012,"501":-0.03368830058369394,"502":0.03788008442989322,"503":0.05506058096660859,"504":-0.013925354991719792,"505":-0.013164786685918322,"506":0.01908928372383376,"507":-0.019061816982861232,"508":-0.014607924907548009,"509":0.018119822431189918,"510":-0.03614110402663645,"511":-0.07253405337338752,"512":-0.027062564341572712,"513":0.0720801353219217,"514":0.009807930324476686,"515":-0.02157512854153464,"516":0.041401076056609865,"517":0.01900693453008472,"518":-0.036413550750057776,"519":-0.07249870010596994,"520":0.01667216006010451,"521":-0.016658888308931155,"522":0.0316416060241093,"523":-0.016060710220095996,"524":0.039455689465808054,"525":0.06959060836981619,"526":0.032332005280957726,"527":-0.005899664268347367,"528":0.006660636360582355,"529":-0.005668175259811999,"530":-0.04531097297760308,"531":-0.007219225211544942,"532":0.01102994904550756,"533":0.026798934211595942,"534":-0.0159946699199495,"535":0.002431160530244019,"536":-0.020644045374189016,"537":-0.062484121271722835,"538":-0.0006934720723373753,"539":-0.013219270825303801,"540":-0.0029934232661829197,"541":-0.044733037008375186,"542":0.0075151350060401936,"543":0.016164093212460755,"544":-0.024847190820415508,"545":-0.059372380855421854,"546":0.0803249374821575,"547":-0.04906302051504186,"548":0.05758773714132384,"549":-0.01041705727401391,"550":0.017557943169899764,"551":-0.001969727675529369,"552":-0.0368032349118028,"553":0.007248414321220566,"554":-0.03424144242996207,"555":-0.008508631122184425,"556":-0.06244302949018143,"557":0.05718731775353775,"558":0.015631582039003288,"559":-0.006870172874740282,"560":-0.030565685326704468,"561":-0.013631388276069727,"562":0.0017908903935249963,"563":0.003665620366304271,"564":-0.03642616412100738,"565":0.015931086210880078,"566":-0.12296442232150676,"567":0.002917280371684198,"568":0.06109270673920583,"569":0.022327624861090595,"570":-0.026634993830521182,"571":-0.06452856832820916,"572":0.0202833557757588,"573":0.04276163181467228,"574":0.024597097892392592,"575":-0.05506049736549175,"576":0.015435878393769295,"577":-0.1068852277624946,"578":0.06889146313913776,"579":0.02445085484312414,"580":-0.03888532055270383,"581":-0.04336222603401776,"582":-0.04517643909591534,"583":-0.01830505646589054,"584":0.08148540424820919,"585":-0.021860143471283885,"586":-0.05690218784373125,"587":0.06855065650290362,"588":-0.02000157542977322,"589":-0.023988263754539843,"590":0.057685480256903454,"591":-0.015090897483065281,"592":-0.03864113680356486,"593":-0.017881664103538062,"594":0.042720864900475344,"595":0.04452491103999314,"596":-0.03993332968980653,"597":-0.08477237508551902,"598":0.11442199841545132,"599":0.05294803386250421,"600":0.11524782962316545,"601":0.04783131161986161,"602":0.00187450579905982,"603":-0.1354555057590047,"604":0.036732656050310585,"605":-0.03559246024540222,"606":0.027091500142502528,"607":-0.012981562270671893,"608":-0.09448834298602636,"609":0.029438190164562165,"610":-0.01851418589462656,"611":0.03375943332025965,"612":-0.032053955640281906,"613":-0.015777727861073784,"614":-0.014128514605001885,"615":0.06968100325130169,"616":-0.012414132504165258,"617":-0.018326294536794376,"618":0.13745643144020378,"619":-0.04181357768457556,"620":0.030642880911379535,"621":-0.0017442023271929392,"622":-0.02461104101233633,"623":0.03093616396553773,"624":-0.06816879561347736,"625":0.006141400869254017,"626":-0.009236898531701647,"627":-0.02654822009164805,"628":-0.01456686150620123,"629":0.03885320468693424,"630":-0.0627041011060578,"631":0.02744173249265563,"632":0.021188160952882396,"633":0.04186293287579558,"634":0.0007793752026629933,"635":-0.042014265980473225,"636":-0.05294772910671366,"637":-0.0007639749169244621,"638":-0.009019571662924868,"639":-0.01850042922300658,"640":-0.025685029047638773,"641":-0.06436540681506187,"642":-0.005066126428424047,"643":-0.003337873503541698,"644":0.0004989637403534871,"645":-0.0003612771668924186,"646":-0.04639976979208754,"647":-0.016385483725604125,"648":-0.03134389486406962,"649":-0.016592088603192636,"650":-0.008579100102730733,"651":-0.024487901228555948,"652":0.01585697949034523,"653":0.04219185406868169,"654":-0.08957304751339998,"655":0.012269369355242452,"656":0.04798429017408836,"657":0.06614082709996244,"658":-0.03104319726934171,"659":-0.0073177609351208605,"660":-0.029285805879109353,"661":-0.01627578932603864,"662":0.01635368204245853,"663":0.01410276035703909,"664":0.10684081519854498,"665":-0.03222124701415608,"666":-0.0741182047007235,"667":0.01118708788883159,"668":0.07086300222869502,"669":-0.04721988990763282,"670":0.004700104777372179,"671":0.015650405181524385,"672":0.01803805001598337,"673":-0.012707854996850135,"674":0.00871745813626528,"675":0.07426985035603749,"676":-0.013701989011476512,"677":-0.05207860092610167,"678":-0.06300758666271492,"679":0.04869316646933421,"680":-0.008233009159950278,"681":0.029098569707432752,"682":0.043391233204493264,"683":0.013222497307384774,"684":-0.023429095416307204,"685":0.04046029166978717,"686":0.053968185181421165,"687":-0.04661645899243569,"688":-0.005459095853635101,"689":-0.11861674287447636,"690":0.028007350045234004,"691":0.08400930034165777,"692":-0.004619185728617135,"693":0.012453934689292992,"694":-0.012705465243583076,"695":0.06148422461982123,"696":0.05148814941448198,"697":0.11083778409271217,"698":0.039074243417475445,"699":0.007347644899062751,"700":0.042819709667195005,"701":0.01448571644328239,"702":0.012961515323937505,"703":0.006648532862110929,"704":-0.010875659309886243,"705":-0.026444869972724747,"706":0.04382973258492103,"707":0.007043197376659458,"708":-0.038063858471081416,"709":-0.041943260965189695,"710":-0.009639171806576209,"711":-0.06954849962963479,"712":0.00902141452373483,"713":-0.032658299581674585,"714":-0.0647682197872313,"715":-0.020540629692343652,"716":-0.0010112991728073763,"717":-0.06128307069262048,"718":-0.06223483775703326,"719":0.015929746849539215,"720":0.08336276350288074,"721":0.009100084949438893,"722":0.006536408879077715,"723":0.01576832619728314,"724":-0.01809749594066952,"725":0.002814349853571004,"726":-0.012181672930842493,"727":-0.04689804748174273,"728":-0.04709576692691262,"729":-0.040721487200312316,"730":0.0825299112784797,"731":-0.0300304816527122,"732":0.0009660221180735502,"733":-0.04726960116254963,"734":-0.016737427614305203,"735":0.0025967750216072225,"736":0.013394880154146409,"737":-0.09111796888800872,"738":-0.09202584511792448,"739":-0.017134049458929348,"740":0.03311194168147086,"741":0.014084509330515558,"742":0.05206289279857981,"743":-0.08566186142338911,"744":-0.023949519082047104,"745":0.0032271922372787342,"746":-0.04292535281757784,"747":-0.016461939947110683,"748":0.014505123753510627,"749":0.022637471903217795,"750":-0.005067040321442846,"751":0.026564896380610555,"752":-0.01608271883526665,"753":-0.015498951793856755,"754":-0.01652207884079724,"755":0.02712626782521205,"756":0.04351714443155457,"757":-0.0073515397715596216,"758":-0.005224565722503136,"759":-0.040773609405532714,"760":0.06072220818861748,"761":-0.04635480163216161,"762":-0.0015691144348457576,"763":-0.013998672160347525,"764":-0.028181524103584574,"765":-0.0005022292727188639,"766":-0.06137570586367411,"767":-0.008335292281533993,"768":-0.04729213210131492,"769":-0.005184211441151439}},{"sx":1,"sy":1,"depth":770,"w":{"0":-0.07400250867804689,"1":-0.07145897554411326,"2":-0.0851040572721844,"3":-0.11561405611337423,"4":-0.05749895651693783,"5":-0.0159669340382542,"6":-0.08965813313413042,"7":-0.06283775958727418,"8":-0.028881960315739582,"9":0.004359901914844135,"10":-0.05589222886167636,"11":0.0133047804917277,"12":-0.005793530489165455,"13":-0.059918178384334025,"14":-0.013591411354603965,"15":-0.0403686059891353,"16":-0.0638001465862068,"17":0.012562751763568013,"18":-0.0734247370084416,"19":-0.005641641257376615,"20":0.03511904707029735,"21":0.05038666811772787,"22":0.0539871479868926,"23":-0.09138745325875385,"24":-0.051735226960334106,"25":-0.040138779685436936,"26":-0.020629928758318854,"27":0.022886131890414815,"28":-0.009445641695759704,"29":-0.06126431029564305,"30":0.03522055848040225,"31":-0.04365693539891163,"32":-0.013960035437223406,"33":0.025016424436600695,"34":-0.007359000088170464,"35":0.007312405601893075,"36":0.06696303680793163,"37":0.06053148215625359,"38":-0.021726108614294557,"39":-0.053757471190700575,"40":0.011686942037056244,"41":-0.04058620035962957,"42":-0.049626719017891244,"43":0.04981460467212973,"44":0.011671462712732294,"45":-0.02407071558316112,"46":-0.04385985137223317,"47":0.03092655809967606,"48":-0.06930469742565858,"49":0.03689782822318256,"50":-0.07216415760560613,"51":-0.045051214658840696,"52":0.03945036460431322,"53":-0.047860559355358726,"54":-0.014047324137831668,"55":0.007716621836047914,"56":-0.026312746703243454,"57":0.014995454446095638,"58":-0.05884446433084769,"59":0.025368280556482225,"60":0.012174694882073006,"61":-0.02231973935630884,"62":0.004701347112738691,"63":-0.03563093320934778,"64":0.010097918054540213,"65":0.018154399964078652,"66":-0.12423584536101119,"67":-0.04946435219963211,"68":0.0467278640621581,"69":-0.045210737976249964,"70":0.0011300385960574073,"71":-0.07528502229779077,"72":-0.026892824811338048,"73":0.038068464974795636,"74":-0.041380517145211855,"75":0.03834368427255742,"76":0.037941619169885143,"77":0.03260009006665264,"78":0.04938798785695757,"79":-0.02972710109687844,"80":0.014380309684127044,"81":-0.015276071003729748,"82":-0.05406511852154059,"83":-0.04739220554992145,"84":-0.020058669439467828,"85":-0.0030331790031067375,"86":-0.07381138158761157,"87":-0.014499078503517752,"88":-0.03523889172463609,"89":-0.030717767476451923,"90":0.02555895906296974,"91":-0.00854623995343583,"92":-0.04748851490482783,"93":0.009197167123892437,"94":-0.017766981268907585,"95":-0.06094542243022529,"96":-0.057964413919632474,"97":-0.020353767709863368,"98":-0.029524334630314467,"99":-0.032330754944870733,"100":-0.014024814560094894,"101":-0.039100030609929594,"102":0.02499084409552308,"103":0.02061447221613724,"104":-0.02404211907521641,"105":-0.06957276790628099,"106":0.03311556281596166,"107":0.012485227383780446,"108":-0.015988958530460142,"109":-0.041617613758874544,"110":-0.004876252977337584,"111":-0.06481696046010516,"112":0.00817555601491527,"113":0.06926360127680971,"114":0.008113226548351199,"115":-0.002420448282165566,"116":-0.08254582691749841,"117":0.01298083888472789,"118":-0.07158557063028025,"119":-0.04265622034098722,"120":-0.013435317575756686,"121":0.04201515472934677,"122":0.03479883914867903,"123":-0.04871308270706948,"124":0.05643107153517936,"125":-0.03355813113235154,"126":-0.03873648392782693,"127":0.03315530390487785,"128":-0.022578411244977326,"129":-0.06447400386921397,"130":0.0686990721973405,"131":-0.06846095681183309,"132":-0.023762042694965155,"133":-0.0022231838528147313,"134":-0.04267500591095759,"135":0.009059021536044652,"136":-0.03305985030246596,"137":0.05684827733363693,"138":-0.014865506057080407,"139":-0.006976689734760649,"140":-0.006818747244847542,"141":-0.029262611861840208,"142":0.010272436113213278,"143":-0.019424030406003125,"144":-0.007811560699759468,"145":-0.0858634675010429,"146":-0.08762788472109266,"147":0.040352516889404826,"148":0.024407178486045806,"149":-0.016646462484502328,"150":0.034714230929451036,"151":-0.018978762384978122,"152":-0.0031463496843346685,"153":-0.004684864966325547,"154":0.00017400260691581695,"155":-0.016406044211155088,"156":0.025928486955432005,"157":0.046055477744016984,"158":0.0005248611230917304,"159":0.0140936701390661,"160":0.06537097047554218,"161":0.002308962495111519,"162":-0.040891032911702596,"163":-0.004979009628308595,"164":-0.014468106945017196,"165":-0.012271052483499089,"166":-0.01988405103737983,"167":-0.011256758380235658,"168":0.0012346664198008659,"169":0.02532610012664188,"170":-0.005108774677070606,"171":0.014973077384236063,"172":-0.04559074272969313,"173":-0.04944630944702528,"174":-0.013520319630361223,"175":-0.048007825702406796,"176":-0.043689706511934864,"177":-0.08400274906493889,"178":0.012916978105908914,"179":0.06024206922421817,"180":-0.011545255306889607,"181":0.02198653699948471,"182":0.0196554680602568,"183":0.000405564070924736,"184":0.005627814866790443,"185":0.023230675414203834,"186":-0.09279377798264124,"187":0.01600346731982539,"188":-0.07545728100036345,"189":-0.019392618027630506,"190":0.003852471410013957,"191":-0.061825073534427524,"192":0.044813298447503175,"193":0.042003781961282516,"194":-0.014321177768172155,"195":-0.0779480069835426,"196":-0.007505697070073764,"197":-0.11976754014963206,"198":-0.028021658507169783,"199":-0.0719154310020446,"200":-0.07460836153856544,"201":0.0036243691611146096,"202":-0.012062029643953988,"203":0.006058051889667628,"204":0.03394918644446349,"205":-0.029821919032178196,"206":-0.03534941623642705,"207":0.0381779478848175,"208":0.0009867965095999665,"209":0.013616073905929256,"210":0.022085112542724977,"211":-0.07798583947806242,"212":-0.023213296000357337,"213":0.05664299757713319,"214":0.04697851713279685,"215":0.038949731027665364,"216":0.03778216240483631,"217":0.02239435840852083,"218":0.05067675509240346,"219":-0.05963910705158657,"220":0.04306956879362999,"221":-0.01939235432425341,"222":-0.023719427776605247,"223":-0.037872140968269366,"224":0.09061787347198678,"225":-0.0024353579253213573,"226":0.013618446442900244,"227":-0.009348093234326225,"228":-0.06328164160947083,"229":-0.012799150917280035,"230":-0.059292418706274316,"231":0.026856245306230125,"232":-0.11931709528229884,"233":-0.009487360205699439,"234":-0.03977225095715904,"235":-0.059530028890373544,"236":0.008263531972342303,"237":0.015402200622795657,"238":-0.026276354057223048,"239":-0.0007913741827898626,"240":-0.0003482680247849119,"241":-0.09872532874083813,"242":-0.015880169369267255,"243":0.026644973179521123,"244":0.0020986546507067616,"245":-0.02339531497049341,"246":-0.0015105506025053913,"247":0.03935246044044796,"248":0.032709692082485566,"249":0.02304381759652598,"250":-0.013281971336812325,"251":-0.01960695582275786,"252":-0.05950350955136047,"253":0.06844058919300777,"254":-0.028320630796287664,"255":0.04370198269020867,"256":0.010247457740468317,"257":0.041867648579247574,"258":0.06572728626781817,"259":-0.0034245858415153825,"260":0.0014038860647625014,"261":0.03213486238794605,"262":0.005902895559954692,"263":-0.04571663302667881,"264":0.059020319587004266,"265":-0.021747041437730697,"266":0.00020881444331593334,"267":-0.022467298455398226,"268":0.02442039206548068,"269":0.06885889614270448,"270":0.005325163452345155,"271":-0.019891066404116427,"272":0.017902221183719192,"273":0.010420653446076195,"274":0.046634100957703116,"275":-0.006986620315736309,"276":-0.10699083764274825,"277":0.02045990757136869,"278":-0.03398544201359637,"279":0.03494927432845833,"280":-0.004455800201049375,"281":-0.01823673395815212,"282":0.03683460908190376,"283":-0.017669533424194375,"284":-0.05257015744310347,"285":0.034679564344281974,"286":-0.03300433946699812,"287":0.008797849364976823,"288":-0.043089315459297985,"289":-0.08052437535395361,"290":0.013765173304708542,"291":0.022633714009093205,"292":0.08850722083316562,"293":0.0016422481510697737,"294":0.034195482114864804,"295":0.017397762852892632,"296":0.006872047558377318,"297":-0.03232221207912533,"298":-0.06576903973284925,"299":0.06841465546147428,"300":0.006719020951079041,"301":-0.04585855110400451,"302":0.10067749376394325,"303":0.08888181029882852,"304":-0.012365067846024081,"305":0.03543693153481212,"306":0.012440669170258722,"307":0.0004741948433662457,"308":-0.0054547145138706225,"309":-0.01702819685884486,"310":-0.0005163946336979484,"311":-0.04108681616442964,"312":-0.09154541558450228,"313":0.06275241794387719,"314":0.05946728007180717,"315":0.025078815725912567,"316":-0.015291463579216421,"317":-0.04892191647926689,"318":-0.04248190388369068,"319":-0.09272319579903332,"320":-0.04657787118346803,"321":-0.014645712452705323,"322":-0.007884397765256328,"323":-0.02893272739140047,"324":0.06595023492110286,"325":0.07825988201184811,"326":0.016279993590787953,"327":-0.05316434095793052,"328":-0.00709068012342724,"329":-0.0760789133723436,"330":-0.020016974606848644,"331":-0.04268298065863868,"332":-0.037442936084466645,"333":0.03100262401009986,"334":-0.04764450289957698,"335":0.07758683795187514,"336":0.10705209484663454,"337":0.0034019862001853462,"338":-0.027263217785127178,"339":0.043559837270390145,"340":-0.11495520583841541,"341":-0.05921999787624952,"342":-0.04960050257062069,"343":0.04481747720618418,"344":0.005242462288944319,"345":0.0356005127804234,"346":0.10753544559467079,"347":0.025003256389757138,"348":0.006238788772595228,"349":-0.06984152493933152,"350":0.07850165846428425,"351":0.012529007674478093,"352":-0.08490059549638755,"353":-0.07114123150943043,"354":-0.02470072151183758,"355":-0.03355459354036794,"356":-0.04681149946112736,"357":0.18087471657975693,"358":0.08629011241612054,"359":-0.018741907900618332,"360":-0.04444253085425818,"361":0.005894653614792107,"362":-0.055792431048579214,"363":-0.07219132012230009,"364":-0.026252768909621853,"365":-0.02701144966025191,"366":0.005730943803296867,"367":-0.006732357022948104,"368":0.10832304211362746,"369":0.06701682816073168,"370":-0.010394577675201138,"371":-0.0061572115613081615,"372":0.008697971222486892,"373":-0.030768690947550976,"374":-0.024162486296799447,"375":0.004537366505176506,"376":-0.07903436992796231,"377":-0.04296007322427412,"378":-0.0008556841354449058,"379":0.13140397777185886,"380":0.09519631939065736,"381":-0.05735851381681408,"382":0.03667095340448354,"383":0.01175209958384661,"384":0.062170043273448834,"385":-0.022109988867557932,"386":-0.013822097549750221,"387":-0.052774133701101865,"388":-0.03218159847863417,"389":0.01944337874758764,"390":0.24664751368429116,"391":-0.04272130419642593,"392":-0.0037528531413073356,"393":-0.039886999832061065,"394":-0.010210889071713376,"395":0.03970758033933144,"396":-0.00029547575591977525,"397":-0.05719673977892188,"398":0.005626657446981243,"399":-0.07011687224203594,"400":0.13438738161926375,"401":0.205899194039543,"402":0.09120014971751954,"403":-0.0521305257233836,"404":-0.0007274608177897121,"405":0.0193331653298569,"406":0.08196282414907627,"407":-0.012678057647635268,"408":-0.015087066664743675,"409":-0.08884826869072067,"410":-0.07168009618489249,"411":0.07339393240961423,"412":0.14556324563085535,"413":-0.00690098197527993,"414":-0.0581705386296744,"415":-0.019795387992544083,"416":0.0062009985593655115,"417":-0.058796532536373056,"418":0.014177454387001211,"419":-0.041602609260032765,"420":0.011959624900595014,"421":-0.03859199902157629,"422":-0.004005574151138059,"423":0.2568791789688333,"424":0.04122421545649772,"425":-0.031113141551521794,"426":-0.05886194157028368,"427":-0.02512433541240786,"428":-0.007356646440120382,"429":-0.018063727194451457,"430":0.00842760412617508,"431":0.0009003223709047767,"432":-0.05225059106191877,"433":-0.00923628727074407,"434":0.24493942300616528,"435":0.07523939384664272,"436":-0.10052615078373335,"437":-0.04383822669556189,"438":0.03020693584279111,"439":0.025281434948727463,"440":-0.0013122878635948138,"441":0.02895771391601578,"442":0.08849362281322032,"443":-0.057078958132481955,"444":-0.04057504830350969,"445":0.2353344343439356,"446":-0.0005831401738673689,"447":-0.03942485469083066,"448":0.028359667470603547,"449":-0.012647409249036552,"450":0.010289692544628842,"451":-0.021847936790676144,"452":-0.043197115688841596,"453":0.005108774107621349,"454":-0.046442511240058264,"455":-0.008780026973760955,"456":0.2859525544690369,"457":0.04401319123500692,"458":-0.012378972833500927,"459":0.00823855004002996,"460":-0.019726878084549794,"461":0.043697470368327544,"462":0.024880478523669522,"463":-0.05363172260464877,"464":-0.10261751535587271,"465":-0.07028134911175998,"466":-0.010260026263908349,"467":0.26079777307313645,"468":0.0013785513928473102,"469":0.03832977106095217,"470":-0.11836128504637013,"471":-0.06449491549129953,"472":0.018788727360516948,"473":-0.050541601912154184,"474":0.031343266698094896,"475":0.0026703656614107743,"476":-0.0042562240129551485,"477":-0.05876287189280364,"478":0.2524857803212847,"479":-0.06208529135268455,"480":-0.018087224330359676,"481":-0.0844471845023199,"482":-0.026482853962645075,"483":0.05020458490914005,"484":-0.054113457545103515,"485":-0.05236593864444523,"486":-0.014510482279877725,"487":-0.07740166086492552,"488":-0.03811149160322885,"489":0.27077193261363536,"490":-0.08038251895964806,"491":-0.005496476456975337,"492":-0.012285503775336975,"493":0.024091738869232174,"494":-0.0073251717510297906,"495":-0.008137953973468328,"496":0.03672868099379835,"497":-0.0433628643070659,"498":-0.03528386558948617,"499":-0.08061461361042084,"500":0.18428021860262045,"501":-0.04942034602123459,"502":-0.010465828152230643,"503":0.01149401511803332,"504":-0.024827876202079203,"505":0.026136055087421343,"506":0.0006119732061815122,"507":0.017474938113762634,"508":0.0042516200227208575,"509":-0.07880841830725903,"510":0.0019548902895666345,"511":0.12552956811622717,"512":-0.0852748097066638,"513":-0.02573862153470045,"514":-0.03789556434075185,"515":0.03149558950044146,"516":-0.04189150461338604,"517":0.010343685504980021,"518":0.005696883044836367,"519":0.04247198177570704,"520":-0.04516768311547499,"521":-0.004934634337383315,"522":-0.05406242082426443,"523":-0.07025815063595076,"524":-0.025350551286452024,"525":-0.06884576291664356,"526":-0.016574501609187785,"527":0.032693275872012685,"528":-0.009305722011394527,"529":-0.03824174649252927,"530":0.06486395646248508,"531":-0.07634405953279112,"532":-0.062499086552662446,"533":-0.013247370993350235,"534":-0.09786497099997071,"535":0.052410219311812764,"536":0.027070636559810488,"537":0.05875026457020747,"538":-0.10034754476832387,"539":-0.004439345270177826,"540":-0.024332718101495208,"541":-0.013142580998222974,"542":-0.09535842462027004,"543":-0.12860297431982703,"544":0.012667519976973645,"545":-0.08559215057752988,"546":0.013371790045837157,"547":-0.026086525931284067,"548":-0.0825562512967748,"549":-0.023826640987833016,"550":-0.021028885626547197,"551":0.02806527049482417,"552":-0.04446867091274633,"553":-0.10148612552071738,"554":-0.08588132184692489,"555":0.27720247670849213,"556":-0.10363655477334066,